<?xml version="1.0"?>
<opencv_storage>
<my_detector_2 type_id="opencv-object-detector-hog">
  <winSize>
    128 128</winSize>
  <blockSize>
    16 16</blockSize>
  <blockStride>
    8 8</blockStride>
  <cellSize>
    8 8</cellSize>
  <nbins>9</nbins>
  <derivAperture>1</derivAperture>
  <winSigma>4.</winSigma>
  <histogramNormType>0</histogramNormType>
  <L2HysThreshold>2.0000000000000001e-01</L2HysThreshold>
  <gammaCorrection>1</gammaCorrection>
  <nlevels>64</nlevels>
  <signedGradient>0</signedGradient>
  <SVMDetector>
    -1.67751443e-02 -1.58959941e-03 -3.42813740e-03 -4.56362730e-03
    5.79118589e-03 -1.04338990e-03 8.09286663e-04 -3.16988979e-03
    -1.83474664e-02 -4.94757900e-03 1.95581792e-03 1.00413128e-03
    -7.68557331e-03 5.78943780e-03 -6.27844734e-03 1.45085878e-03
    -1.41556142e-03 -1.09011233e-02 5.10748895e-03 1.17028207e-02
    -4.37230570e-03 -7.63731496e-03 6.61029993e-03 -1.78295525e-03
    4.66429209e-03 1.78594457e-03 -7.57166930e-03 1.02823768e-02
    1.78660508e-02 3.15319491e-03 -7.05551961e-03 1.13011505e-02
    -3.21938330e-03 1.39007787e-03 1.11676555e-03 -2.23622163e-04
    2.92042183e-04 4.13274905e-03 4.92169196e-03 -5.93181374e-03
    6.27153041e-03 -9.85282939e-03 -4.85402794e-04 -3.52853839e-03
    -9.48795956e-03 6.18687971e-03 1.02506559e-02 5.30121033e-04
    -5.10409940e-03 6.13646396e-03 -7.19516911e-03 -1.45055063e-03
    -7.25455023e-03 -1.09490119e-02 8.53063539e-03 1.39566772e-02
    -1.55794725e-03 -6.61591114e-03 1.01326061e-02 -9.41697694e-03
    -2.24587135e-03 -3.75609286e-03 -2.40356708e-03 9.65170190e-03
    9.19868983e-03 6.60397636e-04 -6.83187880e-03 5.47964824e-03
    -8.04931205e-03 -1.61184568e-03 -8.31844471e-03 -1.13222981e-03
    2.48284452e-03 5.49183646e-03 -1.52420555e-03 -4.46409872e-03
    5.05476724e-03 -4.64929594e-03 -1.13833550e-04 -4.97350609e-03
    -1.19904317e-02 8.16145795e-04 6.75943354e-03 -1.34794030e-03
    -3.83540895e-03 1.20835593e-02 -7.60018593e-04 2.66215764e-04
    -4.75378055e-03 -1.42432572e-02 8.61664955e-03 3.25972680e-03
    -2.01408425e-03 -6.56430097e-03 7.92242863e-05 -5.46683418e-03
    -2.01964355e-03 -8.91500618e-03 -3.97572573e-03 7.22821662e-03
    1.66820711e-04 -6.57831319e-03 -7.59089645e-03 1.03650941e-02
    -3.97851504e-03 2.41026795e-03 -4.53560334e-03 -2.72065122e-03
    -2.99521838e-03 4.00743680e-03 -4.58035665e-03 -2.58555426e-03
    1.25346556e-02 1.93067035e-03 1.96337188e-03 -4.19209432e-03
    -1.48677668e-02 -3.11703514e-03 2.71111698e-04 -7.01183919e-03
    -3.89958790e-04 1.78386178e-02 -6.09235663e-04 3.36445356e-03
    -3.65358219e-03 -8.24292004e-03 1.67858240e-03 -3.25391535e-03
    -8.98689032e-03 -4.74156905e-03 1.09333284e-02 -4.90906532e-04
    3.57188564e-03 -3.65231931e-03 -4.24541393e-03 5.71783911e-03
    -5.06609306e-03 -1.31731415e-02 -4.33104858e-03 1.29854288e-02
    -2.00938899e-03 -3.85352789e-04 -4.05072235e-03 -1.54099043e-03
    2.36729952e-03 1.40302605e-03 -8.10939725e-03 -8.13772553e-04
    8.73394962e-03 -4.99501498e-03 1.11322012e-03 -3.35853058e-03
    -2.73769093e-03 2.51820707e-03 -2.46858294e-03 -1.05888192e-02
    -2.51543708e-03 -1.50661310e-03 -5.22197224e-03 -3.69179226e-03
    -4.47282987e-03 2.86487932e-03 1.52581306e-02 -6.58239704e-03
    -1.10441167e-02 -4.31858562e-03 4.36581578e-03 -4.51746676e-03
    -2.81151175e-03 -4.44044778e-03 9.41946264e-03 1.60475895e-02
    -1.06782038e-02 -1.04519669e-02 -5.47275459e-03 4.84325050e-04
    -5.70555963e-03 -3.25893075e-03 -5.44902403e-03 1.55560561e-02
    -5.06628118e-03 -3.81720625e-03 -1.01716705e-02 -2.68615084e-03
    2.60611787e-03 -3.33430921e-03 -4.03668964e-03 -3.83097725e-03
    1.97577741e-04 -7.43589923e-03 -3.54684261e-03 -6.98641967e-03
    -7.22503383e-03 8.43901932e-03 -1.48646720e-03 1.91375916e-03
    5.70092816e-04 -2.09903624e-03 1.11170169e-02 -9.00184270e-03
    -7.48848310e-03 -4.72892169e-03 2.68965890e-03 -5.51923644e-03
    -7.58402469e-03 -5.98703092e-03 1.00956447e-02 4.81319427e-03
    -7.91935995e-03 -8.49989615e-03 -6.67176442e-03 9.03432816e-03
    -3.02154454e-03 -4.34820028e-03 2.93565070e-04 7.12710107e-03
    -5.25007304e-03 -5.92639064e-03 -3.33837629e-03 -3.73658072e-03
    5.21692820e-03 -1.04092935e-03 4.33663279e-03 3.46428715e-03
    4.24561935e-04 -6.45834254e-03 -1.03481794e-02 -5.00419317e-03
    -3.63332313e-03 5.72103402e-03 -8.90378188e-03 4.37252782e-03
    7.97737204e-03 6.44767331e-03 7.51220016e-03 -4.98468056e-03
    -3.13172746e-03 -2.68300483e-03 6.15360821e-03 -8.31366400e-04
    1.72310462e-03 3.30682471e-03 7.82241113e-03 2.90959026e-03
    -2.30989768e-03 -1.96565664e-03 -3.36288568e-03 8.20878800e-03
    -1.15377158e-02 1.11100904e-03 4.43724915e-03 1.11521874e-02
    -4.06254316e-03 -1.02242315e-02 -7.89144915e-03 -3.75614804e-03
    1.69576320e-03 -6.91201864e-03 6.32596202e-03 5.11821220e-03
    1.07658962e-02 5.27723553e-03 -1.52391812e-03 -4.88917204e-03
    -2.57674721e-04 -2.32978887e-03 -1.04890931e-02 2.05530948e-03
    9.01271997e-04 1.14400145e-02 6.58090343e-04 -1.74752099e-03
    -2.09426950e-03 -3.06753046e-03 3.59038892e-03 -8.24383367e-03
    2.53164605e-03 3.65519198e-03 9.12427809e-03 -8.49792152e-04
    2.59150541e-03 -2.87191477e-03 -5.83676912e-04 -8.40559824e-06
    -1.00912536e-02 1.62902114e-03 -7.65759090e-04 2.08091363e-03
    9.44276899e-03 3.02340207e-03 -1.84453372e-03 -3.06809228e-03
    -7.81552680e-03 -1.22469552e-02 -1.89651188e-03 -7.56539521e-04
    4.99579404e-03 6.75493572e-03 5.46443788e-03 1.79731360e-04
    -2.27239239e-03 -3.98151111e-03 -6.85789343e-03 -3.49024567e-03
    -9.11532994e-03 -5.17358864e-03 2.44979019e-04 5.49238967e-03
    -3.66747193e-03 -1.45137636e-03 -6.52181264e-03 -1.12419231e-02
    3.86313244e-04 -2.19641230e-03 -7.77428795e-04 -2.85394001e-03
    6.61748787e-03 2.00576521e-03 -2.07105395e-03 -5.75858867e-03
    -7.41707161e-03 2.00468465e-03 -4.88860905e-03 -9.60683078e-03
    2.41097435e-03 6.83907326e-03 2.92782369e-03 -1.22876209e-03
    4.16863273e-04 -1.26945763e-03 5.83483430e-04 -5.06191747e-03
    -8.89294501e-03 3.01614236e-05 7.71034556e-03 1.91863289e-03
    -3.81376571e-03 -4.64180950e-03 -8.88167415e-04 2.52372283e-03
    -4.30656335e-04 -9.38948616e-03 -5.38798282e-03 1.49739059e-02
    7.81865790e-03 2.39825295e-03 5.14728483e-04 -7.49952684e-04
    2.96854461e-03 -3.23131145e-03 -1.58350263e-02 -6.50359783e-03
    1.52350068e-02 3.93578131e-03 -5.09818923e-03 -4.07572929e-03
    2.65322952e-03 4.92864847e-03 2.40050303e-03 -1.04935598e-02
    6.77674077e-03 5.51885413e-03 4.28815745e-03 1.53332167e-06
    2.97968101e-04 -1.85073575e-03 2.26797373e-03 2.85906368e-03
    -3.09216604e-03 1.16094891e-02 6.27687620e-03 8.28705437e-04
    -3.45482770e-03 -5.30254794e-03 -1.08752940e-02 -8.69312230e-03
    -3.35173937e-03 1.80256774e-03 -1.30769925e-03 1.11325737e-02
    4.20562411e-03 -2.28477875e-03 2.16462230e-03 2.54644430e-03
    5.46253147e-03 6.51913090e-03 -6.12375233e-03 3.12728412e-03
    9.54775047e-03 2.09072209e-03 -5.18540153e-03 -2.61591189e-03
    -6.42615231e-03 -4.18529706e-03 9.15072742e-04 -1.13752571e-06
    8.35710950e-03 8.43664259e-03 1.35111902e-03 -6.59266370e-04
    -8.52347235e-04 -7.38635520e-03 -7.27246748e-03 -5.88881038e-03
    1.99008523e-03 8.58011842e-03 8.35994072e-03 4.93821176e-03
    4.86466102e-03 4.08865977e-03 -3.72170657e-03 -8.42285529e-03
    -3.13511374e-03 4.06247098e-03 -7.10805994e-04 7.02672452e-03
    4.11986094e-03 -5.23389550e-04 -1.23373268e-03 -8.87407362e-03
    -7.72033399e-03 -3.06216022e-03 -5.30307926e-03 -6.74609886e-03
    2.25883559e-03 2.09679687e-03 3.96908727e-03 5.88548370e-03
    -4.84968582e-03 -7.89491460e-03 -3.99117218e-03 -6.37032697e-03
    5.23014972e-03 9.39274556e-04 1.48737291e-03 1.89202209e-03
    4.73967660e-03 -1.66064000e-03 3.68830690e-04 -1.24567503e-03
    2.48063635e-03 7.84259941e-03 8.92061507e-05 4.37925977e-04
    1.03959988e-03 8.99407919e-03 2.19082856e-03 8.46321508e-03
    4.18824004e-03 4.94157523e-03 -8.43706354e-03 -5.87680331e-03
    -2.87285727e-03 7.77855865e-04 2.99296994e-03 -3.35599855e-03
    -2.26212898e-03 -6.36164332e-05 -7.62941968e-03 -2.14074459e-03
    -1.69544050e-03 -1.01236254e-03 8.35914805e-04 2.86496500e-03
    -4.11300035e-03 5.91665786e-03 4.50492185e-03 -3.22730420e-03
    1.14060920e-02 -1.80583366e-03 -2.41300743e-03 -3.83702875e-03
    5.70080569e-03 -5.09080826e-04 6.03662338e-03 5.08453045e-03
    8.38421378e-03 9.19428095e-03 -7.93308299e-03 -1.56084066e-02
    -4.16605687e-03 6.59925304e-03 -2.77083181e-03 2.67776637e-03
    3.05567193e-03 1.02657173e-02 4.66209254e-04 -4.30552289e-03
    -3.89105431e-03 -1.60084292e-03 -1.58037292e-04 -4.30637132e-03
    4.95957211e-03 3.76175647e-03 -1.96521683e-03 1.77783880e-03
    -9.08210035e-03 -1.24274977e-02 -8.28006305e-03 4.98233736e-03
    -5.57060644e-04 7.88871292e-03 6.08186098e-03 3.43449618e-04
    9.82687343e-03 -1.26319081e-02 -1.73331015e-02 -4.24816785e-03
    6.45938003e-03 -6.50791125e-03 1.31172698e-03 4.20373725e-03
    1.22656869e-02 1.20057436e-02 -3.34380195e-03 -4.90328809e-03
    -1.60434644e-03 7.61029264e-03 -3.48208495e-03 -1.32223137e-03
    4.50520637e-03 1.56708453e-02 2.72177276e-03 -1.03866188e-02
    -1.29433824e-02 -1.11737009e-02 1.97571144e-03 -4.01021028e-03
    5.42034069e-03 7.20945140e-03 5.49616199e-03 7.76298984e-05
    -3.98961641e-03 -7.17148045e-03 -9.64037050e-03 6.04015915e-03
    -2.73153046e-03 2.91013601e-03 5.07023185e-03 9.07143019e-03
    -2.10495014e-03 6.64899498e-03 -7.53781246e-03 -6.13369700e-03
    8.24977062e-04 -1.79780717e-03 1.08381349e-03 -5.55795676e-04
    -9.79689136e-03 -4.23385674e-04 1.25077525e-02 -1.88826560e-03
    -5.79924416e-03 3.20723909e-03 -1.47181936e-03 1.67451988e-04
    2.74773967e-03 -6.01080060e-03 -6.16694218e-04 1.46056991e-02
    -4.41446260e-04 2.24752957e-03 6.79094205e-03 -1.61412184e-03
    -1.92566030e-03 -1.00137843e-02 -1.93903204e-02 8.54391605e-03
    2.12535728e-02 3.18050943e-03 -2.57462473e-03 6.19889470e-03
    -8.91968899e-04 -3.22264759e-03 -5.81115205e-03 -8.92347470e-03
    2.58590118e-03 1.05957417e-02 -3.63089307e-03 -4.07771394e-03
    3.27438675e-03 -7.03805499e-03 -2.94993701e-03 -5.57605643e-04
    -1.94241619e-03 1.48941239e-03 1.46848534e-03 -3.57927033e-03
    -5.69571508e-03 -1.50398689e-03 -8.41597747e-03 -4.26691538e-03
    -2.37940089e-03 -2.85180216e-03 1.11320922e-02 1.68275740e-02
    -3.68498429e-03 -5.67020802e-03 1.60722656e-03 -4.29897010e-03
    -4.11178451e-03 -6.42612518e-04 -3.50240758e-03 1.24637559e-02
    8.29314440e-03 -6.95698988e-03 -5.54316211e-03 -5.00864210e-03
    -6.80740038e-03 -8.47740099e-03 -1.65240676e-03 7.04553258e-03
    2.72868155e-03 2.57512293e-04 -4.86720586e-03 -4.03833715e-03
    -2.46691774e-03 -5.99977095e-03 -3.46942991e-03 -2.93100346e-03
    1.45247148e-03 1.37749896e-03 4.73932829e-04 -8.24431516e-03
    -2.03193212e-03 6.51358766e-03 -4.01836121e-03 -1.20553863e-03
    -9.41445178e-04 1.87627401e-03 1.28806783e-02 9.14704241e-03
    -5.98433008e-03 -3.92060867e-03 -9.00228159e-04 -5.97963249e-03
    -9.17846803e-03 -8.76149256e-03 1.26122031e-03 1.24890823e-02
    7.01849256e-03 -4.14015120e-03 -2.13917159e-03 3.37369158e-03
    -4.74440632e-03 -5.09210862e-03 -2.46958272e-03 3.82940308e-03
    -4.09007957e-03 -3.32628819e-03 -8.14363081e-03 4.95728571e-04
    4.87973168e-03 3.09589697e-04 4.37209522e-03 -8.67455150e-04
    -2.11970322e-03 -6.17135875e-03 -6.75398484e-03 -1.02705648e-02
    -1.60396728e-03 2.60676234e-03 2.28840814e-04 4.05968400e-03
    -2.79789511e-03 -5.33700595e-03 4.97043226e-03 3.25181871e-03
    -2.38425471e-03 -7.59852293e-04 3.34448763e-03 -2.20052851e-03
    3.93253332e-03 1.68570841e-03 4.92047169e-04 2.84659280e-03
    2.76108435e-03 -4.69555566e-03 6.15605750e-05 5.26120840e-03
    1.12664094e-03 4.58799303e-03 -3.24600446e-03 5.93717632e-05
    2.21407297e-03 -6.58924645e-03 -9.42673534e-03 -3.54126561e-03
    -7.00492586e-04 -1.28920854e-03 -1.60431897e-03 -5.16035873e-03
    1.89709966e-03 7.37697398e-03 -1.00598754e-02 -1.08914413e-02
    -7.11239874e-03 -1.64570159e-03 -2.93126493e-03 -2.21494422e-03
    -6.67134393e-03 8.07547569e-03 1.12192528e-02 3.72165348e-03
    -5.29625919e-03 -2.49944790e-03 1.56418560e-03 5.82614506e-04
    -6.47600682e-04 -7.98676442e-03 -9.22861858e-04 1.36920623e-02
    -4.13104193e-04 -1.06198266e-02 -8.66560824e-03 -5.43682079e-04
    -9.30174429e-04 -5.43374219e-04 -7.91070424e-03 6.32402953e-03
    5.40904328e-03 -5.76504832e-03 -5.82004478e-03 -4.18234523e-03
    -2.34480319e-03 -3.97050101e-03 -3.71722784e-03 -3.70964524e-03
    6.75020786e-03 -3.15332878e-03 -3.77595844e-03 1.59962394e-04
    -1.49845553e-03 2.79841782e-03 2.47533520e-04 1.10065293e-05
    3.16752703e-03 1.11954485e-03 8.11857171e-03 -3.65543016e-03
    -4.75863507e-03 -4.48613428e-03 -2.26164144e-03 -7.27839826e-04
    2.06427788e-03 -3.01269232e-03 4.80127195e-03 -1.22478360e-03
    -4.71719587e-03 -4.53806686e-04 -1.85536384e-03 -2.87079951e-04
    2.26004119e-03 3.96588119e-03 2.30153464e-03 2.76715058e-04
    -4.99700056e-03 -1.54131651e-03 1.95425656e-03 1.29060284e-03
    2.22308515e-03 8.71543249e-04 2.63887388e-03 5.05584432e-03
    1.43507484e-03 -5.74402232e-03 -9.61926242e-04 -3.84631148e-03
    -3.42561211e-03 -1.64689356e-03 -9.42485407e-03 -1.73389300e-04
    5.54642547e-03 -7.73879758e-04 2.17605312e-03 -1.65996875e-03
    -1.30713498e-03 5.35843894e-04 -1.78042147e-03 1.75198540e-03
    3.17802629e-03 8.15088581e-03 4.56207199e-03 3.78480903e-03
    -4.09909012e-03 -7.80185172e-03 -2.42219842e-03 -7.97859393e-03
    -8.15678760e-03 2.16246955e-03 1.24946525e-02 4.77359490e-03
    -4.86883242e-03 6.50414731e-04 -4.70104441e-03 -2.14527827e-03
    1.68295077e-03 -6.13058545e-03 2.64691468e-03 3.91119020e-03
    3.60683608e-03 -2.38822238e-03 3.75525421e-03 -5.78691065e-03
    -1.51356147e-03 6.96506293e-04 -7.34612811e-03 4.35035588e-04
    -8.27962474e-04 -2.90264399e-03 8.03249236e-03 -3.51640722e-03
    -7.68533023e-03 1.49233721e-03 -2.13336106e-03 -3.16521665e-03
    5.02996566e-03 9.56319924e-03 5.49847865e-03 5.38524473e-03
    -4.60707210e-03 -7.01238820e-03 3.65298404e-03 1.22698513e-03
    -4.15362651e-03 3.20303463e-03 1.00460777e-03 1.53277011e-04
    -3.70945223e-03 6.82483800e-03 -1.26359999e-04 2.35715578e-03
    -6.51125750e-03 -7.24771433e-03 -5.19094116e-04 -2.52015842e-03
    -9.41804703e-03 -2.15548370e-03 1.23209422e-02 3.66324559e-03
    1.83507649e-03 -3.22189508e-03 -4.66060406e-03 2.87208683e-03
    -3.50825582e-03 -1.51575385e-02 4.75866400e-04 -4.58458345e-03
    -4.43893718e-03 5.82401128e-03 1.72648195e-03 -4.42869915e-03
    2.57011340e-03 1.02140510e-03 -2.60720169e-03 -2.92793638e-03
    3.60533269e-03 -1.79973329e-04 6.64472347e-03 4.54777433e-03
    -1.73823861e-03 4.57388442e-03 3.27667367e-04 -7.33386492e-03
    -4.19340003e-03 1.75300669e-02 7.73862517e-03 3.93887935e-03
    3.43700754e-03 1.99314556e-03 4.36813850e-03 -2.13307911e-03
    -1.42074581e-02 -1.09316185e-02 7.68874725e-03 3.40673164e-03
    4.62531025e-04 -8.79043341e-03 1.93576934e-03 3.57965147e-03
    2.43962789e-03 -1.36606954e-02 -1.73656037e-03 4.38563246e-03
    6.19288813e-03 1.02603957e-02 6.28046691e-03 3.32799391e-03
    4.42606816e-03 1.00689220e-04 -8.23828485e-03 -6.78375270e-03
    6.93782989e-04 3.16857849e-03 4.69576661e-03 -7.49470014e-03
    -3.14574852e-03 1.69275270e-03 1.01969730e-04 -8.14484525e-03
    -4.61008539e-03 8.05548392e-03 5.47062373e-03 2.58088764e-03
    -5.72406314e-03 -1.85695186e-04 8.13345332e-03 1.07003879e-02
    -3.98527086e-03 -3.34859709e-03 2.26630084e-03 1.98404491e-03
    1.28392933e-03 -6.51584379e-03 -3.88620910e-03 4.72356612e-03
    7.62937870e-03 -1.74839096e-03 -2.94806017e-03 4.79120202e-03
    4.30050306e-03 5.11966040e-03 -2.50537321e-03 -3.37392930e-03
    7.76951015e-03 5.72959799e-03 -3.97582073e-03 -6.39609061e-03
    6.24324384e-05 -1.24695932e-03 4.82758228e-03 -2.03488790e-03
    -3.74563923e-03 3.32616922e-03 1.86269137e-03 -1.00553397e-03
    -1.71262235e-03 4.08278406e-03 7.24337623e-03 5.37337922e-03
    5.51092613e-04 -4.35432931e-03 -2.24768650e-03 -5.08441997e-04
    -1.34700397e-03 -4.22055088e-03 1.19555439e-03 7.11409468e-03
    6.84569171e-03 2.90804473e-03 -1.82345475e-03 -7.31752301e-03
    -4.44793981e-03 -4.58516693e-03 -4.05125180e-03 9.70066700e-04
    6.85067941e-03 9.81618091e-03 6.98459987e-03 -3.82383447e-03
    -4.29043360e-03 -4.83709387e-03 -3.04982485e-03 -5.97061589e-03
    -3.59429466e-03 8.56048614e-03 7.83338584e-03 8.34658463e-03
    -1.95864053e-03 -6.86225295e-03 -6.89378660e-03 -3.92618123e-03
    -8.89588613e-03 -4.41516796e-03 2.72420072e-03 5.11790812e-03
    6.57668570e-03 3.61420462e-05 2.62608984e-03 6.13283738e-03
    1.04240200e-04 -3.68763553e-03 -6.54682470e-03 1.51036435e-03
    4.41950699e-03 4.41659335e-03 -1.30300072e-03 1.18848328e-02
    1.03796143e-02 4.06332547e-04 -5.69891417e-03 -6.71864115e-03
    3.43324360e-03 1.91428408e-03 1.09697776e-02 -5.58625325e-04
    1.38592289e-03 6.75303396e-04 -6.58269972e-04 -4.58050380e-03
    -7.47325178e-03 1.20665005e-03 -1.14483736e-03 1.04533806e-02
    -4.02566046e-04 1.14746848e-02 6.38313079e-03 2.72664147e-05
    3.30687326e-04 -6.21153740e-03 -3.12884431e-03 1.52247003e-03
    -1.33854407e-03 -1.52041693e-03 8.16170964e-03 3.61193437e-03
    -1.22075959e-03 2.93887872e-03 -6.30315067e-03 -5.93182165e-03
    -2.19920557e-03 5.76897338e-03 3.44733335e-03 1.08334273e-02
    6.20304327e-03 -1.91809284e-03 -5.58173226e-04 -7.89923128e-03
    -1.64760707e-03 1.76129513e-03 3.17263789e-03 -3.15161399e-03
    6.38107955e-03 1.53239246e-03 -2.98895314e-03 3.25140776e-03
    -7.78071117e-03 -2.02797679e-03 -8.71845230e-04 6.06883457e-03
    8.13286286e-04 4.05924022e-03 3.36373039e-03 2.53983308e-03
    -1.84311857e-03 -8.03176314e-03 -7.97268935e-03 -6.30660774e-03
    2.28134915e-03 2.50044721e-03 7.75378617e-03 6.50136732e-03
    -1.20333990e-03 1.29812234e-03 -8.19190347e-04 -4.18527145e-03
    -7.93944672e-03 1.36072666e-03 4.92446066e-04 3.55018233e-03
    7.37652788e-03 2.22975737e-03 -1.14944787e-03 -1.06591992e-02
    -3.33601469e-03 -4.61011939e-03 6.12479867e-03 2.37560854e-03
    3.63004045e-03 4.83902544e-03 2.98311212e-03 -8.82477325e-05
    -7.10793445e-03 -5.72408736e-03 -7.78657757e-03 1.71262946e-03
    -4.59770556e-04 -1.55012545e-04 8.69983993e-03 4.17584786e-03
    -1.85738178e-03 1.30672120e-02 -2.57944595e-03 -1.44044438e-03
    -3.98452953e-03 -6.13513589e-03 -5.31564886e-03 -1.47950072e-02
    -1.98014919e-02 2.03558104e-03 1.78534873e-02 -1.13980973e-03
    -7.70995277e-04 -4.34439164e-03 -5.32732019e-03 -6.65752729e-03
    -1.20885717e-02 -1.68964993e-02 1.10979918e-02 2.82158609e-02
    6.72514178e-03 -1.42477977e-03 -9.67494212e-03 -9.40073468e-03
    -8.73020291e-03 -1.33571178e-02 -1.16319843e-02 1.76963490e-02
    2.52350010e-02 1.84718985e-03 -1.22901099e-03 -9.19133611e-03
    -7.40569690e-03 -9.56935901e-03 -1.01629263e-02 -2.71597551e-03
    6.66736858e-03 1.37829036e-02 -6.13820693e-03 -2.60687480e-03
    -6.29905518e-03 -4.86130547e-03 -8.22196994e-03 -3.25490907e-03
    -7.37140002e-03 8.98341648e-03 9.69782751e-03 -9.64264944e-03
    -4.68458468e-03 -9.21010692e-03 -7.89719354e-03 -1.34460740e-02
    -3.16829165e-03 -3.02009471e-03 1.66781750e-02 1.52322007e-02
    -6.23517064e-03 -2.77714338e-03 -8.82907584e-03 -5.96718770e-03
    -8.24062992e-03 -1.64811045e-03 3.05534108e-03 1.03310244e-02
    1.11839045e-02 -8.22536647e-03 -7.50433933e-03 -5.39303245e-03
    -7.99074117e-03 -8.37499555e-03 7.67069345e-04 3.32203647e-03
    7.89922662e-03 6.57344563e-03 -5.86273381e-03 -1.78500591e-03
    -1.23877928e-03 -5.41608594e-03 -1.18108811e-02 -1.05756596e-02
    -2.49928446e-03 6.26347214e-03 6.41220808e-03 -2.71788053e-03
    -4.40900476e-04 -3.48573620e-03 -5.02346037e-03 -7.55906524e-03
    -9.15424153e-03 -5.44989761e-03 8.27659294e-03 7.58155202e-03
    -4.30028746e-03 -3.12140910e-03 6.92844344e-03 -5.43115288e-03
    -7.06029125e-03 -1.51746010e-03 -1.27871195e-03 9.47989430e-03
    7.67866662e-03 -5.10067027e-03 3.94495018e-03 6.20077224e-03
    -6.02416694e-03 -6.46094885e-03 -1.49803062e-03 -1.35918660e-03
    7.68203754e-04 5.67281153e-03 -3.67081352e-03 9.94010747e-07
    -4.62595868e-04 -2.63805431e-03 7.66008743e-04 -1.15676795e-03
    -3.01892520e-03 -4.49907687e-03 2.55941530e-03 -4.08607256e-03
    2.30375852e-04 2.34996993e-03 3.04203713e-03 1.80379328e-04
    -1.77656778e-03 -4.55326634e-03 1.17477886e-02 7.39983562e-03
    -7.14705419e-03 3.86488624e-03 3.46892234e-03 -2.70635542e-03
    -1.04717445e-03 3.59392259e-03 3.00870882e-03 5.84911043e-03
    4.16503148e-03 -6.56489981e-03 -2.12550905e-04 -9.15711571e-04
    -1.38183183e-03 -1.16390933e-03 -1.11128681e-03 2.98149581e-03
    1.00297376e-03 3.90489609e-03 -5.28089795e-03 -1.31495635e-03
    7.98432957e-05 2.89177895e-03 1.92578984e-04 -2.95406301e-03
    -1.55888137e-03 4.29189950e-03 8.99120059e-04 -1.02251302e-02
    -6.28777826e-03 -4.43103211e-03 1.06372638e-03 4.79938183e-03
    7.45929778e-04 2.08127056e-03 7.51469424e-03 2.05945154e-03
    -4.50203149e-03 -2.82224664e-03 -1.20418437e-03 1.07877993e-03
    3.19003331e-04 7.62042182e-05 9.31537803e-03 7.47058541e-03
    -2.48442846e-03 -7.07134325e-03 -8.82281084e-03 -6.93290913e-03
    5.43112634e-04 4.42757504e-03 6.08980935e-03 1.02090687e-02
    2.20493088e-03 -2.39932281e-03 -5.71240997e-03 -4.38119611e-03
    -3.72785097e-03 2.37617921e-03 6.24566060e-03 1.67591579e-03
    5.79224434e-03 -8.47644755e-04 -7.53496401e-03 -6.67621149e-03
    -4.51833662e-03 -1.85931055e-03 2.88907345e-03 3.12301726e-03
    1.02786859e-03 4.92919981e-03 8.43388122e-03 -5.26821753e-03
    -5.51658822e-03 -5.04375855e-03 -1.34425529e-03 2.21257657e-03
    3.54491011e-03 7.42369285e-03 1.22061158e-02 5.30512910e-03
    -1.12817325e-02 -8.01140722e-03 -8.31055641e-03 -2.38910713e-03
    -9.46033397e-04 1.56957551e-03 8.11592303e-03 1.05524296e-02
    2.07448378e-03 -6.53803349e-03 -6.36286568e-03 -1.03656354e-03
    -1.62231750e-04 3.03363125e-03 3.76452389e-03 5.28893014e-03
    7.58719770e-03 5.63373743e-03 -7.67084118e-03 -8.11325386e-03
    -3.66624445e-03 -8.28776695e-03 -3.22739547e-03 1.09200494e-03
    5.31921396e-03 6.34531863e-03 7.33259507e-03 -4.83423332e-03
    -3.05761117e-03 -2.59253778e-03 -1.15750614e-03 -9.23879561e-04
    2.13794783e-03 2.94949906e-03 9.68296081e-03 4.77807177e-03
    -8.74476798e-04 -1.00098876e-03 -3.72804631e-03 -4.84544598e-03
    -9.12234746e-03 -1.93868927e-03 -5.14125498e-03 4.92752530e-03
    2.61921319e-03 -7.92447757e-03 -3.20434826e-03 8.27610667e-04
    -9.43449698e-03 -1.74409989e-03 2.68239854e-03 4.20061126e-03
    3.75483348e-03 -2.21201894e-03 -1.12460703e-02 -2.28579110e-03
    6.47456106e-03 -6.45209895e-03 -1.69861526e-03 3.20593850e-03
    2.79964763e-03 -2.20978679e-03 -1.46564760e-03 -2.40699924e-03
    5.84158953e-03 2.31336989e-03 -9.53747134e-04 -4.25416837e-03
    6.15950034e-04 -3.89795587e-03 1.42166065e-03 -5.60269505e-03
    -1.00647500e-02 5.07806055e-03 8.59469175e-03 2.73654587e-03
    2.67627009e-04 1.39013655e-03 9.27350891e-04 2.66166876e-06
    -2.90911645e-03 -9.91121773e-03 -2.67043663e-03 6.32306561e-03
    -3.73324682e-03 -5.03987959e-03 2.62667821e-03 3.16801388e-03
    -1.89547543e-04 -9.16323159e-03 -4.63015772e-03 1.31782424e-03
    1.16948644e-02 -1.42809737e-03 -3.37138795e-03 3.98327073e-04
    -3.64467094e-04 -6.01024786e-03 -4.47603455e-03 -2.67641596e-03
    5.83493104e-03 8.59906618e-03 -9.70531604e-04 -2.76687060e-04
    3.14318668e-03 5.70606859e-03 2.97492184e-03 -5.91832306e-03
    4.84044245e-03 2.81617464e-03 1.10746855e-02 -3.68564448e-04
    -2.92449701e-03 -1.37601173e-05 1.86893728e-03 -5.94997732e-03
    -5.98151516e-03 8.90471274e-04 1.08241476e-02 1.62525810e-02
    4.27507935e-03 3.74150672e-03 2.73266225e-03 -1.09866634e-03
    -7.78903021e-03 -6.26266608e-03 -1.98133965e-03 7.19870301e-03
    6.83646230e-03 -7.66936038e-03 7.92933570e-04 4.76505328e-03
    -1.71300897e-03 -8.51456076e-03 -1.69552013e-03 3.75886052e-03
    4.53016162e-03 1.21136215e-02 9.50812735e-03 4.74175299e-03
    5.09940786e-03 1.25087216e-03 -1.05651198e-02 -3.79152480e-03
    -1.52415282e-03 1.16302562e-03 1.63113233e-03 -2.77042342e-03
    2.70766253e-03 5.11312578e-03 -3.44550260e-03 -8.88973754e-03
    -5.22940303e-04 2.50088493e-03 4.97320807e-03 3.91739886e-03
    -5.15334494e-03 -5.63648529e-04 6.65031979e-03 1.75263500e-03
    -2.41129939e-03 6.96752759e-05 3.85921216e-03 4.22745524e-03
    5.18101361e-03 -7.59657426e-03 -5.55745279e-03 -6.40709244e-04
    -2.54341192e-03 1.92515505e-03 3.72190890e-03 6.07178966e-03
    9.52710491e-03 4.13902290e-03 -2.77190725e-03 -1.04647028e-04
    4.83195018e-03 -2.45475001e-03 -5.17161214e-04 -1.64027035e-03
    6.89815776e-03 1.25604514e-02 8.67599994e-03 -3.39514273e-03
    -6.99684303e-03 1.58796494e-03 -3.22392955e-03 -1.78315514e-03
    -4.51405859e-03 3.76839610e-03 8.34728032e-03 9.74065717e-03
    -3.34638520e-03 -5.90276485e-03 -4.90070879e-03 -2.72712205e-03
    3.51047311e-05 -5.11203799e-03 8.11719568e-04 5.29498421e-03
    6.33867411e-03 -3.41558363e-04 -3.46619962e-03 -6.04152167e-03
    -1.07344496e-03 -8.83257962e-05 -3.14690266e-03 6.65941183e-03
    1.03878947e-02 6.81372872e-03 2.47936812e-04 -9.10911150e-03
    -4.07882873e-03 -1.41449529e-03 -3.07137775e-03 -2.34159478e-03
    9.66580864e-03 8.64305440e-03 3.69918696e-03 2.73776078e-03
    -5.13616111e-03 -5.50296064e-03 -2.58401968e-03 -6.12548692e-03
    -7.22533371e-03 -7.08718318e-03 -1.05147250e-03 4.37918410e-04
    4.12192382e-03 4.26565035e-04 1.28896011e-03 5.42016583e-04
    2.15941668e-03 -3.23540019e-03 -7.62631791e-03 -3.85100907e-03
    -5.67514822e-03 4.23336402e-03 -9.65805899e-04 4.36204486e-03
    2.29233899e-03 -9.59609461e-04 -1.81247981e-03 5.65630058e-03
    2.76223128e-03 1.57037855e-03 5.79904765e-03 -3.56331730e-04
    1.07524008e-03 -3.28696892e-03 -6.67139329e-03 2.36265012e-03
    -6.56256103e-04 -1.69006374e-03 -5.15403040e-03 6.34156074e-03
    -3.03573528e-04 2.69299187e-03 -3.63321113e-03 -5.82552794e-03
    -3.46145150e-03 -5.89561183e-03 -7.24982005e-03 -5.40115521e-04
    8.74089019e-04 -5.02815936e-03 1.49426819e-03 1.22745114e-03
    -3.42463539e-03 -2.90131033e-03 -9.88431182e-03 -9.66028590e-03
    -3.80947557e-03 1.02542446e-03 -2.71983095e-03 -1.15207222e-03
    6.40032953e-03 -1.82460318e-03 1.60244771e-03 -8.74017365e-04
    -4.02024109e-03 -2.13384395e-03 2.63694674e-03 -5.38045354e-03
    -2.12887581e-03 -2.35760538e-03 -3.81624699e-03 5.55522449e-04
    -3.98401311e-03 -8.06464534e-03 -6.39693346e-03 7.67133490e-04
    -7.38652796e-03 -3.43272532e-03 4.20224387e-03 3.03078932e-03
    -3.78796458e-03 -8.93108640e-03 -6.69094734e-03 -7.33842980e-03
    5.25296608e-04 -1.01612974e-03 1.10487826e-03 8.76859017e-03
    3.85570922e-03 -1.52346585e-03 -5.50009077e-03 -8.00635479e-03
    -1.43670021e-02 -6.53820578e-03 -2.40085181e-03 1.27891009e-03
    1.34965377e-02 6.14374923e-03 1.37078366e-03 -1.55732140e-03
    -5.62601769e-03 -7.26884604e-03 9.32611874e-04 -8.24526697e-03
    -3.51827964e-03 7.66965328e-03 6.97514042e-03 -6.59594918e-03
    -2.15805299e-03 -6.56395731e-03 -1.38375405e-02 -4.38483851e-03
    -7.68569810e-03 -1.68819993e-03 1.43992640e-02 9.23877489e-03
    6.09922875e-03 2.13022772e-02 6.98230369e-03 3.56963952e-04
    -6.61380496e-03 -5.42124500e-03 -7.85984192e-03 -9.42395814e-03
    -8.96800030e-03 8.45788419e-03 1.36510134e-02 -9.31755640e-04
    1.02027261e-03 -7.55743170e-03 -6.38917554e-03 -1.17694521e-02
    -8.90902802e-03 -2.03961413e-03 5.89033077e-03 1.02368211e-02
    6.90189889e-04 1.85434811e-03 2.01067352e-03 -2.37724371e-03
    -4.24288912e-03 -7.51126278e-03 -7.43197324e-03 5.08455187e-03
    8.19893181e-03 -1.53167837e-03 -2.69286474e-03 -2.83916271e-03
    -1.42522680e-03 -3.19844089e-03 -5.15941530e-03 -8.18896387e-03
    4.35620360e-03 6.49501942e-03 -3.63275059e-03 -9.34080104e-04
    -9.21599194e-03 -3.30545218e-03 -4.74854326e-03 5.16825356e-04
    1.03735609e-03 -3.60053586e-04 8.04810971e-03 -5.80775645e-03
    -4.34959494e-03 -3.10368650e-03 -3.54602374e-03 -2.43722624e-03
    2.30669626e-03 -6.42155122e-04 4.87676356e-03 8.77504423e-03
    -3.35663301e-03 -4.03180672e-03 -4.26111929e-03 -1.36520178e-03
    -2.59661255e-03 1.26758823e-03 -5.45906881e-03 6.57970225e-03
    1.75841746e-03 -9.85573605e-03 -4.15947428e-03 3.40854842e-03
    -1.56136649e-03 -2.68940162e-03 4.93068574e-03 3.46453831e-04
    -6.34211538e-05 6.69763749e-03 -5.23186056e-03 -3.32181132e-03
    1.70838452e-04 -6.09681942e-03 -3.69536667e-03 -4.79904033e-04
    8.46104158e-05 6.18666003e-04 4.38486924e-03 -5.88726671e-03
    9.58943390e-04 -6.72577589e-04 -7.36184232e-03 -4.82302858e-03
    2.24386039e-03 -2.19475967e-03 6.45344006e-03 5.25400043e-04
    -1.16279395e-02 -3.02055827e-03 3.38728190e-03 -3.19734518e-03
    -2.46921834e-03 3.17371706e-03 6.35104580e-03 5.84799051e-03
    -1.29921001e-03 -9.47776809e-03 -1.82041479e-03 -7.13773130e-04
    -4.66980552e-03 -4.82259318e-03 2.23761261e-03 9.52995196e-03
    2.67157564e-03 4.04932443e-03 -6.58594398e-03 1.71962183e-03
    -5.38110849e-04 -4.36270842e-03 -1.51995639e-03 4.25962498e-03
    1.60084327e-03 9.70049179e-04 1.67257385e-03 -6.13369886e-03
    -2.36463457e-04 -2.00492505e-04 -4.02457779e-03 -3.25004454e-03
    -2.43303669e-03 1.46541698e-03 7.11341528e-03 -1.61272206e-03
    -1.05001228e-02 -3.56082083e-03 -1.66581478e-03 -4.04517492e-03
    -1.24428619e-03 5.39194234e-03 1.13440249e-02 7.33111054e-03
    3.20429710e-04 -1.05738705e-02 -4.81738755e-03 -4.84075019e-04
    -4.45772754e-03 -2.81380257e-03 1.44395267e-03 7.31943687e-03
    6.53407915e-05 4.16490308e-04 -3.53307882e-03 -8.24081129e-04
    3.12008138e-04 -1.09477283e-03 -2.86393031e-03 -3.73687455e-03
    3.23305093e-03 4.23374493e-03 8.52116791e-04 -7.29408814e-03
    -7.94636831e-03 -5.18786581e-03 5.97406586e-04 -1.47823198e-03
    -3.89427994e-03 5.52667165e-03 1.30821411e-02 6.45576930e-03
    -7.39008468e-03 -2.83024041e-03 -3.69019195e-04 -4.11174120e-03
    -5.24025131e-03 -2.05941987e-03 8.00373219e-03 1.20360563e-02
    2.11405288e-03 -1.47401365e-02 -8.21013004e-03 -2.10318784e-03
    8.24791205e-05 -3.53266741e-03 -4.07557655e-03 1.19838463e-02
    5.56637207e-03 1.38007756e-03 -5.51632699e-03 -3.35715595e-03
    -1.71047030e-03 7.70671541e-05 -2.11612484e-03 -3.63433472e-04
    7.14855408e-03 3.57058598e-03 -3.11311730e-03 -1.58056943e-03
    -2.50910828e-03 -5.34189958e-03 -2.98836804e-03 -2.96265725e-03
    1.67807878e-03 4.51008324e-03 1.60385519e-02 9.67000728e-04
    -7.46013224e-03 -3.28726741e-03 -1.31764871e-04 1.66163698e-03
    1.06104743e-03 3.08218901e-03 1.23604247e-02 9.61046480e-03
    4.54694993e-04 -2.68492824e-03 -1.62492355e-03 -4.70097503e-03
    -1.69560604e-04 -6.35485805e-04 1.14531186e-03 1.22706303e-02
    4.04792279e-03 3.88865313e-03 5.04334876e-03 2.59388681e-03
    -1.67557946e-03 -1.45893812e-03 7.86698190e-04 2.12508161e-03
    1.09996425e-03 -4.87726042e-03 1.65410456e-03 5.97074814e-03
    2.14136974e-03 -1.65020209e-03 -5.64810960e-03 -1.00860361e-03
    -4.73298365e-03 -6.53784582e-03 1.17418095e-02 4.21605306e-03
    -1.51924044e-03 1.63169892e-03 1.69895659e-03 2.01202766e-03
    1.41621730e-03 5.09980321e-03 9.03780293e-03 -1.74568981e-04
    -1.64160517e-03 -2.69647595e-03 -3.76988971e-03 5.48034041e-05
    1.06431398e-04 3.89173045e-04 -1.53150933e-03 -1.05489569e-03
    -4.97861300e-03 3.24724941e-03 1.15990406e-02 5.92838647e-03
    1.34954927e-03 -3.47757456e-03 -1.28318346e-03 -6.58146758e-03
    -3.76602868e-03 -2.73932866e-03 -1.73841516e-04 1.11933062e-02
    5.14208060e-03 4.77455044e-03 2.62551755e-03 -1.30849448e-03
    -4.71716188e-03 -3.67224915e-03 -3.95890558e-03 3.27611854e-03
    1.09563768e-03 -1.32499763e-03 1.99613074e-04 -1.32538567e-04
    2.27523997e-04 -7.13796646e-04 -7.83571100e-04 -2.26584892e-03
    -7.79902795e-03 -2.79511022e-03 -3.39029211e-04 3.30410805e-03
    5.85460151e-03 -4.01976431e-05 -1.64086709e-03 -1.11122546e-03
    -3.88632878e-03 3.44048697e-03 1.16740391e-02 4.68860846e-03
    -2.26691845e-04 4.06423444e-03 3.41254054e-03 1.57574308e-03
    1.06576364e-03 -5.95882721e-03 1.47571764e-03 7.90495798e-03
    5.88953635e-03 -1.44931895e-03 -1.71417673e-03 3.90145858e-03
    1.80784508e-03 -2.08684616e-03 -2.90294178e-03 -7.17143388e-03
    9.33262240e-03 5.71455015e-03 4.02072445e-03 8.06195196e-03
    3.16623645e-03 1.05922960e-03 -2.48830346e-03 -8.03784467e-03
    -8.53412598e-03 9.86382179e-03 1.28533086e-02 7.58774485e-03
    3.39428632e-04 2.77495640e-03 -7.34341622e-04 -4.47477913e-03
    -4.42076067e-04 1.13517919e-03 5.20091597e-03 8.46896693e-03
    5.70424926e-03 2.45163986e-03 6.26448495e-03 3.37911653e-03
    -2.38708756e-03 -1.35255419e-03 -4.71590902e-04 3.12790391e-03
    2.82556447e-03 -4.21525724e-03 2.23873090e-03 4.61496785e-03
    9.98607837e-04 -2.52701994e-03 -4.34024446e-03 -2.28381064e-03
    9.03505832e-03 1.27359694e-02 7.90283270e-03 2.39563524e-03
    4.54554893e-03 9.30886075e-04 -3.07384925e-03 -6.63980749e-03
    7.22205034e-04 4.14462434e-03 1.91168254e-03 -4.69368696e-03
    1.91720435e-03 3.57028726e-03 7.12265901e-04 -5.42362174e-03
    6.13003178e-03 6.34780759e-03 9.16292798e-03 4.48325090e-03
    -4.30722255e-03 -1.81450706e-03 3.33497464e-03 9.47414665e-04
    4.12341440e-03 -1.69633975e-04 9.09607764e-03 8.99306033e-03
    6.98427763e-03 -5.67008159e-04 -3.01258964e-03 1.64428982e-03
    -1.61571323e-03 -1.77452515e-03 -4.29836242e-03 6.31324062e-03
    9.10061132e-03 4.13951604e-03 -9.13737822e-05 -1.95519137e-03
    2.25378107e-03 1.39972440e-03 -3.22766230e-03 -6.29361952e-03
    8.04696046e-03 8.21985118e-03 7.21585611e-03 2.20140186e-03
    1.57092104e-03 1.37815950e-03 1.96539695e-04 -6.18951768e-03
    1.17972412e-03 2.04723282e-03 2.78762309e-03 7.61307124e-03
    5.46509307e-03 -2.25451251e-04 -9.52941657e-04 -3.30256356e-04
    1.46611291e-03 2.03578558e-04 7.69431237e-03 3.03490623e-03
    3.10092396e-03 4.95085726e-04 2.92970435e-05 -1.46437180e-03
    -2.45161983e-03 -9.42939951e-04 -6.69443142e-03 2.08894257e-03
    3.41992825e-03 5.76580642e-03 8.53402354e-03 6.24497561e-03
    6.63983054e-04 8.77377926e-04 -7.76267890e-03 -1.57698989e-03
    6.28038589e-03 3.75577551e-03 2.36227861e-04 1.84994354e-03
    3.06654372e-03 -3.91632412e-03 -4.75062011e-03 -4.30413336e-03
    -6.76083320e-04 8.46592896e-03 1.52008107e-03 -1.65322586e-03
    -5.75488957e-04 1.89943938e-03 3.72093054e-03 1.04044878e-03
    -1.21744676e-03 4.82385419e-03 3.90972663e-03 8.79006577e-04
    -2.10316223e-03 1.05911877e-03 1.12822175e-03 5.01391618e-03
    3.95983737e-03 -6.77352888e-04 -4.83014388e-03 3.12875537e-03
    -2.27043824e-03 -5.39701898e-03 2.09549838e-03 2.70383805e-03
    1.81062461e-03 -1.03279017e-03 -6.40179031e-03 -1.43318507e-03
    -2.77417619e-03 -5.05886320e-03 -5.20953722e-03 5.62550500e-03
    -1.97226895e-04 3.54553759e-03 5.27166808e-03 -7.13519054e-03
    8.69872328e-03 2.83109071e-03 -5.53822552e-04 4.99535585e-04
    7.04918872e-04 -4.20843810e-03 -3.13821307e-04 3.55565082e-03
    4.99161612e-03 4.90113674e-03 2.42666589e-04 -3.14794108e-03
    -1.77072384e-03 1.52380823e-03 -3.97704449e-03 -1.13678887e-03
    2.93530198e-03 3.35577433e-03 1.15198735e-03 -6.15557004e-03
    -6.55627716e-03 -1.92834553e-03 3.33699165e-03 -5.36604179e-03
    -1.08708104e-03 4.62319236e-03 1.36651250e-03 -6.72646239e-03
    -1.05177201e-02 -9.73900501e-03 -2.44787266e-03 1.24070479e-03
    -2.36155814e-03 -1.26233860e-03 2.29658838e-03 4.49235039e-03
    1.93522219e-03 -3.69662826e-04 -3.18822241e-03 -2.31888378e-03
    3.20824794e-03 -5.69941057e-03 -2.98829190e-03 2.75194249e-03
    6.56724954e-03 -6.44264929e-03 -3.65198124e-03 -3.51980538e-03
    -7.06536835e-03 2.60466081e-03 -5.99568430e-03 -1.13468373e-03
    8.87951907e-03 9.69244260e-03 -5.30985929e-03 -1.29507706e-02
    -6.76358212e-03 -3.65688163e-03 4.11408534e-03 -3.46226175e-03
    -1.83756754e-03 1.76250061e-03 9.53823328e-03 -6.96699042e-03
    -1.27288513e-02 -5.25025651e-03 -6.61779102e-03 4.85588238e-03
    -3.34714819e-03 2.38550664e-03 5.87711902e-03 8.20549205e-03
    3.92327900e-04 1.06308106e-02 -2.44416948e-03 9.16220539e-04
    -7.07408530e-04 -9.40206985e-04 1.30931986e-03 -1.29573769e-03
    -2.47201417e-03 -5.22658520e-05 1.29584866e-02 -1.85758260e-03
    -1.79434114e-03 -4.60464368e-03 -5.31723490e-04 -9.08841204e-04
    3.93568887e-04 -3.75646492e-03 -1.85804919e-03 1.79955699e-02
    2.55415938e-03 -4.35125176e-03 -7.66627444e-03 -4.18922212e-03
    -3.05188540e-03 -5.82842389e-04 -4.88188630e-03 3.18693556e-03
    1.33344140e-02 2.94946460e-03 -2.64393631e-03 -8.49558134e-03
    -6.50368864e-03 -6.92451559e-03 -4.33284382e-04 -4.92654741e-03
    4.92837513e-03 1.73923355e-02 3.04484216e-04 -4.48459713e-03
    -5.18000731e-03 -2.53406400e-03 -3.92062264e-03 1.06549414e-03
    -2.94580194e-03 5.32913301e-03 9.93532687e-03 -6.91656768e-03
    -5.28664095e-03 -3.79254483e-03 -4.58815927e-03 -5.23529947e-03
    2.76052370e-03 -3.13544320e-03 3.58391809e-03 1.54616637e-02
    7.21782795e-04 -1.90004311e-03 -1.59055868e-03 -4.27333172e-03
    -8.75678379e-03 -4.14014887e-03 -7.04405224e-03 -2.76286830e-03
    4.20389604e-03 -7.30581908e-03 -3.37219890e-03 -2.20116670e-03
    -2.91651720e-03 -6.51201047e-03 -1.88431726e-03 -1.08634615e-02
    8.32980126e-03 4.57486231e-03 -8.50095320e-03 -3.00561124e-03
    -1.18825340e-03 -3.91605590e-03 -1.87416363e-03 1.38317386e-03
    3.34979501e-03 1.04380380e-02 -2.90002394e-03 -8.22549686e-03
    -1.95172452e-03 2.23179115e-04 -2.13797577e-03 1.00403721e-03
    8.19764740e-04 6.37838151e-03 2.50898884e-03 4.57646092e-03
    -8.21137149e-03 -4.41073207e-03 -4.08004969e-03 -4.20520222e-03
    -2.64079357e-03 7.16587296e-04 9.58035060e-04 6.55582827e-03
    -2.32993555e-03 -9.77743417e-03 -3.71006108e-03 -2.09805742e-03
    -2.94951233e-03 2.34779133e-03 3.31096095e-03 6.33604918e-03
    9.24983528e-03 -6.78175688e-03 -8.55817273e-03 -3.48341372e-03
    -2.41972273e-04 -1.40524120e-03 3.11246188e-03 4.95795021e-03
    7.32673751e-03 1.07808523e-02 1.94279477e-03 -8.09233729e-03
    -5.72937727e-03 -3.20278876e-03 -3.40315676e-03 -3.40467785e-04
    5.09785861e-03 5.17028756e-03 9.81430244e-03 -2.14326452e-03
    -1.13682477e-02 -2.44202651e-03 8.11658683e-04 -1.71017263e-03
    4.12556157e-03 3.52537725e-03 5.00630355e-03 4.63514123e-03
    4.47460479e-04 -9.71639436e-03 -5.08423802e-03 -4.69238032e-03
    -1.10897142e-03 1.71463424e-03 3.43604176e-03 4.45764652e-03
    1.13709429e-02 1.04080010e-02 -5.70782693e-03 -3.78239155e-03
    -6.00591116e-03 -5.23615396e-03 -3.60991224e-03 2.96475220e-04
    3.67861288e-03 8.98452569e-03 1.25140161e-03 -1.31081473e-02
    -5.77217015e-03 -1.77235424e-03 -8.90909694e-04 -1.30518735e-03
    1.15958089e-03 7.66237639e-03 7.69910682e-03 5.46654407e-03
    -8.03556107e-03 -4.16364288e-03 -6.49457425e-03 -4.79959976e-03
    -3.82283819e-03 6.43969281e-04 1.94341165e-03 6.69044536e-03
    2.28540259e-04 -1.35642244e-02 -6.88281143e-03 -1.76641007e-03
    -3.86519963e-03 -1.83660339e-03 2.61729350e-03 7.45982677e-03
    7.18559930e-03 -2.90286215e-03 -4.91566490e-03 -5.43208793e-04
    1.74477638e-03 2.31893896e-03 5.01655275e-03 5.82162477e-03
    1.03458036e-02 3.13706486e-03 -5.35028055e-03 -7.78125599e-03
    -4.57246415e-03 -2.82945507e-03 1.91794743e-03 4.78926906e-03
    6.27544988e-03 8.75633489e-03 4.98529896e-03 3.64688836e-04
    -8.52614548e-03 -2.29838956e-03 2.24871817e-03 1.13443460e-03
    4.06001322e-03 4.83518187e-03 8.60853493e-03 -3.12175276e-03
    -6.58785133e-03 -8.15268140e-03 -4.14626813e-03 -4.17730631e-03
    4.86512436e-04 3.54237366e-03 8.55295546e-03 4.99108713e-03
    4.46873810e-03 -3.87155393e-04 -8.09057150e-03 -3.67073761e-03
    3.18101840e-03 2.63339584e-03 4.68893815e-03 8.21365230e-03
    9.17159207e-03 1.81380019e-03 -1.21076533e-03 -1.22768991e-02
    -5.73964929e-03 -1.52060937e-03 -1.08148099e-03 -5.36287203e-04
    2.23350944e-03 2.02946202e-03 1.57612527e-03 -5.24117728e-04
    -4.95300442e-03 -1.99141912e-03 -9.54893418e-04 9.34121141e-04
    3.05054989e-03 1.09843342e-02 7.92920589e-03 2.18365039e-03
    -7.15696893e-04 -9.75712668e-03 -1.10850611e-03 -1.59269350e-03
    -4.19008126e-03 -3.49081890e-03 3.36374459e-03 6.89732551e-04
    4.14876221e-03 2.73954193e-03 -4.74862196e-03 8.22663074e-04
    -4.43992729e-04 -6.00184576e-05 3.83743863e-05 3.97749757e-03
    4.25691670e-03 -1.23354734e-03 -4.15025651e-03 -3.78740067e-03
    1.89301337e-03 4.67841252e-04 3.18336883e-03 1.44165603e-03
    2.24460219e-03 -4.74511785e-03 9.21875797e-03 6.41150307e-03
    -1.84807740e-03 8.65812879e-03 4.70917067e-03 1.18146243e-03
    2.97234394e-04 4.16174950e-03 2.78992811e-03 -3.49678379e-03
    1.34657696e-03 1.58218667e-03 1.34463692e-02 6.25847327e-03
    3.08814039e-03 2.60840263e-03 2.95139756e-03 -5.47869084e-03
    -1.72186818e-03 1.42922625e-03 1.38740875e-02 1.32083222e-02
    6.18466781e-03 5.09157544e-03 3.08695878e-03 1.34025177e-03
    -6.36620075e-03 -9.00456402e-03 -8.85600108e-04 1.35631617e-02
    1.61763169e-02 1.01844622e-02 -3.37687496e-04 1.77595392e-03
    -3.79697070e-03 -9.34922136e-03 -6.25673588e-03 3.61388526e-03
    1.30669037e-02 1.44800134e-02 7.72120012e-03 5.53698139e-03
    5.53310849e-03 2.15143664e-03 -7.64233526e-03 -1.08948471e-02
    -3.87596269e-03 9.85384732e-03 1.42335873e-02 7.87996966e-03
    3.13669932e-03 4.25433367e-03 -3.68914776e-03 -1.19732898e-02
    -4.61298041e-03 5.30752400e-03 1.16135152e-02 1.07023939e-02
    1.05338106e-02 3.47673357e-03 5.17244916e-03 6.27867412e-04
    -5.99162653e-03 -2.11456162e-03 9.88311414e-03 8.96863360e-03
    -1.36201896e-04 -2.93538347e-03 1.06758368e-03 3.52595211e-03
    2.03192863e-03 -6.07125275e-03 -7.66978972e-03 7.55241708e-05
    1.19779864e-02 1.89128462e-02 1.11773647e-02 2.59642280e-03
    4.72551724e-03 -2.83460109e-03 -9.28265788e-03 -7.33098947e-03
    5.14801079e-03 1.73289757e-02 1.32299997e-02 3.96309746e-03
    -1.54109939e-03 -5.68000942e-05 -3.18724569e-03 -8.78858473e-03
    -4.23162855e-04 1.53840482e-02 1.31738679e-02 3.83049744e-04
    -6.66768244e-03 -3.65489023e-03 2.58267857e-04 2.83929403e-03
    -3.29460623e-03 -1.42775418e-03 8.03331006e-03 6.08153222e-03
    5.31806564e-03 2.75387382e-03 2.11403961e-03 6.04121108e-03
    8.39878619e-03 -2.18759128e-03 -5.58199873e-03 9.74975061e-03
    1.62997730e-02 9.82773304e-03 -9.90126049e-04 -3.18623171e-03
    -2.03511538e-03 -5.86584210e-04 -4.66862600e-03 -6.72478788e-03
    4.32865787e-03 6.16803300e-03 9.46086925e-03 8.52698553e-03
    3.31005198e-03 4.75051673e-03 5.77011798e-03 7.16234616e-04
    -3.31358332e-03 3.97807825e-03 4.20208136e-03 5.49889309e-03
    6.34001056e-03 7.47819804e-03 5.74608054e-03 3.73296416e-03
    -3.81176942e-03 5.37220389e-04 5.29906712e-03 1.85741228e-03
    2.07671244e-03 -6.60487713e-05 4.82510682e-03 2.86409631e-04
    -1.77212618e-03 -2.28463137e-03 -4.01854701e-03 -4.00371384e-03
    -1.61586271e-03 4.90722898e-03 1.05565265e-02 3.35554150e-03
    4.73613665e-03 2.33331253e-03 1.60897489e-05 4.20375448e-03
    1.83960644e-03 7.59854447e-04 2.15130509e-03 2.86189257e-03
    3.31361289e-03 3.57528043e-04 -1.90852687e-03 -2.81085231e-04
    3.60315433e-03 7.37859262e-03 -1.38990445e-05 -2.83265836e-03
    4.52437531e-03 1.00054906e-03 -4.62313968e-04 2.51879310e-03
    4.98803658e-03 -9.25184228e-04 -9.77164018e-04 -5.73535869e-03
    -7.21390778e-03 6.61157770e-03 -3.03714559e-03 1.97126312e-04
    1.16118016e-02 5.47673181e-03 2.03071511e-03 2.73995101e-03
    -2.97277444e-03 -5.96785080e-03 4.79980372e-03 1.94067985e-03
    -5.65018447e-04 3.90615431e-03 3.10374447e-03 -3.24306125e-03
    4.65907040e-04 -7.58579653e-03 -9.51640122e-03 1.18250237e-03
    1.39629794e-03 3.49399052e-03 7.10520754e-03 3.15934257e-03
    -4.56014136e-03 -4.56537073e-03 -7.70448381e-03 -3.67169711e-03
    3.12386197e-03 -3.60484072e-03 2.18604412e-03 1.06792226e-02
    4.98566218e-03 -7.94731453e-03 -4.35436564e-03 -4.78806579e-03
    -3.43865878e-03 3.48992785e-03 1.40690431e-03 3.24314367e-03
    8.93898401e-03 1.09418615e-04 -4.55292501e-03 2.37716199e-03
    -4.45763394e-03 -4.60952986e-03 -1.75277458e-03 -2.47181766e-03
    7.31483509e-04 4.33026627e-03 3.45529965e-03 -4.65109572e-03
    -1.67014543e-04 2.51295790e-03 1.47055800e-03 5.10532968e-03
    -4.12943686e-04 7.72693136e-04 3.99312051e-03 -2.60015158e-03
    -8.13759118e-03 -4.03413270e-03 -3.23404954e-03 -5.60093019e-03
    3.74834146e-03 -3.76532436e-04 2.90998514e-03 5.10438019e-03
    2.02150620e-03 -4.05989354e-03 -6.33262889e-03 -4.24141996e-03
    -6.03260519e-03 2.48925673e-04 -5.76847279e-03 4.19086404e-03
    6.62671588e-03 6.82686688e-03 -4.93214838e-03 -2.59591220e-03
    -4.70655225e-03 -3.28432117e-03 6.98381895e-03 1.45714858e-03
    3.27662588e-03 5.30437892e-03 1.58639872e-04 4.79497621e-03
    -2.31488561e-03 -3.52239679e-03 -5.07087074e-03 1.41531939e-03
    -7.36702140e-03 -3.03638191e-03 6.37616543e-03 1.11528831e-02
    5.75086009e-03 1.91856436e-02 1.02870900e-03 -5.67036774e-03
    -6.80462783e-03 -5.27295610e-03 -3.70106078e-04 2.21290346e-03
    -7.59559497e-03 6.17362652e-03 1.91294011e-02 1.74471387e-03
    -4.09217644e-03 -8.33993219e-03 -6.93683140e-03 -3.77472932e-03
    1.59374636e-03 -4.40764567e-03 -4.69889678e-03 1.25044156e-02
    -4.42581996e-03 -8.59555975e-03 -8.95189587e-03 -4.51659923e-03
    -5.48218843e-04 -3.70196183e-03 -1.41576594e-02 -5.88318380e-03
    2.19131610e-03 -5.59114665e-03 -6.94825221e-03 -5.77373849e-03
    -5.85235097e-03 -1.83386833e-03 -2.97648297e-03 -9.06519871e-03
    8.02580360e-03 1.39724538e-02 8.77999759e-04 -7.64991273e-04
    -6.42464438e-04 -3.15340119e-03 -4.24530264e-03 -8.96921963e-04
    -2.15803250e-03 6.33259362e-04 1.42764009e-03 -5.91440313e-03
    -1.98969501e-04 1.06820815e-04 -1.25859282e-03 -1.38957717e-03
    1.22963008e-03 -6.47644280e-03 -1.90146978e-03 3.24868131e-03
    -4.09557344e-03 -2.08050176e-03 1.56234368e-04 -4.45078546e-03
    -4.33959812e-03 -2.63596443e-03 -1.71601874e-04 1.21451076e-03
    -1.19125994e-03 -8.86106957e-03 -7.67745660e-04 4.35778202e-04
    -3.78512149e-03 -4.95601958e-03 -2.51392229e-03 2.33601910e-04
    1.20474305e-03 -3.03911249e-04 -6.63179066e-03 -3.03208944e-03
    -1.27380001e-04 -2.61131744e-03 -9.90234781e-04 2.84592947e-03
    -2.19957414e-03 6.95475331e-03 3.21349991e-03 -1.13986097e-02
    -4.61699395e-03 -2.59870244e-03 -2.89312331e-03 2.41372106e-03
    6.26523094e-03 1.15555211e-03 5.35522122e-03 9.92101151e-03
    -6.48767408e-03 -2.27138191e-03 -1.29735889e-03 -3.01493355e-03
    -9.56129807e-04 5.04664611e-04 -2.41301418e-03 9.41621512e-03
    1.08377794e-02 -7.19625410e-03 -1.65590888e-03 -5.60441171e-04
    -9.20319580e-04 -1.65053958e-03 3.56533704e-03 -1.34254189e-03
    8.57524853e-03 2.26489804e-03 -9.81736649e-03 -3.38165020e-03
    1.50818925e-03 -2.16500391e-03 1.56106858e-03 1.52615388e-03
    3.92882619e-04 8.56555440e-03 2.39418494e-03 -7.32348254e-03
    -4.82035708e-03 7.44556310e-05 3.54769640e-04 2.33588880e-03
    2.50533596e-03 3.26878671e-03 1.11718401e-02 1.04693789e-02
    -7.91025441e-03 -4.22151480e-03 1.63077540e-03 -1.15375360e-03
    -3.07490141e-03 5.38226508e-04 -3.94623203e-04 1.14723910e-02
    7.18231034e-03 -9.37323086e-03 -9.65712685e-03 2.15299791e-04
    -3.04725999e-03 -1.38425047e-03 2.00365926e-03 3.53232236e-03
    6.04640367e-03 5.85353328e-03 -7.84060266e-03 -1.89244619e-03
    4.59064438e-04 -1.63801701e-03 -7.29330641e-04 2.40498339e-03
    8.66826565e-04 8.67737178e-03 1.01715513e-03 -1.13173919e-02
    -3.43617541e-03 2.27359985e-03 -1.40840106e-03 -3.22277797e-03
    1.67200160e-05 1.69190322e-03 1.39623145e-02 7.63689820e-03
    -8.27385020e-03 -6.06496818e-03 -2.10126792e-03 -6.34732051e-03
    -5.38086565e-03 4.05677274e-04 2.76503712e-03 9.73089039e-03
    4.70757624e-03 -8.97684228e-03 -3.87008884e-03 4.66209749e-04
    -5.04270382e-03 -1.06095197e-02 -2.27412092e-03 6.34411583e-03
    8.51141661e-03 1.87277049e-03 -6.90798042e-03 -4.23494540e-03
    5.00953465e-04 1.74961216e-03 -6.71026122e-04 -1.92590436e-04
    3.00243217e-03 4.14665928e-03 1.41695794e-03 -5.43668587e-03
    -1.72037457e-03 -5.44183049e-03 9.65958403e-04 6.30822498e-04
    3.52683640e-03 -4.33384953e-03 9.59409587e-03 2.33622990e-03
    -7.47207087e-03 -1.99646666e-03 5.04360592e-04 3.58897756e-04
    -5.45581477e-03 1.84050165e-04 5.39765134e-03 6.58220146e-03
    1.98334595e-03 -1.16157467e-02 -1.02146354e-03 2.63880612e-03
    2.30946415e-03 -2.17905361e-03 3.65571794e-03 1.50185649e-03
    3.03731184e-03 4.26406413e-03 -3.07528838e-03 4.88412450e-04
    -2.87265261e-03 1.38658751e-03 -9.42570157e-04 6.37339288e-03
    1.33791007e-03 1.06646318e-03 7.79113616e-04 -9.93196666e-03
    -8.84152309e-04 -1.88403577e-03 1.04479759e-03 -1.96369551e-03
    1.80915487e-03 -1.53252028e-03 5.55053912e-03 4.72777290e-03
    -6.32333057e-03 1.55254884e-03 5.37910685e-03 4.47173743e-03
    9.53621988e-04 5.74554084e-03 4.97914525e-03 1.68537092e-03
    3.77863110e-03 -1.03043551e-02 -4.54080803e-03 1.77146669e-03
    1.92209822e-03 -1.44476362e-04 1.98040903e-03 1.59319898e-03
    1.06865668e-03 3.08130635e-03 -1.09675608e-03 8.20624456e-03
    4.74609435e-03 5.35790995e-03 2.58097332e-03 3.29669612e-03
    -1.18610135e-03 -5.74825751e-03 -4.99059819e-03 7.28421786e-04
    9.83797014e-03 8.29472393e-03 4.71545290e-03 1.48058427e-03
    -2.46420386e-04 -9.91388503e-03 7.26213097e-04 1.18925953e-02
    -6.84663304e-04 4.39793104e-03 6.33220235e-03 4.11968771e-03
    4.25060419e-03 3.84512800e-03 2.06934777e-03 6.59481215e-04
    6.06879545e-03 7.26427697e-03 4.60364716e-03 3.42486682e-03
    2.16603442e-03 2.09055119e-03 2.26854789e-03 -3.51579580e-03
    -5.18266857e-03 -2.21774983e-03 8.39214493e-03 9.97205172e-03
    5.97094884e-03 6.79260259e-03 4.67113033e-03 1.95575575e-03
    -7.05419295e-03 -9.26415715e-03 -7.24908058e-03 6.86842576e-03
    1.13832084e-02 3.70518840e-03 3.83302360e-03 2.15852726e-03
    -2.53243465e-03 -1.14104087e-02 5.52834281e-05 -8.74092337e-04
    1.69776082e-02 1.49760209e-02 8.13201815e-03 6.96820347e-03
    6.41928008e-03 6.21018279e-03 -2.79322802e-03 -1.01049179e-02
    -6.06883923e-03 1.51591916e-02 1.43635711e-02 7.39760231e-03
    6.08093664e-03 3.63070238e-03 3.62044899e-03 -8.41146894e-03
    -4.70259634e-04 7.43050885e-04 1.22228609e-02 1.50862597e-02
    6.14651525e-03 7.84482050e-04 1.48597371e-03 -3.85138951e-03
    -6.27782987e-03 -8.10243562e-03 4.23985533e-03 2.01180205e-02
    1.53260529e-02 -6.32867799e-04 -4.47480427e-03 -2.84712086e-03
    -4.78548091e-03 -4.68227593e-03 -4.68843849e-03 1.41810870e-03
    1.57337021e-02 1.54609941e-02 9.72783007e-03 2.30597518e-03
    -1.15215674e-03 -3.58811172e-04 -4.50635515e-03 -1.23241646e-02
    3.10054701e-03 2.12206263e-02 1.10522248e-02 1.21144089e-03
    -1.24855991e-03 -1.24824539e-04 -2.69246288e-03 -9.12029296e-03
    -1.17422631e-02 1.94438093e-03 1.60095841e-02 1.19347395e-02
    -2.15412583e-03 1.13375158e-04 -2.09407927e-03 -1.46205060e-03
    -3.50780040e-03 -1.21187940e-02 -7.33345572e-04 7.95189105e-03
    9.40338615e-03 6.95286458e-03 6.90564374e-03 2.82983202e-03
    9.37176053e-04 -6.25236426e-04 -1.43996561e-02 2.04104953e-03
    1.56987216e-02 1.17943306e-02 2.53711781e-03 2.41940841e-03
    9.93024558e-04 -2.33241110e-04 -6.80353632e-03 -8.71211477e-03
    8.53975583e-03 1.15974685e-02 1.05383079e-02 1.24256695e-02
    6.04547653e-03 5.30909398e-04 -9.94993956e-04 -7.50948582e-03
    -3.94416600e-03 -2.58168275e-03 8.09415651e-04 9.39667877e-03
    1.40476804e-02 2.90132989e-03 2.42556981e-03 2.66474835e-03
    2.41696858e-03 4.51304531e-03 2.97921803e-03 -1.29541429e-03
    -9.17765079e-04 6.20781386e-04 -1.12007256e-03 -2.76951498e-04
    -5.12005994e-04 1.91814918e-03 -6.38487656e-03 7.10991910e-03
    8.98048095e-03 1.02264127e-02 9.99685563e-03 6.40514845e-05
    8.88067880e-04 1.62731356e-03 -5.47671365e-03 -2.91350600e-03
    8.74435250e-03 3.51630431e-03 4.05368599e-04 -1.51549396e-03
    -1.04887085e-03 -1.18388759e-03 -1.35799614e-03 -7.87338149e-03
    4.46467707e-03 5.46827959e-03 -1.40401663e-03 -6.83556776e-03
    1.75250822e-03 1.65935280e-03 1.92270207e-03 4.74970601e-03
    6.06610160e-03 8.94012628e-04 4.24274849e-03 -3.19502014e-03
    -8.81693698e-03 -4.96523862e-04 2.22090958e-03 6.51018752e-04
    4.50562453e-03 3.20338248e-03 -2.69805221e-03 7.37198675e-03
    6.97096251e-03 5.19857928e-03 1.17277438e-02 -2.64728122e-04
    -2.34947889e-03 -4.04704333e-05 -3.16509278e-03 -5.74110635e-03
    6.59957062e-03 9.77997109e-03 2.74378620e-03 1.28111253e-02
    -1.13089709e-03 -5.76497754e-03 -2.51726853e-03 -3.71502596e-03
    -1.48788001e-03 6.69119833e-03 -1.36873787e-04 -4.32166597e-03
    -1.40513503e-03 -7.79194990e-04 -6.12984470e-04 2.49138614e-03
    3.61257535e-03 -7.57254241e-03 -1.42629724e-03 -2.77658296e-03
    -8.00181078e-05 7.90217146e-03 -2.79272004e-04 -6.97352109e-04
    3.66331101e-03 1.13091990e-03 -2.85481033e-03 7.91246910e-03
    4.03296296e-03 -3.21047643e-04 1.05494410e-02 9.82670113e-04
    -6.87972549e-03 -4.74078394e-03 -3.76610114e-04 -1.64684292e-03
    5.53146005e-03 -2.21751118e-03 3.59515240e-03 8.89602024e-03
    -3.27133783e-03 -5.23335952e-03 -2.74063135e-03 -1.28082198e-03
    -5.74651081e-03 -7.09133130e-03 -9.10110120e-03 -4.43793926e-03
    4.82259132e-03 1.63459312e-03 2.31978673e-04 4.91980230e-03
    2.53896695e-03 6.49144780e-03 -5.17856271e-04 -4.10457328e-03
    -7.38462061e-03 1.48697314e-03 -3.18781845e-03 -2.12048693e-03
    7.07989139e-03 8.06310587e-03 -3.02483793e-03 5.53743390e-04
    3.38921230e-03 2.68074917e-04 2.87857978e-03 -6.58649439e-03
    -6.89421128e-03 -1.51243678e-03 -1.62350538e-03 2.49947375e-03
    1.18414983e-02 1.06222788e-02 -2.98774812e-05 5.70627162e-04
    -9.29160509e-03 -6.37768907e-03 -5.20022295e-04 1.90853328e-03
    -7.10815843e-03 1.28080426e-02 1.65872407e-04 -5.86092751e-03
    -9.09861829e-03 -5.00023272e-03 2.34240288e-04 -3.38788168e-03
    -2.02387348e-02 -5.75506641e-03 1.20031582e-02 -2.31743371e-03
    -1.99035532e-03 -3.28012928e-03 -5.93454065e-03 -3.69998207e-03
    -1.77177240e-03 -1.28297554e-02 1.66557229e-03 2.07473505e-02
    -1.51733158e-03 -3.83590418e-03 -6.29993202e-03 -6.24525966e-03
    -1.30963488e-03 -4.63197008e-03 -1.19929211e-02 5.57575515e-03
    1.58073734e-02 -5.40801615e-04 -2.14216951e-03 -1.65553042e-03
    -7.75492704e-03 -4.88780346e-03 -1.46480976e-03 -9.55949351e-03
    -4.91131516e-03 7.51655269e-03 -1.83187670e-03 -1.03011122e-03
    -4.12946712e-04 -4.49745264e-03 -5.12347743e-03 4.01812140e-04
    -5.54180006e-03 -8.59156949e-04 1.00547727e-02 -8.81283265e-03
    -6.50093146e-03 -6.96241017e-03 -3.50500154e-03 -4.51822253e-03
    -5.24157484e-04 -1.66110031e-03 6.42031431e-03 1.67837199e-02
    -1.24249700e-03 -3.30774207e-03 -6.83932006e-03 -4.77918843e-03
    -7.00740749e-03 -8.69498472e-04 -4.59629158e-03 5.00657177e-03
    9.94662941e-03 -5.91319520e-03 -8.36064201e-03 -1.13379601e-02
    -3.98760242e-03 -9.20016598e-03 -2.67478381e-03 -6.23937650e-03
    3.09849251e-03 1.40519850e-02 -5.14997961e-03 -4.17881878e-03
    -5.78176230e-03 -2.53266562e-03 -2.99193850e-03 -4.73849126e-04
    -3.44315963e-03 9.32152849e-03 9.56807472e-03 -7.15127354e-03
    -2.01417715e-03 1.82937644e-03 -3.35032237e-03 -5.55610657e-03
    9.08959191e-04 -4.39478084e-03 5.19824447e-03 6.81100506e-03
    -6.21024380e-03 -4.48038802e-03 -3.31014395e-03 -3.21889156e-03
    -5.69338631e-03 -3.01148073e-04 -4.25302889e-03 7.28634046e-03
    2.26839911e-03 -1.49474032e-02 -3.80316121e-03 2.25669309e-03
    -2.61494843e-03 -4.93949698e-03 1.24604651e-03 1.97751331e-03
    1.29038589e-02 1.50310677e-02 -5.65622887e-03 -4.10382217e-03
    1.29742388e-04 -1.11468078e-03 -1.16719946e-03 4.18410543e-03
    -3.48393666e-03 1.62192788e-02 1.35259340e-02 -1.19045163e-02
    -8.65785964e-03 -2.11764663e-03 -1.14659045e-03 1.00373372e-03
    4.01609624e-03 -1.96714202e-04 1.55177033e-02 7.53891608e-03
    -1.30672082e-02 -9.03166831e-03 -1.91819214e-03 -2.48357421e-03
    -2.38058413e-03 3.74950003e-03 4.51113423e-03 1.77810472e-02
    6.02304563e-03 -1.71475504e-02 -1.24011021e-02 -2.54215579e-03
    -1.75400090e-03 -8.38235661e-04 5.18917339e-03 6.11103699e-03
    1.60166342e-02 7.01576704e-03 -1.29093332e-02 -8.49738345e-03
    -2.59173173e-03 -4.53051506e-03 -3.68836452e-03 3.33861128e-04
    3.67550040e-03 1.44059369e-02 4.16345755e-03 -1.10487062e-02
    -4.71192179e-03 4.65640856e-04 -2.52791750e-03 -7.93163758e-03
    -2.66513322e-03 4.90625761e-03 1.98711790e-02 9.42813046e-03
    -1.65220909e-02 -7.63408933e-03 -2.59413430e-03 -4.01607994e-03
    -4.82912641e-03 2.49752426e-04 2.04390078e-03 1.45211490e-02
    1.25543065e-02 -9.47672501e-03 -3.77028668e-03 -2.88314163e-03
    -3.51930130e-03 -9.75051429e-03 -5.10252081e-03 -1.72740271e-04
    1.10366307e-02 5.42129064e-03 -2.78973789e-03 -8.88212759e-04
    4.77820402e-04 -4.11587884e-04 -6.57834020e-03 -2.45296676e-03
    4.62296710e-04 9.89255495e-03 4.10320517e-03 -7.96247739e-03
    -1.28835056e-03 3.17592826e-03 2.01237295e-03 -3.68479826e-03
    -6.95991737e-04 -7.29075517e-04 9.87049844e-03 7.72166951e-03
    -4.87032486e-03 -3.75444279e-03 -3.83791560e-03 -2.75765569e-03
    -9.75979026e-03 -6.89474773e-03 -3.20816645e-03 3.28165782e-03
    4.52011637e-03 -9.17559396e-03 -2.34739459e-03 -3.98145377e-04
    5.37274682e-05 -8.91076215e-03 -5.60944667e-03 -5.42902481e-03
    1.25528388e-02 4.66032000e-03 -5.76551864e-03 9.28181573e-04
    4.06562211e-03 3.63275362e-03 -2.13760068e-04 3.89294280e-03
    2.96551059e-03 4.23990097e-03 -8.37992295e-04 -1.05164628e-02
    -2.93562608e-03 1.30984827e-03 1.39337592e-03 -2.06649001e-03
    1.48643798e-03 -1.12997415e-03 1.15814377e-02 1.04354741e-02
    -4.66010673e-03 7.66531914e-04 3.43117956e-03 3.10584623e-03
    -4.33280366e-03 7.36631337e-04 2.09018224e-04 3.19805974e-03
    1.35666656e-03 -8.99420027e-03 8.89467716e-04 1.80224958e-03
    4.81246132e-03 -8.58296989e-04 2.23314812e-04 -3.69388098e-03
    3.78903397e-03 9.32762679e-03 1.84040971e-03 6.63858431e-04
    4.39478364e-03 1.74583716e-03 1.00846158e-03 2.47228611e-03
    8.20732501e-04 1.78489706e-03 5.01616998e-03 9.99414362e-04
    2.04660371e-03 4.28758934e-03 2.93536531e-03 2.62672780e-03
    1.13033899e-03 -2.47757556e-03 2.80637061e-03 4.16396232e-03
    -4.21142951e-03 2.99332361e-03 3.80013068e-03 5.28292311e-03
    1.52552756e-03 3.25293024e-03 2.39177584e-03 1.90570496e-03
    -3.24754464e-03 -6.63835183e-03 1.22368988e-03 5.82607277e-03
    6.52687298e-03 2.53804773e-03 5.18970424e-03 4.91295056e-03
    8.68237577e-04 4.06728266e-03 1.09913955e-02 1.12608923e-02
    8.03309586e-03 6.92847557e-03 6.12796564e-03 5.81348408e-03
    -5.66881208e-04 -1.23303365e-02 -3.92570021e-03 1.55558456e-02
    1.16161341e-02 8.62858538e-03 4.97288071e-03 2.68448493e-03
    5.23254322e-03 -4.07118862e-03 -2.47511140e-04 1.90842792e-03
    5.16927289e-03 7.69137964e-03 6.05485449e-03 8.44314974e-03
    3.24320537e-03 5.77256782e-03 7.98310328e-04 -1.15068695e-02
    -1.92682771e-03 7.22841593e-03 8.70480388e-03 6.08160347e-03
    2.86514987e-03 1.35834818e-03 3.98015743e-03 -1.78192067e-03
    -6.60795998e-03 2.33421987e-03 1.84502900e-02 1.27513139e-02
    8.10113922e-03 4.89783194e-03 2.63534440e-03 5.52092353e-03
    -1.97370560e-03 -1.73537806e-02 -1.98607333e-03 2.28823535e-02
    1.29464278e-02 6.25050068e-03 5.97549276e-03 5.52287232e-03
    1.20073475e-03 -9.26643237e-03 -1.11622801e-02 7.58006427e-05
    9.41828452e-03 1.17091099e-02 1.05367675e-02 6.46525109e-03
    6.26195688e-03 6.83982624e-03 -1.82624895e-03 -2.35188063e-02
    -2.42883386e-03 1.22411419e-02 1.99350864e-02 1.44574624e-02
    8.82536173e-03 4.85558202e-03 -3.54352742e-05 -1.07786711e-02
    -1.54805407e-02 -6.10786199e-04 1.72660109e-02 9.38182045e-03
    4.73868800e-03 3.80835892e-03 4.01809672e-03 8.51636054e-04
    -7.68374419e-03 -9.00277495e-03 8.04807059e-03 1.26898307e-02
    9.53786075e-03 1.03808176e-02 5.51992143e-03 2.80690350e-04
    -1.91257638e-03 -1.13070710e-02 -2.03303099e-02 5.23385999e-04
    1.41915306e-02 1.27863949e-02 5.69243077e-03 3.91218765e-03
    3.36022931e-03 5.19523339e-04 -8.31982028e-03 -1.28664328e-02
    8.65198020e-03 1.44325355e-02 1.49275586e-02 7.00630900e-03
    8.43004137e-03 2.16089096e-03 -2.64312956e-03 -1.09709268e-02
    -9.24119167e-03 1.10818679e-02 1.20338025e-02 7.41397589e-03
    7.20143784e-03 2.12735170e-03 5.20341855e-04 8.06820695e-04
    -9.85201448e-03 -9.66843311e-03 8.18339270e-03 8.14373326e-03
    3.31939943e-03 -1.24298350e-03 1.59782206e-03 1.65030209e-03
    2.34874641e-03 -1.09060230e-02 -8.84917472e-03 7.49087753e-03
    1.14865787e-02 1.49326427e-02 9.98183712e-03 5.09659480e-03
    2.97550601e-03 -4.76344576e-05 -8.59819632e-03 -9.42724943e-03
    8.93348735e-03 1.08396029e-02 9.76513699e-03 2.16788775e-03
    3.27596301e-03 3.89231462e-03 4.09750780e-03 -8.18978902e-03
    -8.80270638e-03 6.66072080e-03 8.34767893e-03 4.37742844e-03
    6.13256777e-03 -5.32837352e-04 -1.12683699e-03 7.22497760e-04
    -7.90050719e-03 -6.18003355e-03 1.96993770e-03 7.04031996e-03
    3.89950071e-03 1.00457529e-02 -1.95533480e-03 -5.10739675e-03
    -4.29195771e-03 -8.65343492e-03 -1.88411667e-03 1.13090370e-02
    5.26274880e-03 1.63734541e-03 3.13091860e-03 2.68949749e-04
    3.30923824e-03 6.19358011e-03 -3.18850926e-03 4.83048614e-03
    8.65146425e-03 1.94716116e-03 2.16614315e-03 7.82385562e-03
    -3.65766045e-03 2.60169921e-03 3.89610743e-03 3.60229518e-04
    -2.30220333e-03 3.64753394e-03 2.14173016e-03 2.34866212e-03
    9.45372414e-03 -9.35281452e-04 -5.29717607e-03 -5.16413106e-03
    -4.48788563e-03 -1.29911827e-03 8.34280439e-03 -2.26327172e-03
    2.06272490e-03 1.28328463e-03 -5.23207569e-03 -2.73882598e-03
    -4.24791826e-03 -5.66089898e-03 2.54223612e-03 7.46024074e-03
    7.29792425e-03 1.12408996e-02 5.82395541e-03 -5.07931132e-03
    2.22787843e-03 1.78363197e-03 4.91649378e-04 3.32920952e-03
    7.26374658e-03 4.43388103e-03 4.99679893e-03 -1.03214150e-03
    -6.65345788e-03 1.68136007e-03 -6.11579628e-04 -6.56983408e-04
    -1.22237683e-03 1.04674017e-02 2.24790536e-03 1.35992514e-03
    -2.80103320e-03 -7.74804642e-03 -7.20810331e-03 -4.41185758e-03
    -7.72425905e-03 7.26104714e-03 1.20670265e-02 5.53627033e-03
    -4.21481533e-03 1.19441352e-03 -9.01967008e-03 -7.20482646e-03
    -8.88105365e-04 -1.98956253e-03 3.00451508e-03 4.39565303e-03
    2.22569588e-03 3.73679935e-03 6.61467377e-04 -5.94414677e-03
    -2.13769288e-03 -6.18911872e-04 2.26705894e-03 9.68697388e-03
    1.28277196e-02 6.34712493e-03 3.36918188e-03 5.69278095e-03
    -7.29173375e-03 -5.85088274e-03 -1.42155739e-03 4.67373012e-03
    1.98229938e-03 1.39574278e-02 -1.69720175e-03 -4.75464901e-03
    -2.49314122e-03 -3.64168105e-03 4.26307321e-04 -2.84738559e-03
    -9.37883090e-03 4.72720386e-03 1.64131261e-02 4.33180598e-04
    -7.66825571e-04 -1.26974576e-03 -6.07280247e-03 -4.16882709e-03
    -1.30114541e-03 -4.38241521e-03 -4.10609785e-03 1.53186396e-02
    1.07650773e-03 -1.63928710e-03 -1.32827205e-03 -2.68777413e-03
    -2.27173488e-03 -5.64800110e-03 -1.49737587e-02 1.83200557e-03
    1.55930454e-02 -5.93084237e-03 -2.48356955e-03 -2.24956730e-03
    -5.34037733e-03 -6.89273840e-03 -4.37292689e-03 -9.36202612e-03
    6.86996384e-03 1.65435970e-02 9.68334964e-04 2.37610517e-03
    -2.84388708e-03 -3.93301435e-03 -4.96188272e-03 -1.05808210e-03
    -6.08290662e-04 4.05196333e-03 1.11002345e-02 -4.39237431e-03
    -1.98681559e-03 -6.35236502e-03 -2.39366828e-03 -7.59092439e-03
    -2.25298991e-03 -5.40228887e-03 1.79511029e-03 1.54789295e-02
    -2.10810849e-03 1.46062893e-03 -2.49412406e-04 -4.35078843e-03
    -6.98002009e-03 -4.26050462e-03 -7.81187462e-03 2.35841796e-03
    1.66973211e-02 -5.33665996e-03 -4.21187608e-03 -8.28818232e-03
    -3.63273267e-03 -7.01526459e-03 -5.05438913e-03 -8.36812332e-03
    1.08277025e-02 8.41094740e-03 -1.97411026e-03 -1.15821557e-03
    -1.97240291e-03 -3.20827891e-03 -7.01476214e-03 -1.49190682e-03
    -2.10245606e-03 1.24083860e-02 7.04829115e-03 -9.40452330e-03
    -1.28195796e-03 9.52773844e-04 -2.93447217e-03 -4.31824243e-03
    1.58307678e-03 2.88948952e-03 1.12221874e-02 1.42427944e-02
    -5.11104893e-03 -2.52633425e-03 -8.39281641e-03 -5.13444236e-03
    -7.92973861e-03 -5.40016266e-03 -3.77549836e-03 1.51449721e-02
    9.02939774e-03 -8.96162260e-03 3.69377871e-04 -3.14585399e-03
    -6.14614971e-03 -6.01061620e-03 -1.48647698e-03 5.59473690e-03
    1.42044565e-02 5.36728743e-03 -1.53067745e-02 -6.67328667e-03
    -1.62560295e-03 -3.13698710e-03 -4.05531051e-03 1.89483748e-03
    3.93665349e-03 1.57803111e-02 4.25617443e-03 -1.75766759e-02
    -6.29041204e-03 -1.91688119e-03 -1.27330574e-03 -1.39199744e-03
    5.25154499e-03 5.91969443e-03 1.75501518e-02 1.42147867e-02
    -7.85873365e-03 -3.63789033e-04 -1.34658848e-03 -6.87841373e-03
    -2.10403046e-03 8.20522779e-04 3.63253523e-03 1.91003885e-02
    1.16770491e-02 -3.13577848e-03 3.21068405e-03 1.43917324e-03
    -2.89330445e-03 -9.74745024e-04 4.70267667e-04 7.82120158e-04
    1.48865096e-02 9.15768743e-03 -1.27292741e-02 -9.90662607e-04
    -1.12379715e-03 -1.77872163e-04 -5.32859587e-04 3.72812711e-03
    3.69057350e-04 1.34532843e-02 7.94498250e-03 -1.58394407e-02
    -5.78709971e-03 -8.07506032e-03 -1.33853452e-03 -2.83614709e-03
    3.30425391e-04 5.98797167e-04 1.45864049e-02 1.32080903e-02
    -1.02009727e-02 1.76142121e-03 3.92604212e-04 6.42645755e-04
    -1.85799028e-04 1.82224927e-03 -4.04743571e-03 9.70556587e-03
    9.15550999e-03 -1.52939176e-02 -3.93220223e-03 -7.00226706e-03
    1.42532121e-03 -1.11485866e-03 1.36732461e-03 7.73858337e-04
    9.50232893e-03 9.70037840e-03 -6.99483044e-03 -3.34536843e-03
    -6.65231794e-03 -3.05631035e-03 -4.41431580e-03 -2.91083776e-03
    1.01937936e-03 1.26308361e-02 1.57985073e-02 -7.99284410e-03
    -1.35859568e-03 -1.28320884e-03 8.55073507e-04 -6.21327618e-03
    -5.67749143e-03 -7.42886122e-03 1.14829428e-02 1.02784550e-02
    -1.03711449e-02 -2.05946434e-03 -4.40956932e-03 -2.54720403e-03
    -3.77765368e-03 1.22974836e-03 7.03665195e-04 8.71354621e-03
    8.53744522e-03 -1.35285445e-02 -3.69879557e-03 -2.47171032e-03
    2.68415082e-04 -1.97717198e-03 -1.55436352e-03 -3.12057347e-03
    1.40058380e-02 1.46151446e-02 -5.29845757e-03 1.31849467e-03
    3.41443997e-03 3.82270571e-03 -3.97021836e-03 -1.93310750e-03
    -5.75872744e-03 2.72803882e-04 -1.67138968e-03 -1.16954986e-02
    -2.97622319e-04 2.67947419e-03 4.86054877e-03 -1.40986044e-03
    -2.07527145e-03 -7.42426189e-03 1.06144231e-02 1.24835707e-02
    -5.54231787e-03 2.25794828e-03 5.09511912e-03 6.59186067e-03
    9.16925783e-04 -1.51696184e-03 -5.08191530e-03 -1.98849896e-03
    9.03396518e-04 -6.22466393e-03 1.06041750e-03 4.17356100e-03
    6.99751405e-03 9.83805628e-04 -5.93035889e-04 -7.01954402e-03
    5.86868031e-03 -5.28559787e-04 -6.82933303e-03 2.68864096e-03
    4.34389897e-03 5.37922047e-03 1.85677235e-03 3.12785711e-03
    5.70224086e-03 -8.91535368e-04 -2.86646211e-03 -8.06580856e-03
    -3.41000478e-03 -4.33032954e-04 4.33473894e-03 1.20676728e-03
    5.34076337e-03 4.83982731e-03 1.68999867e-03 7.76577694e-03
    -2.54279980e-03 3.56676453e-03 2.29245005e-03 6.86663622e-03
    5.51092252e-03 8.37866031e-03 8.84803664e-03 -7.25936517e-03
    2.89097009e-03 7.86773686e-04 -4.31002438e-04 -3.38336057e-03
    5.08500682e-03 4.52824496e-03 8.14300496e-03 7.38351792e-03
    -1.24360330e-03 -1.13820797e-03 2.48232787e-03 4.09982074e-03
    2.82704225e-03 5.68761118e-03 2.19635060e-03 5.41205332e-03
    2.62694014e-03 -8.64249654e-03 -8.00403021e-03 9.66981694e-04
    3.41810798e-03 2.90978770e-03 3.48738104e-04 -9.22743464e-04
    -1.75806490e-04 -3.82153178e-03 1.36349385e-03 2.31256220e-03
    8.67326930e-03 1.03405630e-02 2.51428201e-03 6.41553197e-03
    4.24340274e-03 5.59269963e-03 6.31256588e-03 5.85798349e-04
    -2.27095722e-03 9.57258418e-03 1.00357998e-02 -4.06889711e-04
    2.51931604e-03 -1.45817199e-03 2.84629623e-05 3.18742939e-03
    -1.09045934e-02 -7.95260351e-03 -3.18318867e-04 6.53444463e-03
    1.62159977e-03 1.87360530e-03 2.13357434e-03 6.29717018e-04
    -4.63010557e-03 -1.49095366e-02 -4.99325432e-03 3.57722584e-03
    9.10109375e-03 1.14205026e-03 -4.26217244e-04 5.12370498e-05
    2.20272434e-03 -7.76895601e-03 2.09619524e-03 2.02250876e-03
    1.03237135e-02 8.19959864e-03 -2.27325293e-03 3.31983995e-03
    1.20905694e-03 9.72984300e-04 3.15279653e-03 4.52649035e-03
    8.24765768e-03 1.13993064e-02 6.30006846e-03 -1.44670764e-03
    2.41513108e-03 2.13954505e-03 1.74431608e-03 1.54337438e-03
    -1.47240693e-02 -3.76903638e-03 1.24590204e-03 4.87082312e-03
    -1.91274611e-03 -9.03231092e-04 4.52279695e-04 3.10961995e-03
    -5.30595938e-03 -7.71995401e-03 1.94903603e-03 1.68319349e-03
    2.98338360e-03 -9.14455391e-03 9.62405349e-04 -1.25801330e-03
    8.20644840e-04 -5.39263897e-03 4.23835794e-04 1.89592887e-03
    1.99552323e-03 2.00576917e-03 5.65764785e-04 2.53596879e-03
    5.42342477e-03 6.55505899e-03 3.16402852e-03 3.63140670e-03
    9.37834103e-03 -3.24972370e-03 -2.89409002e-03 -6.85813371e-03
    4.60230326e-03 6.67983806e-03 6.89993566e-03 2.50263535e-03
    -5.19886194e-03 2.75092432e-03 3.97346495e-03 8.25594645e-03
    -1.19467080e-03 1.21146697e-03 5.64719143e-04 1.01912045e-03
    -5.11901593e-03 -7.50150671e-03 7.21292431e-03 7.34576955e-03
    8.48671235e-03 -9.28037334e-03 2.70285003e-04 1.53475860e-03
    4.20172117e-04 -9.40401014e-03 9.77149350e-04 1.27384691e-02
    -3.46041378e-03 -1.58588495e-03 5.44656126e-04 6.04381133e-03
    1.20822228e-02 8.53739027e-03 2.70852889e-03 -1.12174945e-02
    7.51461880e-03 3.67471389e-03 3.68163548e-03 -6.88191364e-03
    5.13864541e-03 1.02556162e-02 6.17890153e-03 -4.25351225e-03
    8.44446418e-04 8.35669134e-03 1.63436914e-03 2.01248121e-03
    -1.62544288e-03 -1.33453507e-03 1.92356459e-03 4.19865269e-03
    -2.01771734e-03 5.45560243e-03 4.99841990e-03 2.99068488e-04
    4.55942284e-03 2.70914589e-03 -4.97086998e-03 -1.28671643e-03
    2.81803659e-03 -1.88012037e-03 -3.05436435e-03 7.20611122e-03
    9.61951446e-03 9.09730326e-03 -9.54708259e-04 1.40195084e-03
    4.07939497e-03 4.76713711e-03 -2.10518111e-03 -9.23139160e-05
    2.23368965e-03 4.09470312e-03 1.00243613e-02 4.76541836e-03
    -3.89938033e-03 -2.82944343e-03 -4.58024815e-03 -5.59634436e-03
    2.94778240e-03 1.04697852e-03 3.27784248e-04 1.26200253e-02
    1.96347784e-04 -9.87163279e-03 -6.27311354e-04 1.92767195e-03
    -1.25779421e-03 1.85989586e-04 -5.93306404e-03 -2.46413925e-04
    3.23547004e-03 -5.64613938e-03 -1.02837626e-02 -1.26320083e-04
    1.42258266e-03 2.89146410e-04 3.13033070e-03 1.95515086e-03
    4.30241553e-03 1.30159473e-02 2.71450001e-04 -9.39424522e-03
    -5.90239302e-04 -2.32597324e-03 -1.41196733e-03 -9.60439851e-04
    -6.26622408e-04 3.92278144e-03 7.58798840e-03 -4.34791250e-03
    -1.00442776e-02 -1.50144566e-03 -9.27028945e-04 3.75838688e-04
    4.10264917e-03 7.23563717e-04 -1.51902693e-03 6.16984209e-03
    -3.22197052e-03 -9.37463064e-03 -2.56345770e-03 -3.25427245e-04
    3.42201395e-03 7.40207545e-03 8.75093043e-03 4.80477093e-03
    1.15387165e-03 -3.24815838e-03 -8.17683805e-03 -5.17647155e-03
    -5.45550557e-03 -1.16757303e-03 2.18337122e-03 4.89037158e-03
    4.49794810e-03 6.98347436e-03 -2.62037036e-03 -8.45963508e-03
    -2.29515065e-03 -1.54825961e-04 -1.35115965e-03 8.28411081e-04
    1.05616432e-02 8.38342961e-03 7.46121490e-03 2.32238043e-03
    -3.45561351e-03 -6.78035012e-03 -8.34751967e-03 -8.33073258e-03
    3.59364250e-03 1.49833262e-02 4.65670368e-03 3.37700895e-03
    -2.32450478e-03 -5.25183231e-03 -4.40723309e-03 -4.03006328e-03
    -5.13994414e-03 3.86309624e-03 1.12418551e-02 -2.01227167e-03
    4.84386546e-04 -2.65745050e-03 -5.50784729e-03 -5.82567649e-03
    -4.88978298e-03 -7.61684915e-03 6.15566969e-03 6.82378002e-03
    -5.44843264e-04 1.37593597e-03 -6.31461211e-04 -6.26575202e-03
    -7.30551127e-03 -7.70724844e-03 -4.45138809e-04 9.14737768e-03
    9.18599870e-03 -6.80526253e-03 -3.76084237e-03 -4.23430884e-03
    -8.66782200e-03 -6.97788876e-03 -6.71673566e-03 -2.93287239e-03
    2.15298714e-04 1.05591267e-02 -2.57741986e-03 1.60785217e-03
    1.09703420e-03 -2.73031462e-03 -3.10890540e-03 -6.39310293e-03
    -9.44711082e-03 1.84825665e-04 1.59732103e-02 -1.90094055e-03
    -4.20928048e-03 -3.47593240e-03 -3.19920271e-03 -1.93078024e-03
    -6.44320808e-03 -1.23571288e-02 7.69247860e-03 1.84940267e-02
    -6.94489013e-03 -4.66336636e-03 -6.29022345e-03 -4.80845943e-03
    -3.96620762e-03 -6.45079836e-03 -6.01403508e-03 1.15344226e-02
    1.80034060e-02 -1.35571905e-03 -6.18552603e-03 -4.85554105e-03
    -1.92532828e-03 -3.71492759e-04 -2.64776894e-03 -7.65349902e-03
    4.35438845e-03 1.21140350e-02 -5.50833670e-03 -2.74510426e-03
    -6.67664502e-03 -3.38689121e-03 -3.60678975e-03 -5.73846558e-03
    -8.03598389e-03 1.11085679e-02 1.20408842e-02 -3.21078580e-03
    2.05776421e-03 -1.78217050e-03 -3.24243633e-03 -3.77139146e-03
    -3.86339822e-03 1.06092729e-03 5.29694837e-03 9.79564805e-03
    -1.81021728e-03 -2.37772381e-03 -5.08203311e-03 -2.42885272e-03
    -2.92956620e-03 -4.61048400e-03 -6.18769648e-03 7.68249389e-03
    1.26230652e-02 -2.17896746e-03 3.08618904e-03 2.20625452e-03
    -5.02155488e-03 -9.42042656e-03 -9.45406873e-03 -4.02812380e-03
    1.14141786e-02 9.25877970e-03 -3.44808144e-03 -2.05811649e-03
    -2.37108534e-03 -3.84245859e-03 -2.73088878e-03 -3.69101856e-03
    -9.31390852e-04 1.08024878e-02 7.64322840e-03 -4.98967338e-03
    4.75379522e-04 -3.34909884e-04 -3.74145806e-03 -4.59415605e-03
    -1.14687940e-03 -6.10519201e-03 1.57582704e-02 1.68685652e-02
    -2.61699874e-03 -7.31845910e-04 -2.66005564e-03 -5.22038573e-03
    -8.99947248e-03 -7.27276783e-03 -1.54350442e-03 1.19058155e-02
    1.40747158e-02 -8.90406128e-03 -4.62047104e-03 -5.00651821e-03
    -3.34103522e-03 -7.03867804e-03 -5.22159040e-03 4.94358479e-04
    8.93058255e-03 1.33793950e-02 -1.29201030e-03 3.03508178e-03
    -2.76534003e-04 -1.15796656e-03 -3.95891664e-04 1.19016576e-03
    -7.68547645e-03 5.85545273e-03 4.54975944e-03 -8.80293734e-03
    1.37020194e-03 -6.40121708e-03 -9.93542490e-04 -4.98998212e-03
    -4.00635938e-04 -2.51556025e-03 1.39762694e-02 1.24663329e-02
    -6.19543297e-03 -1.42249314e-03 -4.12970083e-03 -8.45345843e-04
    -3.69217573e-03 -3.00109596e-03 -5.01455367e-03 9.09896009e-03
    3.81655805e-03 -1.37500977e-02 -1.75422791e-03 -5.73449535e-03
    -2.07694247e-03 -8.67441110e-03 -3.62555543e-03 -2.59476574e-03
    8.44033621e-03 6.87041553e-03 -7.56579777e-03 2.45318725e-03
    -1.07829762e-03 -1.76575268e-03 -5.99892996e-03 -2.67322431e-03
    -3.84675595e-03 2.61340407e-03 9.84271429e-03 -8.11977498e-03
    -1.42955652e-03 -2.97630648e-03 6.21856498e-06 -1.94079138e-03
    -2.44345004e-03 -9.27032158e-03 1.20098256e-02 5.36948722e-03
    -1.09837977e-02 9.91625362e-04 1.51319057e-03 8.57595762e-04
    -5.47231128e-03 -4.58611874e-03 -4.99963108e-03 9.98186599e-03
    1.43496674e-02 -6.65189046e-03 -9.86187370e-04 2.88530998e-03
    1.04388932e-03 -3.59545974e-03 -4.29973612e-03 -7.84468278e-03
    2.26885336e-03 9.54890344e-03 -3.08323069e-03 9.27821326e-04
    1.23331940e-03 2.71549751e-03 1.38841104e-03 -1.39546255e-03
    -4.62885108e-03 -4.79531847e-03 3.55348713e-03 -4.32832306e-03
    -1.58082182e-03 -3.24663543e-03 2.45113368e-03 1.60252338e-03
    9.64866485e-05 -5.02432743e-03 1.01795727e-02 1.54448934e-02
    -1.61219435e-03 -6.06807123e-04 1.62741728e-03 8.22645379e-04
    -7.33170775e-04 -9.36971337e-04 -4.58488241e-03 -2.39423150e-03
    6.35236036e-03 -6.80200174e-04 -8.52414221e-03 -8.63551442e-03
    -1.77004156e-04 6.14311022e-04 4.36368951e-04 -3.49411927e-03
    -1.18611199e-04 1.45514240e-03 1.77055458e-03 1.58604584e-03
    -1.77335867e-03 4.39680601e-03 4.09676880e-03 5.72449481e-03
    5.33080194e-03 -5.04677417e-03 -5.53781446e-03 3.39183235e-03
    -5.03693067e-04 -4.81908396e-03 3.53433797e-03 2.89526395e-03
    4.43519885e-03 4.08968516e-03 5.30633004e-03 1.00721568e-02
    7.00809574e-03 -1.56667875e-03 -8.00915156e-03 2.51326081e-03
    2.31757690e-03 2.51592929e-03 2.36181612e-03 -4.07474162e-03
    -3.03064613e-03 1.82137114e-03 -8.42456880e-04 -7.33740488e-03
    3.85925872e-03 -7.83877098e-04 1.01142819e-03 -2.51162710e-04
    -1.00787904e-03 -3.93142132e-03 7.67497718e-03 6.25356566e-03
    -4.18980344e-04 4.35660919e-03 1.98246329e-03 1.02748279e-03
    4.93728742e-03 -1.97807723e-03 -4.64722142e-03 5.72351622e-04
    1.67188351e-03 -5.73305821e-04 2.39605573e-03 -1.91018727e-04
    -2.46650307e-03 3.39937600e-04 -1.45736383e-03 -6.75817078e-04
    2.11029709e-03 4.69301222e-03 5.70642995e-04 8.03669635e-03
    3.80476681e-03 5.36825228e-03 5.92774712e-03 1.17811537e-03
    -3.42770992e-03 -3.54314991e-03 2.44345213e-03 4.73412080e-03
    3.43402917e-03 4.30597179e-03 6.37835218e-03 6.13901438e-03
    3.62541853e-03 4.13120445e-03 4.59866552e-03 4.85047669e-04
    -1.30797829e-03 5.59293956e-04 -2.53369892e-03 -2.88207899e-03
    1.63204374e-03 3.55280098e-03 8.66772234e-03 5.70909958e-03
    -4.99220984e-03 -4.42634057e-03 -2.15478288e-03 -3.53067322e-03
    -3.70453601e-03 1.29147421e-03 6.02846453e-03 8.14646017e-03
    6.39040628e-03 2.26172921e-03 2.13134685e-03 -3.77094344e-04
    -2.56834202e-03 2.78561027e-03 6.05034130e-03 2.60033389e-03
    1.20507432e-02 7.86734559e-03 -4.18929197e-03 -6.64697774e-03
    -6.13979762e-03 -3.40471510e-03 1.72318332e-03 1.99218350e-03
    1.44368876e-03 4.92238626e-03 4.34622634e-03 -4.13737912e-03
    -5.47764916e-03 2.46466370e-04 1.75826962e-03 1.21227109e-04
    3.81503138e-04 1.54387043e-03 8.76438525e-03 -6.59463368e-03
    -7.39566097e-03 -4.77846339e-03 5.40239410e-03 5.01189800e-03
    2.85255304e-03 -1.46295910e-03 2.67256546e-04 1.12848599e-02
    1.10436687e-02 -3.10063525e-03 -7.90924113e-03 -3.53995361e-03
    1.08925183e-03 4.03581746e-03 1.21268677e-03 -1.47244125e-03
    7.46834930e-03 -1.76598737e-03 -1.49381711e-04 -6.22242875e-03
    3.25657427e-03 3.69021855e-03 6.45262282e-03 -3.58035415e-03
    -5.32851927e-03 8.80269986e-03 -5.81550598e-03 -3.61819123e-03
    4.48897295e-03 6.82874722e-03 7.89799262e-03 5.31773875e-03
    -2.57080398e-03 -7.60726770e-03 5.92134334e-03 1.95591128e-03
    2.21957685e-04 -3.91738582e-03 6.28363760e-03 6.70284824e-03
    5.37861092e-03 -4.97154333e-03 -9.99121275e-03 4.30832943e-03
    7.93372514e-04 2.84710107e-03 1.16592068e-02 1.09977052e-02
    8.54643155e-03 6.41746121e-03 -6.10070396e-03 -1.10692745e-02
    4.70695691e-03 1.18999993e-02 5.41110290e-03 6.34524459e-03
    7.56299542e-03 7.90733751e-03 3.84959090e-03 -8.91486369e-03
    -2.85770535e-03 8.87780543e-03 7.54223205e-03 4.81590535e-03
    -2.17518210e-03 4.16624732e-03 4.09063371e-03 1.19004247e-03
    -4.86061769e-03 -4.06216452e-04 5.94009878e-03 2.55483843e-04
    5.47772599e-03 -1.75519357e-03 -1.21563172e-03 -3.19697720e-04
    -7.17491889e-03 -8.74947943e-03 -5.61572239e-03 -9.30719601e-04
    5.28258365e-03 4.45304997e-03 6.53788541e-03 4.98368917e-03
    6.97230268e-03 2.04596203e-03 -6.63097436e-03 -9.33969766e-03
    -2.35375739e-03 6.02725754e-03 1.17515158e-02 4.36833734e-03
    -1.21513719e-03 4.21909336e-03 -1.97529816e-03 -1.12375841e-02
    1.16257532e-03 7.50230299e-03 3.34286247e-03 6.63908105e-03
    1.13334495e-03 -5.35346055e-03 1.00438786e-03 -2.41420674e-03
    -5.89535665e-03 -5.15991263e-03 7.83573743e-03 1.21921152e-02
    4.74748621e-03 1.61152857e-04 -6.53580297e-03 -2.17165565e-03
    -3.55353625e-03 -8.43578391e-03 -9.39429086e-03 5.31718601e-03
    1.42298248e-02 9.34842322e-03 3.64032225e-03 -4.24169842e-03
    4.87909466e-03 2.78739003e-03 -9.50364023e-03 -1.18028279e-02
    7.17877178e-03 1.68242250e-02 4.41558799e-03 2.74768239e-03
    -3.65606230e-03 3.80891887e-03 9.23999120e-04 -1.36356084e-02
    -3.72244325e-03 8.69241916e-03 1.05676064e-02 3.68500547e-03
    -2.36957869e-03 -8.71926732e-03 -5.59161883e-03 -3.71934357e-03
    -7.19950208e-03 -1.70384848e-03 1.00607555e-02 1.27746174e-02
    2.64323037e-03 -4.06645518e-03 -7.24012777e-03 -1.07302889e-02
    -1.26226731e-02 -1.04186954e-02 -1.03004929e-02 -5.87522445e-05
    1.43769337e-02 6.21464755e-03 -1.43187097e-03 -3.23948008e-03
    1.95104699e-03 2.68256757e-03 -6.01602439e-03 -2.28227675e-03
    3.11206328e-03 1.69760231e-02 6.72968058e-03 -7.49493018e-03
    -6.56482950e-03 -4.16900031e-03 -3.06015555e-03 -4.96332906e-03
    5.93136763e-03 2.91628763e-03 -7.41877302e-04 5.74163627e-04
    -2.25356896e-03 -3.68067320e-03 -8.33585951e-03 -9.15345829e-03
    -3.66762304e-03 7.14762649e-03 1.25576947e-02 -2.80153914e-03
    -4.64950595e-03 -8.41605384e-03 -9.03571583e-03 -1.13617107e-02
    -9.94695164e-03 -9.61109623e-03 1.37396296e-02 1.01381280e-02
    1.87288306e-03 -5.73148485e-03 -8.71038344e-03 -2.79817777e-03
    -9.32208821e-03 -7.97929894e-03 2.16791616e-03 6.30837167e-03
    1.12434803e-02 -2.68202065e-03 -8.18533916e-03 -9.88543686e-03
    -6.69819955e-03 -1.10613862e-02 -1.12671042e-02 -2.64524203e-03
    3.30913672e-03 1.72459334e-02 4.02581412e-04 -1.88840693e-03
    -3.36772460e-03 -4.31180792e-03 -4.71263845e-03 -8.55186302e-03
    -1.52968196e-02 3.17345792e-03 1.38984118e-02 -3.85176530e-03
    -6.12740126e-03 -2.98880599e-03 5.69516851e-04 -1.72105356e-04
    -3.68505693e-03 -1.46063184e-02 3.88398860e-03 1.25777693e-02
    -2.79602455e-03 -3.84152168e-03 -3.22004384e-03 -3.51988827e-03
    -4.35450254e-03 -8.35478399e-03 -1.07337954e-02 -4.70050145e-03
    6.74305903e-03 -5.23093808e-03 -1.25506334e-03 6.26592385e-03
    1.22261548e-03 -2.07839257e-04 -2.41372874e-03 -1.02307750e-02
    8.28017201e-03 7.68669415e-03 -4.21895506e-03 -3.93230328e-03
    -6.13234006e-03 -9.93763329e-04 -1.76984235e-03 -6.66682492e-04
    -5.00321109e-03 8.20269249e-03 1.13367559e-02 -4.24438994e-03
    1.05430093e-03 -2.18848931e-03 -4.05857852e-03 -7.70868873e-03
    -6.27468014e-03 -6.63730956e-04 5.77209005e-03 9.76340938e-03
    -6.76409714e-03 -8.45777569e-04 -4.31216741e-03 -1.27163355e-03
    -4.08867421e-03 -2.38624960e-03 -4.38795611e-03 1.01295719e-02
    1.94626686e-03 -6.34903461e-03 -2.95387371e-03 -7.87296891e-03
    -3.70590133e-03 -1.42909330e-03 -2.58238590e-03 4.65334207e-03
    1.52771156e-02 1.26327984e-02 -2.04079528e-03 1.87937217e-03
    -2.37795152e-03 -3.59410956e-03 -7.40503101e-03 -6.08053990e-03
    5.53883554e-04 1.92310009e-02 1.14907213e-02 -5.71821164e-03
    -2.38376646e-03 -5.81424637e-03 -2.57087010e-03 -5.80748310e-03
    -6.34848280e-03 5.48817683e-04 1.38086872e-02 4.89003723e-03
    -3.68695054e-03 -8.75439844e-04 -8.81998427e-03 2.68948934e-04
    1.05578592e-03 -3.18674115e-03 -3.97327589e-04 1.47958333e-02
    7.92567711e-03 -8.66353232e-03 -3.48325213e-03 -9.61928908e-03
    -1.86514706e-04 -1.66943262e-03 -1.50242588e-03 1.73022738e-04
    2.02109776e-02 5.38013037e-03 -2.80422741e-03 -9.44014464e-04
    -8.59602238e-04 -5.00748865e-04 -2.42544478e-03 -3.28454142e-03
    -1.84577680e-03 1.17787961e-02 4.47209645e-03 -1.29391793e-02
    -3.82532133e-03 -1.64769602e-03 -6.32210460e-04 -5.90049569e-03
    -4.63450979e-03 -3.44508234e-03 1.67367496e-02 1.03014326e-02
    -6.61930023e-03 -3.50550073e-03 -1.61370437e-03 2.61633744e-04
    1.58126128e-03 -1.19083375e-03 -4.28737374e-03 1.07014682e-02
    1.39480885e-02 -4.72176587e-03 -5.03262505e-03 -1.90621673e-03
    -2.10016718e-04 -6.40425365e-03 -4.82096616e-03 -8.88285507e-03
    8.00907798e-03 1.13095287e-02 -5.02086012e-03 2.30260612e-03
    3.21662123e-03 9.15516517e-04 -3.49245430e-03 -7.21569266e-03
    -6.06390322e-03 4.21066396e-03 1.14741810e-02 -7.45686376e-03
    -2.55037774e-03 5.58090536e-03 2.16051773e-03 -5.76803111e-04
    -5.54243661e-03 -7.62534142e-03 6.44059898e-03 1.38268657e-02
    -3.51473369e-04 1.02583773e-03 3.16197961e-03 1.54202199e-03
    -6.42366055e-03 -7.79954856e-03 -9.76925995e-03 -2.82677938e-04
    1.31082581e-03 -5.79436263e-03 -4.74978518e-03 2.32304400e-03
    2.05776771e-03 -4.29192977e-03 -2.50250706e-03 -7.19684921e-03
    5.56216110e-03 1.15713021e-02 -4.04419057e-04 -4.17169603e-03
    5.73861832e-03 2.60737352e-03 6.78523909e-04 -1.19948015e-03
    -1.64435280e-03 9.83646714e-06 6.67449553e-03 -3.03501170e-03
    -9.94787179e-03 -4.28343844e-03 -1.56570715e-03 -6.38611556e-04
    -6.54083851e-05 -2.43446673e-03 3.04682064e-03 1.07653311e-03
    -4.85584652e-03 -5.58451982e-03 3.04478593e-03 1.86064746e-03
    -1.96786341e-03 2.86987331e-03 1.55437179e-03 -1.88652240e-03
    -3.06850835e-03 -9.16910172e-03 -1.38469795e-02 -4.60750563e-03
    -1.19554368e-03 -1.87940628e-03 2.19356664e-03 1.90046942e-03
    7.01204501e-03 1.32241882e-02 6.60233479e-03 -3.01693706e-03
    -5.19620813e-03 1.32402417e-03 1.82846340e-03 2.54693581e-03
    2.14005262e-03 -2.24759337e-03 2.75759446e-03 1.86141650e-03
    -2.82936380e-03 -5.22333384e-03 1.69897708e-03 -5.70796838e-04
    -7.22083496e-04 -5.38720144e-03 -9.09633876e-04 7.66626233e-03
    6.19640108e-03 -3.98654211e-03 -1.56468514e-03 -1.77673486e-04
    6.17832935e-04 1.40485435e-03 2.25161668e-03 -2.72283331e-03
    6.32312289e-03 1.04479846e-02 -4.77646943e-03 -4.63439617e-03
    -2.82038306e-03 2.67518499e-05 -1.79843209e-03 -4.15249914e-03
    -3.58944479e-03 -4.55228984e-03 1.28272665e-03 4.82221309e-04
    -1.96504360e-03 3.17221647e-03 1.52479799e-03 1.08146504e-03
    3.14696401e-04 1.95456808e-03 -1.27642590e-04 2.46730546e-04
    2.88317888e-03 2.60416302e-03 2.77578039e-03 3.32286512e-03
    4.88836318e-03 4.92391689e-03 6.61720580e-04 9.68667027e-03
    7.43447198e-03 -2.88288528e-03 -8.15477408e-03 -2.61380523e-03
    1.36788673e-04 3.36665660e-04 -3.25399730e-03 2.57031014e-03
    2.38899514e-03 4.08508303e-03 3.87122855e-03 3.38554359e-03
    -3.39417718e-04 9.73454036e-04 9.91585199e-04 -8.75840371e-04
    3.66640324e-03 5.44330571e-03 2.95033166e-03 2.12250790e-03
    -3.00540542e-03 -3.12717108e-04 2.47892283e-04 3.88430082e-03
    3.19401361e-03 1.56417000e-03 7.22352508e-03 6.12305198e-03
    -6.43765926e-03 -1.13645075e-02 -4.47645783e-03 -4.25914675e-03
    -1.61293545e-03 -1.86505273e-03 -3.06990650e-03 -5.70769247e-04
    7.33387331e-03 4.78389999e-03 -4.18146374e-03 9.05052701e-04
    2.97763385e-03 4.78483766e-04 1.14623981e-03 -6.32356480e-03
    4.02255310e-03 7.55488593e-03 5.86825830e-04 -3.37815587e-03
    -1.53979534e-04 4.66094294e-04 -3.52591916e-04 -3.19926371e-03
    -3.52110667e-03 7.05539668e-03 7.21303234e-03 -4.08836314e-03
    -1.15246205e-02 -4.43386193e-03 -1.67696807e-03 2.46064068e-04
    -3.05718626e-03 -6.73905155e-03 3.69037571e-03 -5.69648517e-04
    -1.31256098e-03 -2.18670047e-03 3.35141295e-03 2.68143113e-03
    3.21220863e-03 -4.96184640e-03 -4.05048439e-03 6.21267036e-03
    5.86057641e-03 -2.18518404e-03 -2.29059462e-03 -1.30899402e-03
    -1.52122206e-03 3.11947078e-03 -2.12817453e-03 -8.79260153e-03
    5.28166676e-03 1.41425533e-02 1.02526890e-02 7.32895127e-03
    4.95817279e-03 5.95733151e-03 2.48389994e-03 -9.29428451e-03
    -1.02066780e-02 1.76449551e-03 3.52123566e-03 2.88980501e-03
    9.53474734e-03 9.29884333e-03 6.32019108e-03 3.17137409e-03
    -5.94739383e-03 -1.49052972e-02 1.26731838e-03 1.00683896e-02
    3.71596660e-03 -3.70823801e-03 3.00905341e-03 1.73301389e-03
    -2.06557033e-03 -8.75120144e-03 -1.23400362e-02 1.83745578e-03
    1.05848666e-02 8.20197538e-03 1.42873973e-02 6.13510795e-03
    5.65903122e-03 3.36059486e-03 -7.35748280e-03 -1.54737243e-02
    -4.14182572e-03 9.37992334e-03 8.34541954e-03 1.69428787e-03
    1.89064466e-03 4.49409289e-03 2.46996200e-03 -6.91860961e-03
    -1.07041551e-02 4.61823959e-03 1.17196077e-02 5.65852644e-03
    -4.72595320e-06 8.30055389e-04 1.73625280e-03 -4.58339695e-04
    -5.49499597e-03 -1.40328668e-02 2.28081411e-03 1.19210398e-02
    7.35794334e-03 -2.94107804e-03 -3.46418447e-03 3.36229568e-04
    -1.11373642e-03 -9.82247852e-03 -1.13376817e-02 7.01934390e-04
    1.48607511e-02 6.20259019e-03 -4.51948214e-03 6.67777902e-04
    7.38547510e-03 8.90456513e-03 1.67039456e-03 -1.32114701e-02
    -2.11460196e-04 1.39083061e-02 3.30204581e-04 -7.18354667e-03
    -2.68953852e-03 5.15843881e-03 5.92119899e-03 -2.55344925e-03
    -7.80308107e-03 3.82905523e-03 1.52067849e-02 4.02910495e-03
    -3.03909229e-03 -5.09993313e-03 3.63224698e-03 1.74685125e-03
    -4.70142718e-03 -8.05268250e-03 1.96918932e-04 1.52986422e-02
    4.91398899e-03 -5.82549302e-03 -6.81057945e-03 3.62216774e-03
    -7.39432930e-04 -6.26330776e-03 -4.58683912e-03 -3.68143152e-03
    1.32872285e-02 4.54644067e-03 9.25881963e-04 -4.02873149e-03
    2.43617035e-03 3.95821780e-03 9.42876854e-04 -6.30871719e-03
    4.61065094e-04 8.88773613e-03 6.02526730e-03 -2.04046300e-04
    -9.40146763e-03 3.25061032e-04 -2.66628363e-03 -5.05458098e-03
    -6.15537912e-03 3.07472958e-03 1.31761590e-02 5.58884209e-03
    -3.40026175e-03 -4.63235890e-03 5.10435086e-03 1.94239244e-03
    -2.58947467e-03 -4.21068020e-04 7.87772238e-03 8.88539478e-03
    -5.85378788e-04 -7.08792917e-03 -4.91916249e-03 -1.14511902e-04
    2.26688897e-03 1.84633501e-03 -3.80829116e-03 8.60217493e-03
    1.06795495e-02 3.27507127e-03 -2.04251148e-03 -7.29790796e-03
    3.03024752e-03 -5.48364769e-04 -2.46969424e-03 -4.31340799e-04
    7.34550506e-03 7.21641816e-03 -7.44860992e-03 -2.14902521e-03
    -6.43899431e-03 5.04419557e-04 2.20323401e-03 -1.62778015e-03
    1.12712253e-02 1.13071287e-02 5.35009522e-03 -6.09788345e-03
    -7.43581401e-03 -2.43509538e-03 -5.08504128e-03 -4.01669228e-03
    1.33686489e-03 4.63517895e-03 8.25760327e-03 -2.63555301e-03
    -4.92938934e-03 -3.02386680e-03 -2.76082684e-03 -6.13019336e-03
    -8.43456108e-03 -6.34358637e-03 -5.75154147e-04 2.97013880e-03
    -4.04919265e-03 -5.48541639e-03 -8.52052029e-03 -3.59836733e-03
    -4.10137977e-03 -2.12633540e-03 -3.41014517e-03 -1.64945028e-03
    1.00124336e-03 -7.65811233e-03 -9.74933617e-04 -3.77889280e-03
    -2.40760110e-03 -5.60033089e-03 -6.00704271e-03 -1.15287276e-02
    2.56832852e-03 4.60835500e-03 2.22187664e-05 2.12206761e-03
    1.26579152e-02 -1.54712063e-03 -3.73376301e-03 -5.53314807e-03
    -9.09488928e-03 -4.84092813e-03 6.38241461e-03 -6.29883842e-04
    7.21440744e-03 8.79401155e-03 1.96417072e-03 -3.46998964e-03
    -4.16836422e-03 -1.18372729e-02 2.79757107e-04 1.51065888e-03
    -5.23673650e-03 5.53281652e-03 5.48692280e-03 -8.50452459e-04
    -4.29407693e-03 -5.58088068e-03 -1.30682029e-02 -8.76937155e-03
    -3.15535488e-03 -5.09583578e-03 1.09641720e-02 6.51289010e-03
    1.18391537e-04 -4.66581248e-03 -2.96018529e-03 -1.16541293e-02
    5.21465996e-03 1.06774140e-02 3.63770174e-03 6.93926401e-03
    5.49157755e-03 7.66915677e-04 -1.98378484e-03 -2.86852941e-03
    -4.77739191e-03 7.09662819e-03 4.00658371e-03 5.33894694e-04
    2.00631237e-03 2.57015228e-03 2.66983104e-03 2.91862153e-03
    3.66638647e-04 1.99505128e-03 -1.89709279e-03 -1.45547569e-03
    -2.58604763e-03 7.74431229e-03 2.38874019e-03 -1.58624898e-03
    -3.42486985e-03 -6.56007091e-04 -3.41123040e-03 2.82306643e-03
    2.78945407e-03 -1.16219383e-03 5.45184640e-03 1.28883554e-03
    -2.69395707e-04 8.66742048e-04 1.76697271e-03 -9.80265322e-04
    6.62656082e-03 5.30960690e-03 -2.01774132e-03 8.95935576e-04
    -1.94002129e-03 3.58969998e-03 2.50762771e-03 -3.20271077e-03
    -3.65671329e-03 1.36702852e-02 1.15454374e-02 -2.62940861e-03
    -5.85625588e-04 -4.83511761e-03 2.36799079e-03 -6.57149707e-04
    -2.54144939e-03 -5.11420425e-03 2.90208240e-03 8.52148607e-03
    2.73183640e-03 5.76724112e-03 -5.51447645e-03 4.92632098e-04
    2.21621781e-03 -1.33080618e-03 -6.52205339e-03 2.96161068e-03
    9.78610106e-03 8.56576767e-03 3.38951242e-03 -9.14376322e-03
    -1.09197386e-03 -2.46860262e-04 -6.19043550e-03 -9.46148578e-03
    1.63504835e-02 1.26014790e-02 -4.84843564e-04 -1.72105967e-03
    -3.55950301e-03 1.71189022e-03 -9.32257099e-04 -5.72757935e-03
    -8.09236709e-03 1.54492874e-02 2.00770013e-02 -1.89218391e-03
    -4.49576601e-03 -3.37078632e-03 7.24717742e-04 -7.68590206e-03
    -9.03352723e-03 -9.31476522e-03 3.44134332e-03 1.09025789e-02
    6.27972884e-03 1.77297939e-03 -4.58515668e-03 1.57700898e-03
    -2.12339265e-03 -1.11156311e-02 -1.21906186e-02 -1.87730824e-03
    8.30749143e-03 1.64772652e-03 -7.57045811e-04 -5.18185843e-04
    1.17381744e-03 -4.05148556e-03 -1.22198518e-02 -1.48661556e-02
    1.45587008e-02 1.95337813e-02 1.98096945e-03 -1.39549095e-03
    1.28082509e-04 1.41861936e-04 -7.26722553e-03 -6.80570398e-03
    -6.47742441e-03 1.78336957e-03 5.23600122e-03 -5.58383064e-03
    -6.37505343e-03 -1.61874481e-03 1.38238131e-03 -6.76660333e-03
    -4.07393782e-05 -2.16781348e-03 1.30624115e-03 5.65324770e-03
    -1.37871492e-03 -8.25849711e-04 1.34263968e-03 2.21196024e-04
    9.75115458e-04 -5.20159164e-03 -9.16573033e-03 -4.14135959e-03
    3.17012379e-03 -1.02023194e-02 -8.56671482e-03 -4.62064613e-03
    2.19548889e-03 -7.40099989e-04 -6.02822925e-04 -7.79212965e-03
    -2.68784165e-03 3.39273084e-03 -3.24115879e-03 -3.50260013e-03
    1.46597263e-03 8.43335758e-04 -3.34235164e-03 5.66247897e-03
    1.85478386e-03 -2.62962445e-03 1.19523390e-03 -4.95736022e-03
    -7.42979208e-03 -1.45303237e-03 -2.14780425e-03 -1.73986657e-03
    1.26830640e-03 1.41383382e-03 1.74873194e-03 1.32782441e-02
    -5.72419539e-03 -4.55524353e-03 2.37718504e-03 2.77856109e-03
    -9.24348191e-04 2.96977977e-03 -4.46792087e-03 2.80000339e-03
    1.64866087e-03 -5.86486096e-03 -7.56906206e-03 -1.78026489e-03
    -2.25064252e-03 -3.15828039e-03 -3.10268975e-03 -4.69796732e-03
    7.47630198e-04 1.05459383e-02 7.21719069e-03 -3.79086775e-03
    -5.20720007e-03 -2.16544233e-03 -1.20322872e-03 -1.31580117e-03
    -4.49514395e-04 1.87741569e-03 1.15622012e-02 5.75363822e-03
    -9.30870231e-03 -1.04927821e-02 -3.32816015e-03 1.16211723e-03
    5.08420984e-04 -7.69264181e-04 6.98463805e-03 5.23071503e-03
    2.35103653e-04 -6.23602606e-03 -3.06487083e-03 -1.19993032e-03
    -2.84017017e-03 -3.43083451e-03 1.03597253e-04 5.77088399e-03
    4.09151224e-04 -2.61361175e-03 -8.87430273e-03 -7.04618311e-03
    -3.24904639e-03 1.15495326e-03 4.07142332e-03 3.12693813e-03
    2.37697945e-03 1.20748254e-02 1.52666797e-03 -8.27865396e-03
    -1.13176452e-02 -1.83753879e-03 6.65967353e-04 2.33762688e-03
    -1.91963557e-03 -2.61536334e-03 2.32142792e-03 -2.41910946e-03
    1.75266631e-03 4.24944051e-03 -4.08152235e-04 1.61520403e-03
    2.62422417e-03 -4.42877132e-03 6.80063525e-03 5.70568256e-03
    -3.02175642e-03 -5.81405684e-03 -9.63745080e-03 -2.75253039e-03
    1.65137067e-03 8.84016231e-03 3.75440437e-03 -3.22572002e-03
    -1.64266070e-03 -1.44888309e-03 5.92672732e-03 3.29721649e-03
    1.10745966e-03 2.56571639e-03 5.15472749e-03 4.12452640e-03
    -4.52738581e-03 6.37017656e-04 -1.72886497e-03 7.32908898e-04
    -6.33589178e-03 -4.02124017e-04 8.45323739e-05 1.93387968e-04
    -2.17034874e-04 -6.83412701e-03 2.46493262e-03 6.11470139e-04
    -1.66901213e-03 -1.00706015e-02 -1.00258400e-03 5.72127581e-04
    3.43167433e-03 -2.51232850e-04 -6.45243190e-03 1.06790499e-03
    2.16963250e-04 -7.01937650e-04 -3.50409560e-03 1.29351579e-03
    1.84182660e-03 1.26530672e-03 1.91997993e-03 -4.58665891e-03
    6.06787158e-03 7.15849921e-03 -6.42773288e-04 -4.40071570e-03
    1.22125342e-03 2.86566617e-04 3.28430696e-03 1.66242442e-03
    -1.10594416e-02 -1.49823632e-03 -1.16037381e-05 -2.16093753e-03
    -5.08955726e-03 -6.26438996e-04 5.61169523e-04 3.17035033e-03
    -4.33139689e-03 -1.54725341e-02 -3.61046172e-03 7.54302414e-03
    6.46087062e-03 2.02450086e-03 2.28235964e-03 -2.09079619e-04
    2.14321248e-04 -1.11037595e-02 -9.51864757e-03 -1.06017035e-03
    6.73376210e-03 7.59175513e-04 -3.64628597e-03 4.23509441e-03
    3.38657573e-03 2.45079841e-03 -4.48065781e-04 -1.19142728e-02
    -2.68290960e-03 8.88665859e-03 1.11442413e-02 -6.20923936e-04
    2.32951413e-03 -4.26388491e-04 -9.82649624e-04 -7.10135838e-03
    -1.53758163e-02 -1.07275590e-03 8.02014675e-03 6.99291937e-03
    9.63077694e-03 1.14747568e-03 -1.98967033e-03 7.36958173e-04
    -1.07273897e-02 -1.68039314e-02 -7.08579225e-03 7.13284174e-03
    3.69365071e-03 -8.62115342e-03 -1.17868534e-03 5.95088350e-04
    2.07152707e-03 -9.41755250e-03 -7.84118753e-03 -1.83975464e-03
    1.38117205e-02 8.42030160e-03 -1.30968587e-03 -2.75914953e-03
    -2.93286913e-03 -8.93346441e-04 -2.39198399e-03 -1.01298159e-02
    -5.42816008e-03 1.00458162e-02 3.93389817e-03 -1.41251963e-02
    -5.27890073e-03 -2.14403053e-03 1.61513605e-03 -2.35770247e-03
    -1.09578883e-02 -3.94782191e-03 9.39795189e-03 1.62485917e-03
    -1.24039603e-02 -1.48345251e-04 7.20063644e-03 8.68404284e-03
    7.88543897e-04 -1.05716642e-02 -6.38020737e-03 7.59594049e-03
    -3.99462366e-03 -9.19061434e-03 1.15887757e-04 5.96883986e-03
    6.30117347e-03 3.99937067e-04 -4.37305821e-03 -3.54734901e-03
    1.04018431e-02 3.24113038e-03 -7.70980818e-03 -2.03691493e-03
    4.32167482e-03 5.82889933e-03 6.19102269e-03 -9.49007832e-03
    -5.54924691e-03 2.10930448e-04 -2.63440213e-03 -4.36303439e-03
    -1.91344167e-04 6.48368942e-03 3.44306231e-03 1.66993006e-03
    -6.48518698e-03 -5.24553237e-03 6.25433493e-03 -3.26233474e-03
    3.05767288e-03 -2.48974119e-03 3.15124542e-03 5.04361233e-03
    2.10613711e-03 -7.75432587e-03 -2.03098054e-03 6.78286189e-03
    -4.36078152e-03 -4.35916334e-03 -8.39734171e-03 1.13939820e-03
    -5.03431656e-04 -3.06974212e-03 -4.84193629e-03 -5.24515519e-03
    6.57737115e-03 -4.62907320e-03 2.53055873e-03 5.08212310e-04
    1.19057046e-02 8.53466615e-03 5.37552638e-03 -1.08626476e-02
    -3.22083710e-03 7.01973494e-03 -4.33491450e-03 -8.97634961e-03
    -7.46608479e-03 7.27272313e-03 7.17068277e-03 2.78362364e-04
    -6.29269611e-03 1.73217349e-03 5.60336467e-03 -1.43493023e-02
    -9.22229234e-03 -6.32035546e-03 1.76366454e-03 -7.85999757e-04
    -3.10396915e-03 -3.30394180e-03 7.00098975e-03 7.26676732e-03
    -1.78488195e-02 -1.07510136e-02 -7.21741142e-03 1.62887259e-03
    8.57488776e-04 -2.76609766e-03 -8.60000961e-03 1.22822693e-03
    1.76901165e-02 -9.97112226e-03 -1.33671155e-02 -6.42960845e-03
    7.71033065e-03 7.44737126e-03 2.42805318e-03 -9.08717047e-03
    5.69537980e-03 2.62320712e-02 -5.71479369e-03 -7.60826003e-03
    -1.69921457e-03 5.35352947e-03 1.12423615e-03 -1.56743440e-03
    5.22028748e-03 -2.43990589e-03 -2.81645008e-03 2.38303700e-03
    2.38010543e-03 4.04984574e-04 -2.07737181e-03 -8.19766195e-04
    7.27974391e-03 -2.87870334e-05 1.18706761e-04 -7.93085806e-03
    4.39765071e-03 -9.22618725e-04 -1.02144573e-03 -5.20053133e-03
    -4.93108761e-03 -5.34605002e-03 1.30030990e-03 -2.64918967e-03
    -1.12012327e-02 -6.45961845e-04 2.90828827e-03 -1.50632125e-03
    -5.61218336e-03 -5.77098876e-03 -3.88013595e-03 -4.49859863e-03
    -1.14713341e-03 -1.07669588e-02 -1.77039509e-03 -5.32115286e-04
    -5.32028440e-04 -8.27821251e-03 -7.83406198e-03 -6.67327363e-03
    3.90315749e-04 -1.32827193e-03 -1.08207455e-02 4.98109497e-03
    4.98995604e-03 -6.20211300e-04 -2.34558200e-03 -2.26731831e-03
    -5.90201421e-03 -2.72513949e-03 -9.21311497e-04 -1.00725750e-02
    8.42771120e-03 3.13972379e-03 -1.69431255e-03 -3.45508545e-03
    -2.78340490e-03 -6.29966194e-03 -2.24535191e-03 5.03800856e-03
    -7.35676894e-03 2.25817668e-04 -3.07314470e-03 -7.75432854e-04
    -6.95562270e-03 -2.99566844e-03 -6.62568910e-03 -4.44668438e-03
    1.05982963e-02 -3.27514834e-03 5.73489256e-03 -7.14992522e-04
    -3.90804652e-03 -7.68440310e-03 -1.19097915e-03 -7.08288839e-03
    -1.41072867e-03 -1.09642465e-03 -6.99216500e-03 7.10067712e-03
    -1.90102356e-03 -2.61618919e-03 -2.56033824e-03 -1.78533664e-04
