<?xml version="1.0"?>
<opencv_storage>
<my_detector_4 type_id="opencv-object-detector-hog">
  <winSize>
    64 64</winSize>
  <blockSize>
    16 16</blockSize>
  <blockStride>
    8 8</blockStride>
  <cellSize>
    8 8</cellSize>
  <nbins>9</nbins>
  <derivAperture>1</derivAperture>
  <winSigma>4.</winSigma>
  <histogramNormType>0</histogramNormType>
  <L2HysThreshold>2.0000000000000001e-01</L2HysThreshold>
  <gammaCorrection>1</gammaCorrection>
  <nlevels>64</nlevels>
  <signedGradient>0</signedGradient>
  <SVMDetector>
    5.84982708e-02 1.75692923e-02 -3.51731405e-02 -2.05041785e-02
    -2.65519284e-02 -2.04290226e-02 -3.01532038e-02 -2.11259834e-02
    2.15727780e-02 4.23918068e-02 6.25879737e-03 -3.30007002e-02
    -1.43290106e-02 -2.86084991e-02 -1.79196727e-02 -2.24279966e-02
    -2.12206468e-02 1.12485969e-02 4.45372574e-02 1.09414691e-02
    -4.32172753e-02 -3.05066779e-02 -2.09335722e-02 -1.66280065e-02
    -2.37667467e-02 -1.24057271e-02 1.82236433e-02 3.53171714e-02
    4.90010716e-03 -4.12638113e-02 -2.22165771e-02 -3.15565765e-02
    -1.27151860e-02 -1.96425840e-02 -1.91957001e-02 1.53050171e-02
    3.30681242e-02 -3.72310448e-03 -1.34522291e-02 -7.48700928e-03
    -1.46444794e-02 -2.23055948e-03 6.80631201e-04 -1.81275443e-03
    1.09640956e-02 9.82679054e-03 -7.55117368e-03 -1.36930505e-02
    -8.93203169e-03 -2.36137267e-02 -2.37283227e-03 -1.91941625e-03
    1.07625755e-03 3.32846912e-03 2.05623582e-02 1.08123932e-03
    -2.35606655e-02 -9.45202261e-03 -2.34977063e-02 -1.55206479e-04
    -7.85373675e-04 -7.36356992e-03 9.87615436e-03 -4.99479007e-03
    -1.13308979e-02 -1.82491057e-02 -1.32545019e-02 -3.02913375e-02
    -8.32553301e-03 -7.23607512e-03 -7.53325131e-03 -8.15811753e-03
    2.55407374e-02 7.30703538e-03 -1.21443328e-02 -7.98201934e-03
    -1.05308397e-02 7.25747319e-04 1.18189743e-02 2.01025102e-02
    1.86762288e-02 1.75501108e-02 4.88888193e-03 -1.41319744e-02
    -2.79536340e-02 -3.27262357e-02 -5.37950965e-03 6.24222355e-03
    3.48804821e-03 1.11845916e-03 7.61767849e-03 7.51098618e-03
    1.07422192e-02 3.25064431e-03 -4.96784784e-03 4.56863409e-03
    7.57540530e-03 1.00069279e-02 4.35473211e-03 1.15200900e-03
    -9.04721150e-04 2.39450508e-03 -7.18632992e-03 -2.21888851e-02
    -6.60729362e-04 2.40987007e-04 -6.64168876e-03 -1.60988122e-02
    1.37363933e-02 1.44811375e-02 1.64916907e-02 -1.39539978e-02
    -1.25178015e-02 -2.74652825e-03 5.62525261e-03 2.85034697e-03
    4.92617162e-03 -1.14964310e-03 5.29413112e-03 2.10668985e-02
    3.15749529e-03 -3.14243115e-03 -3.93203553e-03 2.01739511e-03
    -7.13176792e-03 -6.22801762e-03 7.94385374e-03 1.23257795e-02
    3.53335254e-02 9.38340928e-03 -1.53536361e-03 2.58382736e-03
    1.20159024e-02 3.15936422e-03 -6.20276527e-03 -1.46453129e-02
    1.26981921e-02 1.94145441e-02 1.88171081e-02 4.80956817e-03
    -4.50055348e-03 4.12422512e-03 -8.61183461e-03 -1.53558319e-02
    1.01427059e-03 1.60494465e-02 2.43968312e-02 1.43354563e-02
    5.34378039e-03 -3.53183318e-03 -5.52819716e-03 -9.38227028e-03
    -2.39040311e-02 -1.35652358e-02 2.27114968e-02 2.95823645e-02
    1.77758839e-02 -3.98705574e-03 -1.07259827e-03 -4.65402100e-03
    -1.71866398e-02 -2.95211244e-02 -4.41818312e-03 1.71878245e-02
    1.89771522e-02 1.43121462e-02 8.67227092e-03 1.36064729e-04
    -5.01171639e-03 -1.43247750e-02 -2.35428605e-02 -2.20173001e-02
    2.64718104e-03 1.71182901e-02 5.43869799e-03 -1.03854863e-02
    -2.47706333e-03 -5.08036418e-03 -2.04036217e-02 -3.51451188e-02
    -1.25612144e-03 2.29011644e-02 1.76038388e-02 6.48851600e-03
    -6.73021423e-03 -2.24149833e-03 -1.07306882e-03 -4.62368922e-03
    -1.19716823e-02 5.11566689e-03 2.51041446e-02 1.92529671e-02
    -1.20084267e-03 -1.37492167e-02 -1.58464648e-02 -1.56590957e-02
    -1.49416430e-02 -1.70650389e-02 -1.24107888e-02 1.20887123e-02
    2.00724285e-02 2.89821858e-03 -1.42052500e-02 -7.44061545e-03
    -3.99265578e-03 -1.10398885e-02 -2.28429977e-02 -4.42696828e-03
    2.07113530e-02 2.66669467e-02 8.38341564e-03 -1.98405925e-02
    -2.44393051e-02 -1.94704197e-02 -1.35444310e-02 -1.00639286e-02
    -2.85258354e-03 2.29493808e-02 3.06975693e-02 1.32678617e-02
    -7.69773219e-03 -1.14982883e-02 -4.81168414e-03 -1.34958932e-02
    -2.25536004e-02 -1.33075435e-02 1.43568898e-02 3.04417610e-02
    1.77849550e-02 -1.19211990e-02 -2.32276204e-03 -3.91703937e-03
    -1.02570746e-02 -2.26474553e-02 -4.82406141e-03 1.90073736e-02
    3.29412371e-02 2.39677615e-02 -9.60403867e-03 -1.81026869e-02
    -3.85660981e-03 -1.14023527e-02 -7.91917555e-03 -1.38694076e-02
    3.51792830e-03 2.12176163e-02 1.23824300e-02 -3.27324553e-04
    7.04785460e-04 3.29168001e-03 -5.55226719e-03 -7.34942639e-03
    4.50519845e-02 1.33170839e-02 -3.80028822e-02 -2.02865954e-02
    -1.39004653e-02 -8.38421192e-03 -2.02227961e-02 -1.28010185e-02
    8.85596219e-03 4.02440652e-02 8.50364938e-03 -3.59680317e-02
    -1.58525538e-02 -2.07954999e-02 -5.62760048e-03 -1.85126737e-02
    -2.26782691e-02 1.19164111e-02 4.93467376e-02 1.57889053e-02
    -4.00307812e-02 -2.65439972e-02 -2.63691116e-02 -2.32786518e-02
    -2.61755381e-02 -2.58090161e-02 9.15293675e-03 3.62880267e-02
    1.27755059e-02 -3.78933139e-02 -2.36879475e-02 -3.85057516e-02
    -1.02263186e-02 -2.46548429e-02 -3.74610871e-02 3.72475223e-03
    2.92180814e-02 3.47385788e-03 -2.27844175e-02 -7.36816460e-03
    -1.75906215e-02 2.19721370e-03 -5.76543994e-03 -1.60733908e-02
    6.77175261e-03 5.50190313e-03 5.06116950e-04 -9.54575744e-03
    -3.82193853e-03 -2.24119760e-02 -4.01029410e-03 -7.93093257e-03
    -1.86226442e-02 -1.38973668e-02 2.33852342e-02 1.20446524e-02
    -2.20094323e-02 -1.26719140e-02 -2.53422204e-02 -1.44937309e-03
    -9.70676262e-03 -2.57798471e-02 -3.96230305e-03 5.55765582e-04
    -3.96565680e-04 -1.44395595e-02 -5.38518652e-03 -2.27065831e-02
    -1.64099340e-03 -9.82517842e-03 -1.78890042e-02 -1.04795955e-02
    1.24162287e-02 2.07051896e-02 1.79230645e-02 9.09749325e-03
    -7.65883131e-03 6.56559423e-04 -3.63270566e-03 -2.36210646e-03
    -6.06073160e-03 -1.92004687e-03 8.15001316e-03 1.03308409e-02
    -9.45442705e-04 -2.16356236e-02 -5.57100028e-03 -8.18870217e-03
    -1.35614667e-02 -1.53721385e-02 1.63537003e-02 1.93378478e-02
    1.50778033e-02 8.86313152e-03 -8.25616531e-03 6.72841212e-03
    -2.50053685e-03 -5.09393634e-03 3.02922796e-03 -8.02152138e-03
    1.14133535e-02 8.62463843e-03 -1.01889027e-02 -1.68232061e-02
    -2.87283183e-04 -5.41169802e-03 -1.47679346e-02 -1.75841935e-02
    -3.64276790e-03 7.38470489e-03 2.80670263e-02 1.79715715e-02
    -7.92636536e-03 -5.50712401e-04 7.97837600e-03 1.44705933e-03
    -1.48929264e-02 -1.57065727e-02 1.79312797e-03 1.56046357e-02
    9.84858349e-03 -3.99263762e-03 -5.42236725e-03 1.93260657e-03
    -4.27821046e-03 -2.31350511e-02 -3.81344021e-03 2.97301859e-02
    3.57277170e-02 1.10963797e-02 2.68957485e-03 4.87953145e-03
    8.14419799e-03 7.24527199e-05 -1.57044772e-02 -7.82428309e-03
    2.15887949e-02 2.20988821e-02 -1.18050251e-04 -1.56963859e-02
    -5.50926477e-03 5.10552991e-03 -3.95345921e-03 -1.59939993e-02
    -1.00857345e-02 1.86794829e-02 2.44366974e-02 1.55975968e-02
    5.35667362e-03 1.63465401e-03 -4.60175378e-03 -1.01051349e-02
    -2.01749876e-02 -1.99497920e-02 1.46617731e-02 1.99991763e-02
    3.35982698e-03 -6.17614202e-03 -2.59286072e-03 -8.48484319e-03
    -2.14205831e-02 -3.45612429e-02 -1.49913151e-02 2.06022281e-02
    2.89513692e-02 1.24151865e-02 -2.25395989e-03 -2.13595526e-03
    2.04897660e-04 -3.69819533e-03 -2.18754876e-02 -2.25473754e-02
    1.07442532e-02 1.85644347e-02 -2.63120909e-03 -1.12724025e-02
    -4.49558301e-03 -1.02651455e-02 -1.33148888e-02 -3.17490064e-02
    -8.22536275e-03 2.08068993e-02 2.78706327e-02 4.37502377e-03
    -3.62809631e-03 -8.46165046e-03 -9.91982874e-03 -1.74352322e-02
    -2.22185664e-02 -3.95587937e-04 2.47377753e-02 2.76251379e-02
    1.23368772e-02 -1.73643827e-02 -2.04485152e-02 -1.15312664e-02
    -4.91861999e-03 -4.43806406e-03 -6.37851749e-03 2.00108234e-02
    1.77019294e-02 6.09925529e-03 -4.39600833e-03 -1.55027350e-02
    -1.27572184e-02 -1.37053523e-02 -2.13324931e-02 -1.99023429e-02
    1.80067904e-02 2.63225492e-02 1.36065697e-02 -7.77434045e-03
    -1.88318137e-02 -1.89545751e-02 -1.43958479e-02 -2.55489312e-02
    -8.28202721e-03 1.36769945e-02 2.66237278e-02 2.09308714e-02
    -1.29021639e-02 -1.00712162e-02 2.27764435e-03 -1.15228770e-03
    -8.34647007e-03 -1.47569282e-02 2.38360697e-03 1.01886364e-02
    1.37940198e-02 -3.01028835e-03 8.92587844e-03 9.09402035e-03
    -3.11869499e-03 -1.19562149e-02 -1.54138934e-02 1.50723523e-02
    2.24785376e-02 2.66083386e-02 2.38057645e-03 -4.36707633e-03
    -4.29516612e-03 -3.06765363e-03 -2.12206971e-02 -9.32742562e-03
    9.51430295e-03 1.39858797e-02 2.00776197e-02 5.09655708e-03
    1.83257356e-03 -6.43283827e-04 -3.87902674e-03 -2.00595576e-02
    5.37223220e-02 1.72378980e-02 -3.50449383e-02 -2.74769384e-02
    -3.01027056e-02 -2.07495019e-02 -1.78205557e-02 -1.92037933e-02
    1.26351146e-02 4.32849452e-02 1.71571933e-02 -2.53179632e-02
    -1.94778331e-02 -2.90400255e-02 -6.84680277e-03 -1.91597231e-02
    -2.80383825e-02 -2.64003174e-03 4.22879383e-02 8.71356577e-03
    -3.84851806e-02 -2.65315324e-02 -3.18046249e-02 -1.83294676e-02
    -2.15951428e-02 -2.21317541e-02 -5.50002931e-03 2.96385493e-02
    1.21085644e-02 -3.53286639e-02 -2.25029849e-02 -2.48977896e-02
    -7.46829761e-03 -1.96471699e-02 -2.94429865e-02 -1.38502046e-02
    3.14847156e-02 2.58897655e-02 -8.30198824e-03 -9.49931331e-03
    -2.25322712e-02 -1.03936926e-03 -1.56822465e-02 -2.27455646e-02
    -1.29166786e-02 1.26477666e-02 1.83790140e-02 -1.58912428e-02
    -8.06332659e-03 -2.20422801e-02 -2.96931859e-04 -9.78359859e-03
    -2.07143426e-02 -2.00179443e-02 2.00168025e-02 2.70716790e-02
    -1.37380557e-02 -1.48136728e-02 -1.88645609e-02 -4.23566299e-03
    -1.77957490e-02 -3.11895609e-02 -2.64731292e-02 1.18685598e-02
    2.55353227e-02 -9.87821631e-03 -1.48777310e-02 -2.32070480e-02
    -2.61034817e-03 -1.57656427e-02 -3.31872441e-02 -4.06162776e-02
    2.52744313e-02 1.96279492e-02 7.80419970e-04 3.09600699e-04
    -4.03979002e-03 9.00457054e-03 1.37232780e-03 -1.12817595e-02
    -5.19948918e-03 -6.31784694e-03 1.27590345e-02 1.31117767e-02
    -1.02319783e-02 -1.40303429e-02 2.29634391e-03 -4.91889007e-03
    -1.65661890e-02 -2.08941437e-02 3.09092533e-02 3.62205990e-02
    5.22848452e-03 -4.92088124e-03 -6.82103913e-03 8.21011979e-03
    -1.80280907e-03 -1.74097177e-02 -1.46150505e-02 -3.48721165e-03
    1.67040080e-02 4.60672425e-03 -1.39752217e-02 -2.97822580e-02
    -1.11401407e-03 -9.47308261e-03 -2.09922865e-02 -2.45888457e-02
    -5.80799906e-03 3.41710374e-02 4.50378805e-02 6.74278056e-03
    -7.96304084e-03 7.99800211e-04 4.77998081e-04 -9.90474410e-03
    -2.21176054e-02 -1.21182052e-03 2.62473635e-02 1.34292012e-02
    -1.00907832e-02 -1.43241361e-02 -2.31608818e-03 -1.00541045e-03
    -1.51883299e-02 -2.33852584e-02 3.89879965e-03 3.85569111e-02
    3.23956721e-02 3.39624076e-03 -1.24712484e-02 1.82571344e-03
    -4.40156274e-03 -1.36980107e-02 -2.10471414e-02 3.10490257e-03
    2.51837503e-02 1.06190471e-02 -4.80112992e-03 -7.89542962e-03
    -3.50260688e-03 -1.24201868e-02 -2.77338233e-02 -2.64161453e-02
    1.29098393e-04 1.98056027e-02 1.08154425e-02 -6.34110672e-03
    -3.99098499e-03 3.12870252e-05 2.83667538e-03 -2.16828380e-03
    -1.44986352e-02 -1.98982470e-02 9.01729614e-03 7.38984952e-03
    -1.34794852e-02 6.24212029e-04 -4.32250781e-05 -5.40251203e-04
    -7.33578065e-03 -2.29637511e-02 8.27826932e-03 1.93108451e-02
    6.80231769e-03 -4.31043468e-03 -3.29659716e-03 -1.62003518e-04
    -4.42465348e-03 -1.10614561e-02 -1.59225594e-02 -1.08617162e-02
    2.12545879e-02 4.63255914e-03 -4.66052722e-03 -1.61858241e-03
    3.05138179e-04 -4.42814594e-03 -1.21978484e-02 -2.68077645e-02
    -8.30290560e-03 9.64000169e-03 8.35700892e-03 -5.16462000e-03
    2.39084545e-03 -6.98048901e-03 -3.36877070e-03 -8.22590757e-03
    -1.33252414e-02 -1.80304926e-02 8.44277535e-03 1.96162965e-02
    3.82673973e-03 1.01196091e-03 -9.39526130e-03 -7.43063772e-03
    -1.33298896e-02 -2.23332904e-02 -6.48056995e-03 2.59056315e-02
    1.29090901e-02 4.93868720e-03 7.38632958e-03 2.04755273e-03
    -3.72298132e-03 -1.06505714e-02 -2.08019037e-02 -1.67387631e-02
    1.35540562e-02 1.22115687e-02 2.34037396e-02 1.05483821e-02
    1.93150388e-03 -3.99723678e-04 -9.24707949e-03 -2.51402967e-02
    -1.68729331e-02 8.42628535e-03 2.45276205e-02 1.87716670e-02
    5.64871076e-03 -1.54125050e-03 -1.33185042e-03 -8.89578555e-03
    -2.19327006e-02 -7.62870582e-03 1.09599903e-02 1.76296327e-02
    1.56041700e-02 -2.95331189e-03 -9.93216131e-03 -7.59940408e-03
    -7.51876924e-03 -1.65164694e-02 -2.26986296e-02 9.34933405e-03
    2.16925181e-02 2.75231376e-02 7.47937430e-03 1.23232033e-03
    9.25314985e-03 1.14191289e-03 -1.84293799e-02 -1.80004966e-02
    7.89765548e-03 1.55812837e-02 1.32776182e-02 -6.60757814e-03
    -8.03255104e-03 -1.58414827e-04 -5.88285923e-03 -2.29943972e-02
    4.85654771e-02 2.07633097e-02 -2.47676354e-02 -2.29154639e-02
    -2.31643301e-02 -1.26074553e-02 -1.85981169e-02 -1.32552022e-02
    -3.23271262e-03 4.19181250e-02 3.02174054e-02 -2.88040992e-02
    -2.31554098e-02 -2.17742510e-02 -8.53918400e-03 -1.71510633e-02
    -2.73049902e-02 -1.57021154e-02 3.08075491e-02 1.90510023e-02
    -2.31791846e-02 -2.19728928e-02 -1.24051226e-02 -1.34907020e-02
    -2.13931743e-02 -2.74832230e-02 -2.49308385e-02 2.88303085e-02
    2.42594220e-02 -3.07746865e-02 -2.77809594e-02 -2.30197776e-02
    -8.84563942e-03 -2.05852408e-02 -4.22010273e-02 -3.55729721e-02
    3.39756049e-02 3.79788764e-02 -1.37932161e-02 -1.54604185e-02
    -1.32732159e-02 -7.16010947e-03 -1.15248477e-02 -3.12162973e-02
    -2.13306658e-02 3.16862799e-02 3.50544527e-02 -1.40611315e-02
    -1.37262521e-02 -1.17962603e-02 1.22625008e-03 -8.15843418e-03
    -3.31626013e-02 -2.61714235e-02 3.08257192e-02 3.00562829e-02
    -2.10434347e-02 -2.60978173e-02 -2.17201877e-02 -4.68375580e-03
    -1.62905026e-02 -4.22072895e-02 -3.49502265e-02 1.86340529e-02
    2.41213925e-02 -1.75356567e-02 -2.29285192e-02 -1.85657591e-02
    -2.37214542e-03 -1.30610056e-02 -5.04234098e-02 -2.31234636e-02
    3.70927192e-02 3.35506015e-02 -2.09215540e-03 -5.30512864e-03
    -3.98646202e-03 9.04852711e-03 1.17629662e-03 -1.72307417e-02
    -1.69537924e-02 4.73387353e-03 9.37237125e-03 4.26778684e-07
    -1.28575275e-02 -2.17227191e-02 1.99731323e-03 -4.47976636e-03
    -1.99771933e-02 -2.51123644e-02 2.66065914e-02 2.76222788e-02
    3.39746010e-03 2.69778957e-05 -5.26436546e-04 4.18938231e-03
    -1.69841771e-03 -2.85509545e-02 -1.47782555e-02 7.88699021e-04
    1.00438688e-02 1.07229338e-03 -9.16559156e-03 -1.60595197e-02
    -5.12853684e-03 -6.30741660e-03 -2.64217481e-02 -2.27611884e-02
    1.37578445e-02 2.56739911e-02 1.18249878e-02 -2.43808306e-03
    -8.29762127e-03 3.78146907e-03 7.70488288e-04 -1.23026604e-02
    -1.71392877e-02 2.88460567e-03 2.35372651e-02 -1.05400169e-02
    -2.04000808e-02 -1.13683706e-02 -5.12137357e-03 -7.28748040e-03
    -2.02465877e-02 -1.89574454e-02 8.87468085e-03 3.24740671e-02
    7.45032122e-03 -9.69300233e-03 -7.42690731e-03 -2.26083095e-03
    -2.84026668e-04 -1.12187490e-02 -7.08028860e-03 2.96519115e-03
    1.95363630e-02 -1.42352572e-02 -3.24935913e-02 -1.82119105e-02
    -1.07402420e-02 -1.02582062e-02 -2.02427153e-02 -9.83929634e-03
    -8.79793079e-04 1.10397842e-02 -7.86898844e-03 -2.31786836e-02
    -1.04539115e-02 -9.46343411e-03 7.69993640e-04 -6.27117651e-03
    -1.56361181e-02 -9.52019822e-03 1.24362791e-02 -2.28221598e-03
    -9.33733955e-03 -3.49913049e-03 -5.89989452e-03 -6.73106872e-04
    -3.19545786e-03 -2.57487092e-02 5.62806521e-03 1.60378683e-02
    1.62227463e-03 -1.71457287e-02 -3.72697646e-03 -8.51778872e-03
    -1.39289105e-03 -5.79292886e-03 -7.50229368e-03 -3.64418468e-03
    1.54015971e-02 1.41168581e-02 1.75455445e-03 -7.32242689e-03
    -1.12039912e-02 -4.03835764e-03 -2.76749465e-03 -1.54278008e-02
    -6.28478639e-03 1.77873448e-02 1.94297952e-03 -5.82344411e-03
    -4.31018136e-03 -3.52884433e-03 6.44908869e-04 -5.96253294e-03
    -2.17915960e-02 -1.64166391e-02 -4.83952725e-04 1.42777723e-03
    2.59153172e-03 -5.39181428e-03 -3.71414819e-03 1.67913386e-03
    2.35495600e-03 -1.47828748e-02 -3.13223363e-03 2.07613446e-02
    2.17851177e-02 7.37337396e-03 -6.63717743e-03 -6.24785479e-03
    -3.90629610e-03 -6.88231364e-03 -1.54911689e-02 -1.05347503e-02
    4.52284841e-03 8.76313075e-03 -1.50447024e-03 -1.58832048e-03
    -3.07988469e-03 2.14958470e-03 -7.85648637e-03 -1.43881645e-02
    -1.75227337e-02 3.03541264e-03 1.47854351e-02 2.21062638e-02
    7.21120369e-03 -5.32241818e-03 9.11548268e-03 3.88627918e-03
    -1.59482043e-02 -1.62262861e-02 9.45497770e-03 1.02637354e-02
    2.37823534e-03 -1.44389942e-02 -1.26941167e-02 9.36552230e-03
    5.71020972e-03 -2.27917563e-02 -1.88722685e-02 2.21072533e-03
    1.34329377e-02 1.17847230e-02 1.11355735e-02 3.39757837e-03
    1.56745724e-02 -7.89195416e-04 -1.68271866e-02 -2.52259038e-02
    5.07215643e-03 -3.15312506e-03 -1.58555526e-02 -1.13353198e-02
    -1.31652057e-02 1.82252806e-02 5.08426595e-03 -2.87292991e-02
    3.07268277e-02 2.18376797e-02 -1.75191034e-02 -1.12118516e-02
    -7.71943713e-03 -9.42839682e-03 -1.90791376e-02 -2.48557813e-02
    -2.36134566e-02 2.85920240e-02 2.24740691e-02 -2.96698678e-02
    -1.80009119e-02 -1.25313681e-02 -6.99697295e-03 -1.21680489e-02
    -3.21819559e-02 -3.28457803e-02 3.38480361e-02 3.41379531e-02
    -1.28645385e-02 -7.71674467e-03 -1.41011588e-02 -1.40610468e-02
    -2.93971691e-02 -3.45583707e-02 -1.91059783e-02 2.26341784e-02
    2.19944268e-02 -3.07179708e-02 -1.56425331e-02 -2.08937842e-02
    -1.05200941e-02 -1.84997842e-02 -3.52437682e-02 -2.28323489e-02
    3.60426158e-02 3.10578812e-02 -2.09083855e-02 -1.78816859e-02
    -1.38141690e-02 -9.78793250e-04 -1.08779930e-02 -2.71009244e-02
    -3.11272778e-02 1.98363084e-02 3.64837646e-02 -9.20937210e-03
    -1.18193254e-02 -1.20443460e-02 -3.04136379e-03 -1.19571760e-02
    -2.87933461e-02 -2.09896825e-02 2.64125410e-02 3.02822776e-02
    -2.37050746e-02 -1.72694772e-02 -1.75828598e-02 -3.81723349e-03
    -1.22552104e-02 -2.94734351e-02 -2.98904777e-02 1.76837072e-02
    2.96843704e-02 -1.10631380e-02 -1.80736799e-02 -1.25008365e-02
    -4.57016891e-03 -1.17878448e-02 -1.91245545e-02 -2.70416904e-02
    2.06169207e-02 3.16931382e-02 5.63829113e-03 4.91838029e-04
    4.83035488e-04 1.57708616e-03 1.90300215e-03 -1.08165108e-02
    -5.88291232e-03 6.14911690e-03 1.63672548e-02 -1.40163247e-04
    -1.23013901e-02 -1.48156406e-02 -9.14364681e-03 -1.22372224e-03
    -1.03302794e-02 -9.03433841e-03 1.35142608e-02 3.04830037e-02
    7.94334628e-04 -8.55431147e-03 -1.55893620e-03 9.66930238e-04
    -8.63926653e-06 -1.48225483e-03 -1.01854075e-02 -7.41323084e-03
    2.22242735e-02 -1.24710891e-02 -3.73354405e-02 -2.06711814e-02
    -6.71732239e-03 9.87752341e-04 -1.05799716e-02 -1.55168753e-02
    1.14489878e-02 2.68259123e-02 6.24948926e-03 -1.19011346e-02
    -7.27065979e-03 -7.21232314e-03 -6.53959054e-04 -1.23324748e-02
    -4.37493436e-03 8.30390025e-03 2.09598150e-02 -5.75853139e-03
    -2.75984406e-02 -5.60395513e-03 -7.26316124e-03 -8.78443103e-03
    -2.67410073e-02 -1.59648824e-02 1.01420833e-02 3.31042260e-02
    8.70414078e-03 -2.10342966e-02 -1.20287118e-02 -6.54222211e-03
    8.41434448e-05 -1.23962443e-02 -1.90611444e-02 4.57185181e-03
    7.68793328e-03 -3.37399426e-03 -1.66580770e-02 -6.43017143e-03
    -2.24713795e-03 -5.60590345e-03 -2.56934315e-02 -2.84077991e-02
    8.76185205e-03 1.35194967e-02 3.81418131e-03 -1.41965179e-02
    -1.26291683e-03 -6.36942079e-03 -4.59470181e-03 -1.94795262e-02
    -8.87740497e-03 2.51472439e-03 7.13157048e-03 1.01890843e-02
    1.48249941e-03 -8.29322450e-03 -4.23684716e-03 2.20720700e-04
    -1.17372526e-02 -9.07083694e-03 -1.31146575e-03 1.10732121e-02
    -7.32094329e-03 -1.41012594e-02 -4.84312512e-03 -4.10716794e-03
    1.60810217e-04 -1.87351778e-02 -2.42158324e-02 -4.46421606e-03
    -7.34399306e-03 -1.42536405e-02 -1.04218852e-02 -8.56213155e-04
    -1.02659324e-02 -4.33441065e-03 -1.50737679e-02 -1.70001797e-02
    9.45168734e-03 1.26467543e-02 1.36742191e-02 9.58436914e-03
    2.28734993e-04 5.42773341e-04 9.32505762e-04 -5.36839804e-03
    -5.55436267e-03 -9.98519361e-03 5.53684356e-03 1.52462767e-03
    -4.96883551e-03 -7.78733462e-04 -3.18246521e-03 3.60757113e-03
    -2.96917860e-03 -1.45454640e-02 4.19799844e-03 1.10101956e-03
    4.95802145e-03 1.00178132e-02 1.23303607e-02 -8.20155069e-03
    -9.06527787e-03 -1.15337623e-02 -1.15924124e-02 -1.64299458e-02
    -3.99426930e-03 -1.26005486e-02 -1.16472710e-02 -3.74770607e-03
    -1.43503109e-02 -6.50260074e-04 -4.63673519e-03 -2.04763506e-02
    -9.71622672e-03 9.31772310e-03 1.22188441e-02 3.44784372e-03
    1.57933531e-03 -2.50400696e-03 1.68544389e-02 1.01835225e-02
    -1.05304774e-02 -1.61334220e-02 5.23469876e-03 -8.45889654e-03
    -1.98313743e-02 -7.20093586e-03 -1.03986962e-02 1.78863127e-02
    1.42246326e-02 -1.39924521e-02 -1.48225967e-02 3.19052837e-03
    3.67098581e-03 -3.06848739e-03 5.00825653e-03 -8.48608743e-03
    1.17860856e-02 1.49693368e-02 -1.38563253e-02 -1.56847816e-02
    -4.38706018e-03 -6.52545877e-03 -2.88777356e-03 3.27042281e-03
    -3.44077102e-03 1.89337060e-02 2.74449401e-02 -1.56337097e-02
    4.71348874e-02 3.60180847e-02 -6.77604415e-03 -5.69880940e-03
    -1.11158015e-02 -6.01325836e-03 -2.57709716e-02 -3.53421606e-02
    -2.12589484e-02 3.70811187e-02 2.31006406e-02 -2.88034994e-02
    -1.28348889e-02 -1.66215319e-02 -2.60484079e-03 -1.58908106e-02
    -3.35621424e-02 -2.62837522e-02 3.21128592e-02 2.85217799e-02
    -1.79881472e-02 -1.31723760e-02 -1.48693798e-02 -8.36298801e-04
    -1.75222494e-02 -2.73457002e-02 -2.56730132e-02 2.51524132e-02
    2.62886956e-02 -2.33547445e-02 -1.04506379e-02 -7.52986129e-03
    -4.17772477e-04 -1.96084976e-02 -3.36520150e-02 -3.03074308e-02
    2.85866316e-02 3.07364278e-02 -1.65929608e-02 -7.26378616e-03
    -1.17456093e-02 -1.27712882e-03 -1.15720294e-02 -1.83601957e-02
    -2.26445999e-02 1.34244245e-02 2.21863240e-02 -1.75209064e-02
    -1.31693911e-02 -2.18966091e-03 3.72045790e-03 -7.53530068e-03
    -1.23233832e-02 -1.91935897e-02 1.74189471e-02 1.97091196e-02
    -1.58849359e-02 1.41918616e-04 -5.87412098e-04 1.19577162e-03
    -1.46691371e-02 -2.07416341e-02 -2.51549203e-02 -6.08025817e-04
    -2.62985984e-03 -1.52467359e-02 1.41080655e-03 -5.58533520e-03
    4.23911074e-03 -7.12235179e-03 -1.55168250e-02 -2.04073060e-02
    1.34556983e-02 2.28015855e-02 -2.30991608e-03 -4.64249263e-03
    1.31382877e-02 8.02176073e-03 2.58489395e-03 -1.01877761e-03
    -2.78260937e-04 3.75328772e-03 1.89989042e-02 -3.62150790e-03
    -2.87439991e-02 -8.62718746e-03 -6.96039991e-03 1.80098612e-03
    -1.02460722e-03 -8.05835892e-03 1.12843085e-02 7.73853762e-03
    -7.76999490e-03 -4.03136946e-03 9.57176369e-03 7.92396720e-03
    4.38826019e-03 1.41460006e-03 4.49686497e-03 5.23259491e-03
    1.21870209e-02 -2.00916436e-02 -3.88546772e-02 -1.62454639e-02
    -9.47711896e-03 6.50393253e-04 7.14866910e-04 -2.63248337e-03
    1.13406228e-02 2.88069155e-02 2.62419251e-03 -2.26535778e-02
    -7.35575240e-03 -1.00730779e-03 4.59545664e-03 -3.81981931e-03
    -1.27200056e-02 5.95000293e-03 1.21351257e-02 -6.09382195e-03
    -1.08753545e-02 3.48219019e-03 5.05796587e-03 5.05810836e-03
    -1.20199192e-02 -2.51471139e-02 9.48375277e-03 3.36206257e-02
    5.27465902e-03 -2.75819898e-02 -4.48107393e-03 -3.47609958e-03
    4.78720479e-03 -4.49199369e-03 -8.13488755e-03 2.04125023e-03
    2.10340824e-02 6.22361712e-03 -8.68677814e-03 -8.69762618e-04
    -3.53165879e-03 2.97632092e-03 -1.60599314e-02 -1.99175738e-02
    -5.03421878e-04 6.91990927e-03 -5.39156375e-03 -1.05364900e-02
    -7.05577340e-03 -5.18850470e-03 6.51060790e-03 -7.60455569e-03
    -1.75335072e-02 3.50934942e-03 9.06785484e-03 3.04749329e-03
    -5.71440952e-03 -1.54810760e-03 -1.47487363e-02 -4.11483692e-03
    -7.20973546e-03 -1.00653451e-02 1.56120921e-03 7.86525942e-03
    1.08106714e-02 -5.94543433e-03 -4.08918969e-03 -1.42456880e-02
    1.06168550e-03 -1.10183740e-02 -8.60150717e-03 2.55502621e-03
    1.06125500e-03 1.25337241e-03 -3.33810551e-03 3.24948481e-03
    -1.34616625e-02 -4.90119681e-03 -7.63949566e-03 -8.39757454e-03
    5.94817195e-03 1.17589226e-02 1.27533320e-02 7.54459156e-03
    8.31518974e-03 -1.26768509e-02 -8.30439478e-03 -8.25535599e-03
    -3.74585716e-03 -1.12631973e-02 -2.24108901e-03 -1.80442832e-04
    -9.21415258e-03 1.15642080e-03 -1.31442677e-02 -3.43237119e-03
    -4.33837483e-03 -9.12896730e-03 8.04597395e-04 1.16618918e-02
    1.17644742e-02 7.50719616e-03 1.05591146e-02 -6.06237445e-03
    4.97067627e-03 -2.55805277e-03 -6.47773454e-03 -6.61158049e-03
    -8.15553009e-04 1.10887957e-03 -6.26116665e-03 6.19088672e-03
    -4.69760690e-03 2.85472546e-04 -5.35253552e-04 -1.30895618e-02
    -2.21043713e-02 -1.00617874e-02 -1.57085364e-03 -7.74023263e-03
    9.23109055e-03 -1.02693671e-02 -6.06556830e-04 -4.86377074e-04
    -1.95764024e-02 -2.24206913e-02 -2.03204621e-03 -1.76159386e-03
    3.32517084e-03 1.72891896e-02 -4.22277860e-03 4.13617538e-03
    9.59873386e-03 -1.61069576e-02 -6.74010767e-03 -4.41480242e-03
    8.40879569e-04 4.61879419e-04 1.75865404e-02 3.04367859e-03
    -4.67293314e-04 1.86016865e-03 -8.88072234e-03 -1.61870047e-02
    -2.15836754e-03 6.12217886e-03 1.98494829e-02 2.99027376e-02
    7.65303662e-03 1.22745577e-02 6.30246988e-03 -9.75568593e-03
    2.14164443e-02 2.46863104e-02 -1.68476887e-02 -1.08231511e-02
    -9.78687871e-03 2.58299755e-03 -4.42811893e-03 -1.88354049e-02
    -1.81504712e-02 1.71860512e-02 2.66097523e-02 -1.84480119e-02
    -6.71503600e-03 -3.15817329e-03 3.89726181e-03 -1.11997239e-02
    -2.57211123e-02 -2.85014249e-02 1.51952077e-02 2.31480785e-02
    -7.15124048e-03 -1.04429014e-02 -6.74503203e-03 6.40244363e-03
    -5.91378100e-03 -2.16992628e-02 -1.89594980e-02 7.88512174e-03
    2.05468778e-02 -2.15915740e-02 -5.16951596e-03 -2.88348738e-03
    1.05127105e-02 -7.87843298e-03 -2.73235403e-02 -2.52921730e-02
    1.72032304e-02 1.81149561e-02 -1.66957937e-02 -5.84936049e-03
    -2.42654281e-03 3.88176937e-04 -1.29954368e-02 -2.07495503e-02
    -1.84524246e-02 3.66824120e-03 9.94476490e-04 -2.14977711e-02
    -1.01823909e-02 -1.03239724e-02 4.17539151e-04 -3.51190311e-03
    -9.06730443e-03 -1.02521162e-02 1.88640468e-02 1.40761435e-02
    -2.73696501e-02 -5.50849270e-03 -2.80821999e-03 4.01498890e-03
    -7.04990840e-03 -1.59894414e-02 -1.86011735e-02 9.92225669e-03
    6.96020201e-03 -2.97515448e-02 -2.30470411e-02 -9.32730455e-03
    1.75422034e-03 -1.29127366e-04 -7.70698395e-03 -8.32739845e-03
    5.65881748e-03 6.07684674e-03 -1.44416997e-02 -9.50985402e-03
    3.78490263e-03 5.81014156e-03 5.11243241e-03 9.95543599e-03
    5.16709778e-03 2.34434396e-04 6.73373695e-03 -1.97962485e-02
    -3.53453830e-02 -1.33250654e-02 -4.30487422e-03 6.03019958e-03
    5.48182148e-03 -4.19779774e-03 9.95707884e-03 2.08557025e-02
    -1.58639122e-02 -1.53236352e-02 1.51268886e-02 7.64381513e-03
    1.48655092e-02 4.73524677e-03 3.31295491e-03 9.13430564e-03
    2.51651611e-02 -4.12601046e-03 -2.63941567e-02 -6.50884071e-03
    -1.42593938e-03 1.01920497e-02 -1.56297116e-03 -7.56269461e-03
    1.28745334e-02 3.26385386e-02 5.17806446e-04 -3.05418074e-02
    -1.01756798e-02 -4.19918494e-03 1.23933388e-03 -5.30160218e-03
    -7.20046088e-03 4.92274901e-03 1.77808981e-02 -9.22034844e-04
    -1.90156214e-02 -1.69257782e-02 -1.14044296e-02 -4.44428809e-03
    -1.29281376e-02 -1.37574542e-02 6.00220868e-03 3.41649018e-02
    5.10489754e-03 -1.39791220e-02 -6.17750827e-03 -2.82994751e-03
    2.48985738e-03 -6.62868796e-03 -1.24851093e-02 3.35197779e-03
    1.79982502e-02 -6.85941940e-03 -1.83381885e-02 -1.59459170e-02
    -1.43400328e-02 -6.12709159e-03 -1.32246716e-02 -8.17964785e-03
    1.38400495e-03 6.47416245e-03 4.66631725e-03 -6.22432167e-03
    -4.92912112e-03 -1.36684794e-02 -3.08731338e-04 -4.54634102e-03
    -9.29353852e-03 -1.02745621e-02 1.82949938e-03 6.61167083e-03
    2.42216905e-04 5.45888720e-03 -1.56519637e-02 -5.00221457e-03
    -4.20777826e-03 -1.45630231e-02 -1.22491783e-03 1.31698716e-02
    5.02879173e-03 -3.38334148e-03 -8.86056479e-03 -1.17244273e-02
    2.33426481e-03 5.58038242e-04 -9.55916289e-03 -1.85957402e-02
    4.48413310e-04 9.51052736e-03 -8.10459023e-05 -6.33170549e-03
    -1.45139722e-02 -3.58972605e-03 3.70530994e-04 -1.38792861e-02
    -4.92539210e-03 5.02051506e-03 4.58547613e-03 7.80891161e-03
    9.19742323e-03 -4.73542837e-03 -7.14950904e-04 -1.54602644e-03
    -1.24485837e-02 5.70869946e-04 -2.65631150e-03 -1.09205693e-02
    -8.70461110e-03 3.06838984e-03 -3.17506929e-04 6.18999999e-04
    1.04840181e-03 -3.70087544e-03 -1.14036845e-02 7.16602197e-03
    7.39540113e-03 3.03851510e-03 8.14167876e-03 -4.79104090e-03
    -2.28286721e-03 2.67570023e-04 -8.53430480e-03 -1.31484782e-02
    -3.82931181e-03 -8.00774340e-03 4.40990349e-04 6.63889665e-03
    -5.48186805e-03 -2.95574864e-04 5.62283536e-03 -7.16681127e-03
    -6.98821712e-03 -1.50027173e-02 -1.58259887e-02 3.00069619e-03
    7.19704898e-03 -1.27204007e-03 -1.28751085e-03 -3.76103353e-03
    -3.02829314e-03 -1.46405604e-02 -1.00262230e-02 -4.96679638e-03
    1.94353443e-02 3.06356382e-02 1.03341835e-02 1.10725043e-02
    2.29177368e-03 -8.61550029e-03 -1.83399934e-02 -1.81813817e-02
    -1.63648126e-03 1.19299414e-02 1.44756576e-02 -2.61104223e-03
    1.56336674e-03 -1.64478563e-03 -1.58016887e-02 -1.73981041e-02
    -5.57650719e-03 2.45655477e-02 3.59518938e-02 4.22107987e-02
    4.17543110e-03 -3.04630259e-03 -1.26831736e-02 -1.77471638e-02
    2.13840418e-02</SVMDetector></my_detector_4>
</opencv_storage>
