<?xml version="1.0"?>
<opencv_storage>
<my_detector_3 type_id="opencv-object-detector-hog">
  <winSize>
    128 128</winSize>
  <blockSize>
    16 16</blockSize>
  <blockStride>
    8 8</blockStride>
  <cellSize>
    8 8</cellSize>
  <nbins>9</nbins>
  <derivAperture>1</derivAperture>
  <winSigma>4.</winSigma>
  <histogramNormType>0</histogramNormType>
  <L2HysThreshold>2.0000000000000001e-01</L2HysThreshold>
  <gammaCorrection>1</gammaCorrection>
  <nlevels>64</nlevels>
  <signedGradient>0</signedGradient>
  <SVMDetector>
    -3.99868796e-03 2.35298206e-03 -5.73857361e-03 -2.73562223e-03
    1.41837425e-03 3.62049323e-03 -2.98703671e-03 -6.99167512e-03
    -1.10266451e-02 2.78134155e-03 5.64955967e-03 -3.29239666e-03
    -1.35188224e-03 -2.88429874e-04 3.02106421e-03 -2.38492945e-03
    -7.04423198e-03 -7.40058441e-03 1.13905093e-03 3.89544200e-03
    -5.59810456e-03 -3.05311847e-03 -3.46466433e-03 1.14925136e-03
    -3.42005910e-03 -7.17266882e-03 -1.03592612e-02 5.03500272e-03
    6.53407816e-03 -4.03644610e-03 -3.37306061e-03 -3.71447671e-03
    2.31670658e-03 -4.34943149e-03 -7.21128518e-03 -6.47282507e-03
    5.09249279e-03 4.44731023e-03 2.40057998e-04 9.02610424e-04
    -2.46279780e-03 -3.79616045e-04 -3.71861504e-03 -5.81020676e-03
    -3.68597917e-03 4.10294067e-03 1.26492803e-03 -6.17634831e-03
    -4.36299713e-03 -2.48328596e-03 -6.57739176e-04 -2.46901577e-03
    -4.95964894e-03 -3.77128576e-03 5.55673754e-03 6.58096001e-03
    -3.33332107e-03 -2.30049645e-03 -4.26903320e-03 -9.24069085e-04
    -4.80338372e-03 -4.99978336e-03 -3.47149302e-03 3.03254882e-03
    2.35764915e-03 -6.31672563e-03 -4.52741655e-03 -6.42398931e-03
    -2.08160514e-03 -5.15836664e-03 -6.11680420e-03 -3.27235064e-03
    3.50418920e-03 4.76830173e-05 -7.26369629e-03 -4.50530415e-03
    1.06644095e-03 1.07097777e-03 -2.79987027e-04 -1.59645558e-03
    -2.13982537e-03 1.12781359e-03 1.88856153e-03 -2.43717781e-03
    -2.11339141e-03 -3.14681232e-03 -3.80748510e-03 -4.52097040e-03
    -2.60648713e-03 -2.66204122e-03 7.52154272e-03 2.91007245e-03
    -4.13822709e-03 -3.87746841e-03 -2.47869850e-03 -8.17826891e-04
    -2.64149229e-03 -1.49808661e-03 -2.26967066e-04 1.03644468e-03
    2.53311219e-03 -4.15903097e-03 -3.30259209e-03 -2.04859884e-03
    -1.88166648e-03 -3.59589863e-03 -2.39776261e-03 -2.83577270e-03
    1.95601373e-03 3.62550397e-03 1.35856017e-03 -1.41275302e-03
    1.65009103e-03 -2.33868812e-03 -3.83970747e-03 2.16157496e-04
    4.03449027e-04 6.13675360e-03 1.38503802e-03 -3.27134575e-03
    -4.39931825e-03 7.95084401e-04 -2.80030048e-03 -3.60192219e-03
    -3.66218155e-04 3.62513121e-03 2.28425895e-04 2.00814218e-03
    -2.13729031e-03 -1.73025508e-03 1.43447239e-03 -7.61958945e-04
    -2.32069078e-03 5.92139841e-04 2.25319891e-04 6.29802141e-03
    6.50810034e-05 -5.57742175e-03 -3.90378269e-03 -4.19061072e-03
    -2.18281103e-03 -5.44142397e-03 -2.18537915e-03 4.26541315e-03
    1.02101946e-02 1.21087488e-03 -2.39486480e-03 -3.55026312e-03
    8.31360594e-05 -3.91477859e-03 -4.00300883e-03 -3.48144467e-03
    4.94105881e-03 8.59332643e-03 2.03260896e-03 -1.42411189e-03
    -2.99959071e-03 -2.79844622e-03 -2.67796125e-03 -4.51295031e-03
    -5.23614557e-03 2.93960422e-03 1.12039577e-02 -4.20382159e-04
    -4.52685589e-03 -5.31782769e-03 -7.29098171e-03 -4.45725443e-03
    -7.80119468e-03 -5.72615722e-03 9.24954657e-03 8.00253451e-03
    -1.95337413e-03 -4.48179338e-03 -5.06113796e-03 -4.22331505e-03
    -3.91631806e-03 -6.67550135e-03 -8.29035603e-03 6.83113933e-03
    4.12862655e-03 1.20129914e-03 -2.38031708e-03 -1.46004499e-03
    -6.66073058e-04 -6.73538074e-04 -3.47094284e-03 -4.90340032e-03
    5.37066044e-05 1.57930190e-03 -1.10214297e-03 -3.57047375e-03
    -1.31169392e-03 5.55860635e-04 3.45538807e-04 -1.34003710e-03
    -3.48289707e-03 1.55105954e-03 6.41452242e-03 -1.27071724e-03
    -3.91246472e-03 -2.92049651e-03 -3.80246690e-03 -3.74978455e-03
    -4.71824734e-03 -6.56627072e-03 5.31182671e-03 5.61522460e-03
    -1.32597255e-04 -4.38309507e-03 -2.43009906e-03 -5.05314767e-03
    -3.80693167e-03 -4.22103144e-03 -8.76551727e-04 3.34716169e-03
    1.29279576e-03 -3.28840478e-03 -2.19525583e-03 -9.80131328e-04
    6.21692976e-04 1.18411193e-03 7.22244498e-04 -1.28006656e-03
    5.22264140e-03 -1.82894495e-04 -5.30216703e-03 -4.32424434e-03
    -3.44562856e-03 -2.47030170e-03 -3.77327640e-04 1.80270127e-03
    -3.81318416e-04 6.26160949e-03 3.76386195e-03 1.27487571e-03
    -1.66835578e-03 -1.63156423e-03 -7.46706559e-04 1.22795266e-03
    -7.17711169e-04 -5.38435008e-04 1.62274449e-03 1.85440050e-03
    -7.40623451e-04 -4.87173721e-03 -7.51418155e-03 -2.94007175e-03
    -8.76276812e-04 -1.80082326e-03 -3.45239160e-03 2.26557790e-03
    1.39873906e-03 -9.87087609e-04 -1.26865366e-03 -2.38745054e-03
    -1.16486190e-04 6.68422901e-04 2.02054018e-03 -6.03050634e-04
    4.00455901e-03 2.60762847e-03 -1.45417478e-04 -4.19996708e-04
    -5.27476985e-03 -3.94221256e-03 -1.41533790e-03 -8.05707707e-04
    -1.43493453e-04 6.08357321e-03 3.87464743e-03 1.69258821e-03
    1.11908746e-04 -3.93694267e-03 -3.07424314e-04 -1.86960431e-04
    3.88731598e-04 -1.02807011e-03 1.98775693e-03 -1.53428852e-03
    1.48535939e-03 1.92468846e-03 -6.09856425e-03 -5.55942487e-03
    -1.85885339e-03 -5.18773857e-04 -1.39240699e-03 -1.23210484e-03
    5.86963957e-03 3.22859082e-03 -1.17888885e-04 -4.47129272e-03
    -5.71667170e-03 -3.38690518e-03 -2.65086466e-03 7.29498744e-04
    5.48530556e-03 4.15100530e-03 5.77438297e-03 -7.28221858e-05
    -3.44720972e-03 -4.16124845e-03 -3.40635492e-03 -1.68415264e-03
    -1.20066397e-03 3.53502837e-04 1.48981926e-03 3.18255858e-03
    1.94816710e-03 -4.12335945e-03 -8.06984864e-03 -3.40954261e-03
    -2.58817640e-03 -5.43035392e-04 2.04951246e-03 6.99662633e-05
    4.65756311e-04 -9.26331733e-04 -2.70218379e-03 -3.25531350e-03
    -3.85111733e-03 -6.76219584e-04 -5.17225533e-04 -2.75485357e-03
    1.43897906e-03 5.55679668e-03 1.57437788e-03 -3.42957932e-03
    -2.77879555e-03 -1.45957386e-03 -4.23579681e-04 -1.16160198e-03
    -2.92988378e-03 -8.53689853e-04 5.57746133e-03 1.57638197e-03
    -1.67958334e-03 -3.48657806e-04 -1.95439067e-03 1.23474792e-05
    -1.01114775e-03 -4.11219103e-03 -3.79766920e-04 3.78024229e-03
    3.52398289e-04 2.14164524e-04 -2.02927343e-03 -1.48928119e-03
    1.80030984e-04 -1.49056537e-03 -5.52058592e-03 9.76241368e-04
    7.45742954e-03 3.88673483e-03 4.45971556e-04 -2.00117915e-03
    -1.26164849e-03 -1.80828641e-03 -3.55783361e-03 -5.23012551e-03
    1.82591344e-03 3.62991472e-03 2.55566370e-03 6.65301399e-04
    -1.71555002e-04 4.73053660e-04 7.08425476e-04 -1.07411121e-03
    -3.77406296e-03 2.73125572e-03 4.82541276e-03 2.25990056e-03
    -9.96802235e-04 -1.77571189e-03 6.76030904e-05 -2.26053363e-03
    -4.22470132e-03 -2.53285374e-03 3.08721606e-03 7.47953216e-03
    4.58614808e-03 1.42085948e-03 -2.08212365e-03 1.07061154e-04
    -1.32090459e-03 -3.44650215e-03 -4.31798352e-03 -4.41798620e-04
    5.63210621e-03 1.88645150e-03 -2.27184384e-03 -5.97629510e-03
    -2.46897223e-03 -2.07012077e-03 -4.99801058e-03 -5.12657594e-03
    2.51331623e-03 3.55966995e-03 2.15957244e-03 -4.98746289e-04
    1.74743982e-04 -8.70083866e-04 -4.62500000e-04 -1.41513755e-03
    7.17555347e-04 2.39995751e-03 2.41228822e-03 1.89504540e-03
    1.68580702e-03 -1.00217888e-03 -1.79987482e-03 -1.24063913e-03
    -1.51863380e-03 3.22269858e-03 8.90011201e-04 2.40235194e-03
    3.21932440e-03 -1.62981341e-05 -2.54222285e-03 -3.13623319e-03
    -2.19429308e-03 -4.81629232e-03 -3.89314187e-03 -5.33397251e-04
    -1.03391678e-04 1.86187937e-03 9.20037623e-04 -5.96225786e-04
    -1.41180726e-03 -9.55366646e-04 -3.64363263e-03 -3.16847302e-03
    -1.25025015e-03 -4.79996699e-04 -1.03249389e-03 -1.04401202e-04
    -5.12418686e-04 -1.88733253e-03 -2.90241092e-04 -1.24334730e-03
    2.09741062e-03 -1.18074054e-03 -1.26225979e-03 9.49584355e-04
    2.57735327e-03 6.19474566e-03 2.59473524e-03 2.11641681e-03
    3.89114808e-04 9.25231259e-04 -1.70848006e-03 -2.01944355e-03
    -2.94804666e-03 -1.76682672e-03 -1.79987971e-03 -7.91289727e-04
    9.28850321e-04 -2.00917770e-04 -6.90197921e-04 2.81401764e-04
    -1.25060976e-03 -8.51775185e-05 9.95446113e-04 -1.06003147e-03
    -1.56675023e-03 2.80502043e-03 1.41904107e-03 -2.21489972e-04
    9.96163726e-05 -1.38009374e-03 5.80848427e-04 2.22699344e-03
    5.31876972e-03 2.62963912e-03 2.54634838e-03 5.16078959e-04
    1.04642974e-03 -2.67957966e-03 -5.09235589e-03 -2.43749097e-03
    -1.85639621e-03 2.82242871e-03 -2.21607726e-04 3.14148911e-03
    -1.07191234e-04 -4.43706056e-04 7.30238098e-04 -1.35900429e-03
    -1.24625774e-04 6.57101686e-04 -1.74637919e-03 -9.96492221e-04
    2.03257031e-03 2.58200266e-03 -1.41995226e-03 -3.12811206e-03
    -5.84012223e-03 -4.51717712e-03 -2.80073052e-03 -3.64264095e-04
    -5.47270647e-05 3.93781671e-03 4.93704341e-03 -9.12894553e-04
    -7.93562154e-04 -4.20636823e-03 -1.05119788e-03 -2.23622820e-03
    2.38921773e-03 -1.90031028e-03 2.90509523e-03 1.96499517e-03
    1.66006421e-03 2.79403455e-03 -2.25410191e-03 -1.59535848e-03
    -3.95237422e-03 2.89165485e-03 -3.50971729e-03 -2.04037572e-03
    8.93742428e-04 4.21911106e-03 -1.54214399e-03 -4.20838781e-03
    -3.41854128e-03 -2.72022956e-03 5.44699375e-04 1.18005765e-03
    4.08843486e-03 4.68355790e-03 1.70637143e-03 -5.17090666e-04
    -3.46975471e-03 -4.84303571e-03 -5.00709796e-03 1.17280660e-03
    -1.53253414e-03 -7.41273630e-04 -6.23842119e-04 2.00340431e-03
    -7.61544914e-04 3.55048012e-03 -4.62924363e-03 -1.68261677e-03
    -2.23505194e-03 1.72878639e-03 -2.93977768e-03 -6.57748105e-03
    -8.53252225e-03 2.48895772e-03 6.02806034e-03 -3.23878252e-03
    -7.96290813e-04 -2.73183151e-03 2.13439995e-03 -2.61905487e-03
    -5.64182596e-03 -5.16602537e-03 -3.00466456e-03 5.84700797e-03
    -1.14955881e-03 1.96864130e-03 9.68134773e-05 2.20467197e-03
    -4.79892688e-03 -1.14074983e-02 -1.23964371e-02 7.20691634e-04
    8.01166240e-03 2.13870502e-04 1.98200160e-05 -1.98560557e-03
    -2.69979180e-04 -6.38969289e-03 -1.19128944e-02 -7.51036825e-03
    3.61158024e-03 4.35071252e-03 -4.03059507e-03 -6.52243849e-04
    -2.76744855e-03 -5.74303500e-04 -4.41943388e-03 -4.71268268e-03
    -2.54832674e-03 2.83600600e-03 -1.21484662e-03 -6.00632746e-03
    -2.94839568e-03 -4.38392255e-03 -1.04909076e-03 -5.52883185e-03
    -4.69478825e-03 -2.20535323e-03 5.41987224e-03 6.53213682e-03
    -1.97425857e-03 -2.15630908e-03 -4.58379975e-03 -1.68558874e-03
    -4.86881938e-03 -7.38444878e-03 -4.61260369e-03 3.85668757e-03
    3.84620769e-04 -6.51994627e-03 -3.34607367e-03 -5.30089764e-03
    -1.71661505e-03 -5.00709005e-03 -5.80963632e-03 -1.15265010e-03
    5.15310606e-03 7.93286308e-04 -4.82017873e-03 -3.32129025e-03
    -2.91146059e-03 -1.51289103e-03 -4.89674043e-03 -2.63894256e-03
    8.71741504e-04 2.17678258e-03 2.84074992e-03 -5.25497179e-03
    -3.31197493e-03 -2.23576580e-03 -3.69356317e-03 -4.83089872e-03
    -3.14355688e-03 -3.76052136e-04 6.17999071e-03 1.07518432e-03
    -5.87135414e-03 -4.70262626e-03 -1.83964649e-03 -3.68612865e-03
    -5.49972337e-03 -5.33683412e-03 1.27132807e-03 3.74434260e-03
    5.79722342e-04 -7.27560464e-03 -3.11773806e-03 -2.24685529e-03
    -3.10552935e-03 -3.42006516e-03 -3.81527399e-03 7.42433302e-04
    2.30959221e-03 2.98796990e-03 -2.44674552e-03 -1.03042263e-03
    3.29465169e-04 -4.36552713e-04 -3.42008634e-03 -3.14153777e-03
    3.28487484e-04 3.85868759e-03 7.38625706e-04 -2.56475690e-03
    -2.96611898e-03 -2.75455345e-03 -1.46387238e-03 -7.45710963e-03
    -5.99720189e-03 1.58737646e-03 1.70585071e-03 -2.37225788e-04
    -3.85262584e-03 -1.96341309e-03 2.33979104e-03 9.36260272e-04
    2.58768065e-04 -2.11909437e-03 2.19135103e-03 1.59589550e-03
    -1.33452669e-03 -3.31968837e-03 -4.61221533e-03 9.22562496e-04
    -2.41960119e-03 -4.07658610e-03 -4.38290322e-03 -1.00915735e-04
    8.71025864e-03 -6.94571005e-04 -3.31539894e-03 -3.17010353e-03
    -3.36812111e-03 -4.21057176e-03 -9.48437862e-03 -7.61320535e-03
    6.04692381e-03 6.39167335e-03 -2.10010144e-03 -5.04121464e-03
    -4.32068435e-03 -1.09257211e-03 -4.24664374e-03 -6.52519288e-03
    -9.73456912e-03 4.57813637e-03 8.16394947e-03 5.20518515e-04
    -2.92111700e-03 -1.91718631e-03 1.09931687e-03 -4.17587673e-03
    -5.23014553e-03 -5.12721622e-03 3.77559359e-03 7.95732625e-03
    -3.10518965e-03 -7.04912422e-03 -3.44535592e-03 2.37698643e-03
    -3.19760456e-03 -4.46388405e-03 -6.37843926e-03 3.79809854e-03
    7.56779825e-03 2.71655212e-04 -3.09504708e-03 -3.04116914e-03
    -3.24242283e-03 -4.39779740e-03 -2.60911719e-03 -5.53549407e-03
    4.89922287e-03 3.64978192e-03 5.32096485e-04 -8.60240485e-04
    -1.49936555e-03 -7.45032635e-03 -4.75769443e-03 -1.50890963e-03
    -8.96399783e-04 8.45946430e-04 4.39113099e-03 -1.80618488e-03
    -3.77670047e-03 -3.35523137e-03 -1.32770464e-03 -3.26480018e-03
    4.55217494e-04 -2.63257907e-03 3.75814689e-03 -1.17155339e-03
    -1.37485552e-03 1.27351470e-03 -1.78879395e-03 -7.81923998e-03
    -4.88144159e-03 7.09142420e-04 -1.99300796e-03 -1.62636439e-04
    5.31500112e-03 1.88018137e-03 8.68905627e-04 4.22564335e-04
    -2.79493583e-03 -2.08215875e-04 -1.24882499e-04 -1.32357352e-04
    2.31030071e-03 2.45144498e-03 -1.63476390e-03 -3.02338321e-03
    -6.36303285e-03 -3.78703116e-03 7.16488692e-04 -6.75724237e-04
    -8.97559454e-04 1.19846163e-03 1.76316709e-03 -8.46187060e-04
    1.66456890e-03 1.52981549e-03 -1.86066504e-03 -6.73834875e-04
    3.62919091e-04 1.17091462e-03 1.88561948e-03 2.40717828e-03
    -5.60259540e-03 -3.74490232e-03 -5.32616582e-03 -4.68542939e-03
    3.66499480e-05 1.86887174e-03 2.76045897e-03 2.45636608e-03
    2.33690511e-03 2.74166756e-04 -1.48098031e-03 -4.94065462e-03
    -1.23457517e-03 1.24914129e-03 1.07294798e-03 1.00369938e-03
    2.56604864e-03 -3.62962624e-03 1.62935688e-03 6.87819964e-04
    -5.78593789e-03 -4.79591824e-03 -9.38508951e-04 2.25815238e-04
    -8.16385145e-04 -5.09037403e-04 4.71414160e-03 -3.40107852e-03
    -1.53042260e-03 -4.04559681e-03 -2.14636698e-03 1.34080206e-03
    2.74577714e-03 3.19137401e-03 1.93489867e-03 -1.80982548e-04
    -2.00419314e-03 -2.92468513e-03 -5.00090700e-03 8.01440561e-04
    2.92446784e-04 2.91594741e-04 -2.20473390e-03 -7.88708683e-04
    -4.47910279e-04 3.20393685e-03 1.41089282e-03 -3.52536025e-03
    -6.85900589e-03 -2.28141481e-03 -2.56170239e-03 -2.02710344e-03
    -1.62928563e-03 -4.99946706e-04 2.65977508e-03 -1.25276507e-03
    -1.40045793e-03 -3.81638366e-03 -1.79977901e-03 -2.76198960e-03
    -2.01127585e-03 -3.45497066e-03 2.58827396e-03 -3.12685414e-04
    -2.95094098e-03 -2.35048495e-03 8.06402997e-04 2.32179009e-04
    -7.18667521e-04 -3.22610838e-03 -7.75456487e-04 1.52118609e-03
    1.82827201e-03 9.01821768e-04 -5.14358690e-05 2.79005646e-04
    -4.90953098e-04 -2.98512424e-03 -4.08715336e-03 -2.50453153e-03
    2.29332640e-04 4.96020773e-03 -2.48470576e-04 -1.31596855e-04
    -3.72803491e-03 9.49549067e-05 -9.11860610e-04 -2.07564258e-03
    -3.48997372e-03 -1.25959783e-03 6.25801878e-03 2.53641768e-03
    -1.30184373e-04 -4.93297167e-03 -2.31012586e-03 -3.02626030e-03
    -4.49939026e-03 -3.79391527e-03 2.25679995e-03 5.21909213e-03
    3.62897641e-03 7.83639727e-04 -4.09149705e-03 -4.48255800e-04
    -3.89230414e-03 -3.30303633e-03 -2.53179600e-03 1.45446544e-03
    4.86509362e-03 2.23772391e-03 8.57591047e-04 -4.80820006e-03
    -2.58626137e-03 -5.63641731e-03 -5.06652333e-03 -2.76496308e-03
    1.91602507e-03 6.82672765e-03 4.27601021e-03 2.38594459e-03
    -1.49992376e-03 -2.30520777e-03 -1.96896028e-03 -2.28644372e-03
    -2.69380002e-03 5.45707822e-04 3.31111671e-03 -8.76422157e-04
    -8.55162216e-04 -3.60056595e-03 -3.80694889e-03 -1.07510459e-04
    -4.20453929e-04 -1.63028087e-03 3.78935225e-03 5.36108343e-03
    1.29338261e-03 1.91038847e-03 1.46386342e-03 -2.36856169e-03
    -2.98129069e-03 -4.43307310e-03 -3.99905862e-03 1.36726641e-03
    1.87240643e-04 -5.00023924e-03 -3.88935255e-03 -1.90282334e-03
    -2.43087835e-03 1.06553722e-03 -4.28102585e-03 -1.03815866e-03
    1.21361297e-03 6.34119671e-04 1.06710952e-03 -1.00132229e-03
    -2.31134170e-03 -3.16861994e-03 6.43776904e-04 -2.22363230e-03
    -6.01274252e-04 1.23092404e-03 1.69165456e-03 1.54441281e-03
    1.89710641e-03 -2.11468083e-03 -2.00336613e-03 -1.03611080e-03
    -3.52858845e-03 -2.53002602e-03 8.20503861e-04 -2.35548388e-04
    -1.66244304e-03 -3.53311631e-03 1.09203669e-04 -5.34688355e-04
    3.67252249e-03 -4.44507692e-03 4.24750806e-06 9.36313591e-04
    2.49143294e-03 1.59909786e-03 1.81410520e-03 7.01026700e-04
    -7.83170341e-04 1.88497270e-05 -4.17493191e-03 -2.58915219e-03
    -1.58384000e-03 1.87763828e-03 -1.35330996e-03 1.80595985e-03
    -6.82999264e-04 -1.08496961e-03 -3.17311991e-04 -1.89037598e-03
    -2.54472182e-03 6.31999108e-04 8.23390787e-04 9.45289445e-04
    3.05294362e-03 1.36890972e-03 -1.80370337e-03 1.54368230e-03
    -2.46377941e-03 -1.26118457e-03 -1.30992581e-03 1.52752292e-03
    5.60165849e-04 1.97017426e-03 5.45215094e-04 -2.26848037e-03
    -2.76112999e-03 -2.70552840e-03 -3.02427448e-03 -1.86121615e-03
    -1.76623475e-03 4.36383416e-04 2.25767237e-03 3.62417405e-03
    -1.45399955e-03 9.80145414e-04 -1.40167668e-03 -6.62420789e-05
    -8.10774392e-04 1.28313142e-04 2.32322002e-03 2.76685902e-03
    6.84649742e-04 -8.96665384e-04 1.43795367e-03 -1.93073356e-03
    -2.48351833e-03 -1.91300979e-03 -3.52862338e-03 -1.62516211e-04
    3.24996799e-04 4.89372120e-04 -1.29253918e-03 3.36876349e-03
    2.21724599e-03 -1.68482936e-03 -3.10887699e-03 -3.83794913e-03
    8.64791509e-04 7.67449033e-04 2.42306106e-03 -2.75204540e-04
    1.60213001e-03 -8.03451054e-04 6.37130113e-04 -2.49734335e-03
    -7.27354549e-03 -2.54653138e-03 -2.18989351e-03 2.47051703e-05
    -2.06603040e-03 2.38144910e-03 1.68218825e-03 1.09786761e-03
    -1.58125395e-03 -2.31224368e-03 -1.09347200e-03 7.29450141e-04
    2.43720063e-03 2.82329856e-04 3.80217866e-03 3.88022955e-03
    6.27058384e-04 -3.28701991e-03 -1.54490233e-03 -3.03665409e-03
    -1.65428023e-03 -2.39114030e-04 -1.84855273e-03 1.39441705e-04
    3.33191274e-04 -1.02966733e-03 1.63441349e-04 -5.25201298e-03
    -3.10578081e-03 -1.19219569e-03 1.74742541e-03 -1.67994318e-03
    2.60150549e-03 4.89883171e-03 4.57814848e-03 -5.38202294e-04
    -4.10158234e-03 -4.53910558e-03 -4.07322822e-03 -3.22450511e-03
    -4.13298793e-03 5.94024605e-05 5.34406491e-03 4.26000915e-03
    -2.80981977e-03 5.06030535e-03 -2.12197145e-03 -3.23912012e-04
    -2.17673741e-03 1.64912152e-03 -4.03319299e-03 -8.74383841e-03
    -1.09950118e-02 -6.66567124e-04 8.18204414e-03 -7.60429539e-05
    -2.39078701e-03 -3.81118804e-03 -1.40748976e-03 -7.67312758e-03
    -1.13500720e-02 -1.21463565e-02 2.85043265e-03 1.07210847e-02
    -2.54987390e-04 -1.48841343e-03 -3.47933639e-03 -5.32717386e-04
    -3.88773810e-03 -7.49568548e-03 -9.47491638e-03 6.96571451e-03
    1.19798612e-02 -1.96747039e-03 -1.68970379e-03 -6.98822690e-03
    -1.24084391e-03 -6.72081998e-03 -1.14508867e-02 -7.35512422e-03
    3.22510395e-03 7.29269814e-03 -7.49696861e-04 -2.41762819e-03
    -3.73801123e-03 -4.59028815e-04 -4.18881327e-03 -6.20618556e-03
    -8.77256598e-03 1.31462177e-03 3.74285737e-03 -6.88215392e-03
    -4.00299951e-03 -7.34038930e-03 -2.81403220e-04 -2.37128465e-03
    -4.46160976e-03 -5.63539658e-03 8.08927044e-03 6.77446974e-03
    -5.75956237e-03 -1.27746386e-03 -4.30450169e-03 -2.45528616e-04
    -4.75738896e-03 -7.95066357e-03 -3.06185079e-03 1.55698357e-03
    2.12669256e-03 -9.32748243e-03 -4.17731283e-03 -5.94037119e-03
    -5.62475936e-04 -3.81399784e-03 -5.75592415e-03 -1.74558477e-03
    6.31020498e-03 3.02696181e-03 -6.12526992e-03 -4.85143764e-03
    -5.00381505e-03 -2.62642535e-03 -4.20875242e-03 -6.14941586e-03
    -7.07042054e-05 5.95947448e-03 2.29340186e-03 -7.33956276e-03
    -4.64140065e-03 -4.77016484e-03 -2.39616213e-03 -6.12721546e-03
    -5.50974952e-03 7.69518374e-04 4.64177085e-03 1.95241673e-03
    -6.61855889e-03 -5.23260888e-03 -5.56087401e-03 -1.11794192e-03
    -3.23207187e-03 -5.45936450e-03 1.26125675e-03 9.27653350e-03
    4.35853563e-03 -6.32096548e-03 -3.52674373e-03 -7.81492610e-03
    -5.34984376e-03 -5.69474930e-03 -6.14226004e-03 4.60935198e-03
    1.32537982e-03 1.62700599e-04 -5.87313483e-03 -2.74847588e-03
    -3.09008581e-04 3.59465368e-04 -3.96250049e-03 -3.84285999e-03
    -1.74403924e-03 8.28405377e-04 -9.65359868e-05 -4.87595145e-03
    -3.62974475e-03 -6.35977543e-04 -3.72221897e-04 -4.12801094e-03
    -4.87127202e-03 -2.18287925e-03 8.10813811e-03 5.18288789e-03
    -4.03110171e-03 -1.08695147e-03 -1.68336416e-03 -1.37431943e-03
    -5.20431809e-03 -3.80268460e-03 4.16911021e-03 4.09962283e-03
    2.54608179e-03 -4.76144115e-03 -1.47542579e-03 -1.21665350e-03
    -2.68200086e-03 -7.69011024e-03 -5.05119795e-03 1.22906850e-03
    5.01013501e-03 1.43711281e-03 -2.68759043e-03 -2.72334693e-03
    -1.72149844e-03 -1.76164415e-03 -2.91467062e-03 -3.82745196e-03
    9.22147767e-04 3.39101767e-03 -2.54838495e-03 -6.22793939e-03
    -3.01520852e-03 -4.29792050e-03 -1.75956718e-03 -2.68782303e-03
    -2.25243624e-03 3.92683456e-03 8.00979510e-03 3.16179753e-03
    -4.94026579e-03 -1.99106266e-03 -1.85721880e-03 -4.48389258e-03
    -7.01847067e-03 -3.31713795e-03 4.40876978e-03 3.29008279e-03
    -3.41769820e-03 -7.37589458e-03 -4.21758089e-03 -6.70603756e-03
    -3.15128686e-03 -3.66383628e-03 -2.49868631e-03 2.36468669e-03
    7.42929929e-04 -3.03698680e-03 -4.53121681e-03 -2.23716814e-03
    -4.51549748e-03 -1.55778267e-04 1.32273114e-03 -3.36239202e-04
    3.04598850e-03 -6.91623078e-04 -2.80800578e-03 -2.26042210e-03
    -2.62897112e-03 -6.83238637e-03 -1.44698448e-03 -2.10955564e-04
    -2.48023565e-03 4.82081930e-04 2.62449286e-03 -5.19017503e-03
    -4.60942555e-03 -2.59679742e-03 -5.82528114e-03 -2.77592859e-04
    -6.23575179e-04 -9.11831376e-05 3.17917345e-03 2.66044633e-03
    -7.03574391e-03 -4.24687937e-03 -4.13835980e-03 -6.32186048e-03
    3.92660331e-06 -6.12430798e-04 8.17410531e-04 2.48883059e-03
    1.59328943e-03 -1.05929270e-03 -9.21324478e-04 -6.95743947e-04
    -1.28056004e-03 7.43460841e-04 1.86577940e-03 5.92978322e-04
    1.78510603e-03 2.35771178e-03 -1.35715911e-03 -4.44264757e-03
    -5.68917906e-03 -7.67039973e-03 9.20124468e-04 2.43482715e-03
    -2.05351374e-04 -3.73521587e-04 6.55606762e-03 -2.94490834e-03
    -1.68816559e-03 -2.17679399e-03 -8.34542559e-04 8.27215728e-04
    7.38541479e-04 -4.38087736e-04 7.27390638e-03 3.08929686e-03
    -2.19399808e-03 -1.68663030e-03 -6.39432622e-03 -7.71610299e-03
    -1.35249854e-03 -3.99405362e-05 -3.46910977e-03 4.19687899e-03
    2.70625390e-03 3.13169439e-04 -6.52197341e-04 -2.30994145e-03
    -3.79993836e-03 2.12518941e-03 3.54914274e-03 8.64001981e-04
    -2.44664773e-03 -1.94429338e-03 1.41316163e-03 2.42071270e-04
    -2.04948615e-03 -1.86542410e-03 8.53145611e-04 -2.92618992e-04
    -3.48958327e-03 -6.18840335e-03 3.49191693e-03 8.47052666e-04
    1.13400409e-03 -3.03476094e-03 -2.17444077e-03 1.58926088e-03
    3.80990072e-03 5.32650098e-04 3.27958190e-03 1.83268951e-03
    1.55186397e-03 1.19276554e-03 -3.30853369e-03 -3.79845104e-03
    -4.43178942e-05 1.76737341e-03 -1.30490889e-03 -9.49722773e-04
    -1.16702868e-03 1.23644993e-03 1.18017464e-03 -1.84433104e-03
    -8.22797301e-04 -8.39696266e-04 -1.37332082e-03 -3.01990635e-03
    -4.60023293e-03 -4.88027837e-03 1.35150785e-03 3.42136668e-03
    1.37481606e-03 5.07525518e-04 -2.19581998e-03 -3.89718963e-03
    -6.04914781e-03 -7.57997809e-03 1.45402492e-03 1.65420212e-03
    3.29216290e-03 2.99876730e-04 -2.38897745e-03 -2.08591274e-03
    -7.66415033e-04 -3.52612929e-03 -3.47525906e-03 -2.67581269e-03
    3.94972460e-03 3.38317477e-03 1.27311284e-03 -4.99960792e-04
    -1.15193683e-03 -2.85716029e-03 -5.51639590e-03 -7.53576541e-03
    -1.14456413e-03 3.39723565e-03 4.85881232e-03 3.00003821e-03
    -3.79544363e-04 -2.07089633e-03 -3.77788465e-03 -5.42843388e-03
    -5.09105809e-03 3.25507252e-03 5.26296860e-03 3.76767153e-03
    8.87144415e-04 -1.74290105e-03 -2.86224135e-03 -5.91012603e-03
    -6.64673466e-03 -3.64119187e-03 -1.07918517e-03 6.83576241e-03
    2.39283475e-03 1.42951915e-03 -1.03184932e-04 -2.16412265e-03
    -3.17863584e-03 -4.60765930e-03 -7.60237686e-03 4.06318402e-04
    7.64349150e-03 2.09214888e-03 2.17668799e-04 -5.41897316e-04
    -3.26582650e-03 -4.55705496e-03 -8.12501367e-03 -6.04806328e-03
    7.74054788e-03 8.14896263e-03 7.04413629e-04 -1.29357958e-03
    -1.27679307e-03 -1.95216062e-03 -2.48696958e-03 -4.82960651e-03
    -1.79430342e-03 3.14083137e-03 5.04876906e-03 -1.31794508e-03
    -3.14475945e-03 -4.71985247e-03 -2.40898621e-03 -6.74869167e-04
    -5.27906418e-03 -3.14233708e-03 3.11992038e-03 7.98758306e-03
    1.47631683e-03 -1.62004999e-05 -1.61289901e-03 -2.31557409e-03
    -2.76158098e-03 -6.42454205e-03 -4.62295813e-03 2.21075211e-03
    6.35415502e-03 6.32579249e-05 -1.00647262e-03 -4.42144740e-03
    -2.57837866e-03 5.62289963e-04 -4.97084111e-03 -3.72774433e-03
    1.57894951e-03 4.12679138e-03 1.39323960e-03 -1.85167417e-03
    -5.27037447e-03 -2.01369892e-03 5.49993187e-04 -6.66154223e-03
    -2.04049749e-03 2.45419564e-03 3.71295190e-03 2.22915062e-03
    1.79033040e-03 -1.02268357e-03 -1.21828436e-03 -1.95304386e-03
    -5.71784237e-03 -1.75033580e-03 3.00295441e-03 7.91682955e-03
    1.01934408e-03 -2.04863655e-03 -4.18474665e-03 -3.54346470e-03
    3.67117173e-04 -3.05724796e-03 -2.78953789e-03 2.67630629e-03
    6.01645606e-03 2.73320242e-03 2.36927648e-03 -3.44856665e-03
    -3.27931810e-03 -2.30223197e-03 -3.45383142e-03 -1.63357006e-03
    2.92633800e-03 1.66246877e-03 3.50579357e-04 3.12354486e-03
    -8.68493051e-04 -2.69629783e-03 -3.72003159e-03 -4.80382564e-03
    -3.91099253e-04 9.77500225e-04 -1.87670370e-03 5.51024277e-04
    2.53867637e-03 -3.39411316e-03 -3.13643622e-03 -1.11878535e-03
    6.24560344e-04 4.50286455e-03 1.73916837e-04 4.24364069e-03
    3.33084469e-03 3.08862608e-03 -3.86296306e-03 -3.87338200e-03
    -2.45658844e-03 -5.31673152e-03 -3.47903301e-03 -8.62894114e-04
    3.16723192e-04 3.25366412e-03 2.86534475e-03 -6.44121692e-03
    -4.95615322e-03 -1.73439668e-03 -2.59666261e-03 -1.13750389e-03
    -5.30704623e-04 -3.45759653e-03 -2.79558561e-04 7.66823883e-04
    -1.70222926e-03 -8.93882941e-04 9.21334198e-04 7.78137357e-04
    4.56412602e-03 -6.51388313e-04 -5.64537849e-03 -3.43264104e-03
    -2.31559272e-03 -2.57632579e-03 -2.25290447e-03 -1.50564034e-03
    2.18570326e-03 3.50159151e-03 -2.10853340e-03 -1.90211611e-03
    1.59512472e-03 3.00196785e-04 -3.68106575e-03 -3.21832206e-03
    1.00484048e-03 1.58650219e-04 -5.75446407e-04 -1.91607221e-03
    -5.46107581e-03 -2.43041478e-03 -3.92114092e-03 -5.19173546e-03
    -2.59159598e-03 5.48867916e-04 2.36966624e-03 2.50941631e-03
    1.28596800e-03 -3.08026513e-03 -3.30898236e-03 -3.09466454e-03
    -3.49959894e-03 -2.04922026e-03 2.97833671e-04 3.59236728e-03
    7.06736837e-03 6.56116230e-04 -1.01119303e-03 -2.34155427e-03
    -3.41483904e-03 -4.46335552e-03 -5.24450559e-03 -2.70535168e-03
    4.12564166e-03 5.32942684e-03 8.58073879e-04 -2.66043749e-03
    -9.93208378e-04 -2.64576613e-03 -4.40234877e-03 -1.65947084e-03
    8.76964070e-04 4.26929211e-03 8.22570827e-03 -4.77248570e-03
    -2.26853695e-03 -2.33984715e-03 -3.72735667e-03 -8.03182018e-04
    -4.39353380e-03 -2.41888617e-03 1.16788445e-03 4.33769403e-03
    2.04342441e-03 8.82017426e-03 3.36158730e-04 -5.34343526e-05
    -4.09052987e-03 -1.62828670e-04 -3.51067120e-03 -9.02441982e-03
    -8.80981144e-03 4.88617830e-03 7.11449003e-03 -2.52458802e-03
    -1.25264691e-04 -6.29341463e-03 -1.76280574e-03 -5.10274293e-03
    -1.11638736e-02 -3.60006373e-03 -1.03085081e-03 6.80155726e-03
    2.99425184e-04 -2.89327436e-04 -3.79359839e-03 2.23801448e-03
    -2.93511571e-03 -9.61594190e-03 -8.92038923e-03 7.43096753e-04
    9.46015399e-03 -3.87280481e-04 -2.61220569e-03 -7.13594491e-03
    -1.41131255e-04 -6.42581237e-03 -9.03594308e-03 -8.81589670e-03
    5.85337682e-03 3.88708245e-03 -3.50160664e-03 -9.83497011e-04
    -4.06339671e-03 -2.91578495e-03 -4.95662121e-03 -8.31634738e-03
    -2.90057826e-04 2.08685617e-03 2.65069259e-03 -7.03458255e-03
    -2.23737885e-03 -1.34131871e-03 -1.65983522e-03 -4.72637452e-03
    -6.60747942e-03 -9.53108596e-04 4.89157718e-03 7.69827003e-03
    -2.35907128e-03 -3.41884606e-03 -5.78143587e-03 -2.32818560e-03
    -6.59898156e-03 -5.56504307e-03 -2.58753682e-03 4.83825896e-03
    1.31784170e-03 -8.03677924e-03 -5.18275425e-03 -4.50909557e-03
    -3.72720393e-03 -6.10414427e-03 -4.23693890e-03 -2.12277984e-03
    4.80821636e-03 2.12771678e-03 -5.69410436e-03 -2.65854201e-03
    -3.05123185e-03 -2.03713099e-03 -2.61456869e-03 -4.33105696e-03
    1.63358368e-03 6.74740644e-03 3.82975070e-03 -4.25145775e-03
    -4.32305358e-04 -5.92089398e-03 -5.09310560e-03 -5.31820301e-03
    -6.18206337e-03 2.47020926e-03 6.64772233e-03 6.61138154e-04
    -7.00612320e-03 -4.69183968e-03 -4.68555046e-03 -3.97306029e-03
    -4.78045270e-03 -4.32416052e-03 -5.55971637e-04 5.22085559e-03
    4.52298811e-03 -5.45577426e-03 -1.81358797e-03 -6.61574956e-03
    -5.88712655e-03 -9.25049838e-03 -7.72458501e-03 -2.38683494e-03
    6.69930456e-03 5.91612048e-03 -2.98616057e-03 7.94181600e-04
    2.89881573e-04 -1.33757060e-03 -5.27538406e-03 -4.35984833e-03
    2.11800355e-03 3.47562437e-03 2.60099908e-03 -6.71695173e-03
    -1.03711092e-03 -2.94473663e-04 -2.00846978e-03 -6.10541599e-03
    -4.26354306e-03 3.18802381e-06 4.15154826e-03 3.91897187e-03
    -5.99161955e-03 -1.40524691e-03 -2.93001742e-03 -2.49465671e-03
    -6.48202747e-03 -3.97604611e-03 -8.48423748e-04 5.01669059e-03
    -4.71403095e-04 -9.80449468e-03 -5.84592298e-03 -4.63307463e-03
    -4.45797062e-03 -9.16656200e-03 -4.72797453e-03 -2.05871207e-03
    8.18986818e-03 1.55970128e-03 -6.45552343e-03 -8.37414525e-04
    -2.63618480e-04 -3.42357694e-03 -6.77833753e-03 -4.30913083e-03
    3.50235798e-03 7.49235181e-03 -1.04836246e-03 -7.09211128e-03
    -3.45983775e-03 -5.39168622e-03 -2.55639083e-03 -3.92851932e-03
    -5.21958061e-03 6.32844225e-04 1.11072036e-02 6.79705001e-04
    -7.14353519e-03 -5.58751542e-03 -3.89219378e-03 -4.47017653e-03
    -9.47168376e-03 -5.77112986e-03 4.42567794e-03 7.58102909e-03
    -3.32074676e-04 -6.51786150e-03 -6.94131153e-03 -6.87036617e-03
    -2.40323297e-03 -5.90600260e-03 -6.67858869e-03 2.54341704e-03
    6.73350133e-03 -1.94764114e-04 -2.65688589e-03 -2.70454935e-03
    -4.48239315e-03 -1.10397558e-03 -2.07046606e-03 -4.29706089e-03
    5.12051811e-05 3.22097912e-03 -2.85464409e-03 -1.43692922e-03
    -3.13079008e-03 -3.54021788e-03 4.21213743e-04 -1.84680102e-03
    -3.18005169e-03 -1.30825513e-03 7.70811224e-03 9.50555375e-04
    -2.50886194e-03 -4.14963579e-03 -2.86461972e-03 -2.02462223e-04
    -2.27366760e-03 -4.72523505e-03 1.67572312e-03 3.02398996e-03
    -5.13857696e-04 -2.44393433e-03 -2.23418884e-03 -1.89581281e-03
    -6.69434667e-04 -1.81723840e-03 -3.11077083e-03 -2.06957920e-05
    5.46156475e-03 1.28192443e-03 2.62033287e-03 1.54537975e-03
    2.21944624e-03 1.72338763e-03 5.22285372e-05 -1.35193230e-03
    1.14937872e-03 1.44286547e-03 5.87971299e-05 2.96566379e-03
    -1.16612494e-03 -5.40691242e-03 -1.27197814e-03 -1.23504177e-03
    -4.13756771e-03 -2.26146728e-03 6.31717779e-03 3.76915699e-03
    -7.85457378e-05 2.27425527e-03 1.82153995e-03 9.77435615e-04
    2.56552617e-03 3.38054233e-04 1.27860601e-03 3.37076467e-03
    1.47778296e-03 7.28896819e-04 -5.05048828e-03 -8.21550656e-03
    -1.99026056e-03 1.28804659e-03 -1.86131382e-03 -1.96289504e-03
    3.10674007e-03 3.99042759e-03 5.57339750e-03 9.90472035e-04
    -1.53608690e-03 -2.99604872e-04 6.26878347e-04 -2.40597571e-03
    -8.67440423e-04 1.66506728e-03 3.76384286e-03 3.43845319e-03
    -7.19891686e-04 -2.88940407e-03 1.56300946e-03 1.28548220e-03
    -1.77215249e-03 -2.50445539e-03 1.29001378e-03 4.16762009e-03
    3.04391328e-03 -3.19417194e-03 -3.47436476e-03 -1.60772994e-04
    8.29931931e-04 -1.74966548e-03 -1.74225855e-03 4.55364323e-04
    9.85097839e-04 6.53291761e-04 -4.19172458e-03 -4.53902641e-03
    2.14957399e-03 2.67525960e-04 -2.74232915e-03 -2.26547546e-03
    1.72638753e-03 3.71022732e-03 1.20491663e-03 -1.57873204e-03
    -1.31095783e-03 3.67807603e-04 1.31193083e-04 -3.40586086e-03
    -3.18544358e-03 -1.17347552e-03 4.40442003e-03 2.64896988e-03
    -4.61291522e-04 -6.78671116e-04 1.04277418e-03 -1.72229332e-03
    -7.03258580e-03 -5.66736143e-03 -1.32746864e-04 1.07531564e-03
    3.26936226e-03 -1.04340131e-03 2.90644210e-04 1.68991275e-03
    6.67768938e-04 -2.87433178e-03 -3.69061762e-03 -1.84021157e-03
    2.00549769e-03 4.67842724e-03 1.26045302e-03 -1.14178681e-03
    1.28242289e-04 -1.88508967e-03 -7.12892506e-03 -5.96702797e-03
    8.85259651e-04 6.03587227e-03 3.26620275e-03 6.36921730e-04
    2.63470487e-04 -4.10947076e-04 -1.54304795e-03 -3.87302157e-03
    -4.78113303e-03 -2.36773834e-04 3.62913124e-03 -1.09895387e-04
    1.00138132e-03 1.52404781e-03 -1.97834056e-03 -2.92155449e-03
    -5.12041990e-03 -4.41211928e-03 1.73927716e-03 5.42158354e-03
    4.39781463e-03 3.15690925e-03 -8.69932701e-04 -7.45512545e-04
    -1.71354588e-03 -5.86529775e-03 -2.88779964e-03 -8.53226578e-04
    2.70055421e-03 1.43776718e-03 3.09808645e-03 7.01592711e-04
    -8.84265173e-04 -3.26471287e-03 -7.12886546e-03 -6.03811396e-03
    4.45078034e-03 5.83101716e-03 3.67815909e-03 2.97903502e-03
    -4.28654748e-04 -1.07567071e-03 -2.32480490e-03 -6.62395777e-03
    -2.65536411e-03 5.54199191e-03 7.46388733e-03 3.38956364e-03
    1.35060784e-03 -3.09968716e-03 -1.10566651e-03 -9.84316575e-04
    -8.17248784e-03 -4.00126912e-03 9.20145889e-04 4.62806178e-03
    4.76289960e-03 4.75200219e-03 -4.03321465e-04 -3.68318550e-04
    -2.44062743e-03 -6.33343775e-03 -5.82277915e-03 6.88612694e-04
    6.49776403e-03 4.40622587e-03 3.42061656e-04 -4.62100748e-03
    -1.29063101e-03 -3.68516264e-03 -8.83415248e-03 -5.84136602e-03
    9.27101448e-03 6.46503177e-03 3.40439932e-04 -1.99388643e-03
    -3.42611014e-03 -2.05404428e-03 1.34291081e-03 -2.52362620e-03
    -8.81181099e-04 5.98163530e-03 6.04538200e-03 2.53523327e-03
    -3.49337846e-04 -2.66548223e-03 -1.14761724e-03 2.38691340e-03
    -2.15340944e-04 7.43398035e-04 8.06814409e-04 4.15726053e-03
    1.34489627e-03 -2.01890199e-03 -2.60261865e-03 -1.14600814e-03
    -1.48692139e-04 -6.46614470e-03 -6.23823423e-03 -1.75946427e-03
    4.07912489e-03 1.53027184e-03 -6.22409687e-04 -1.42916001e-03
    9.53726470e-04 2.08538678e-03 -3.77128343e-03 -6.63289381e-03
    1.56549399e-03 6.73993537e-03 3.48590896e-03 8.69035895e-04
    -2.61783251e-03 -1.69226772e-03 1.43794762e-03 -1.99966016e-03
    -2.40440341e-03 2.98683299e-03 3.61589878e-03 3.59300943e-03
    1.17711653e-03 -3.04212258e-03 -3.29600414e-03 -7.21119941e-05
    -8.34383711e-04 4.33263835e-04 -1.83350628e-03 5.43769635e-03
    2.91104382e-03 1.69958221e-03 1.32008945e-03 -7.80478294e-04
    -1.65996666e-03 -4.92801657e-03 -5.93686989e-03 3.49664735e-03
    4.06239368e-03 3.21754022e-03 1.54587452e-03 -1.75978537e-04
    -3.71232792e-03 -2.61670956e-03 -4.91532683e-03 -2.22083763e-03
    2.30757613e-03 1.10294402e-03 2.51023402e-03 -1.01636013e-03
    -2.41910596e-03 -2.75699538e-03 -3.82024329e-04 3.92991060e-04
    1.97175052e-03 1.13461481e-03 -1.03444443e-03 4.28647094e-04
    -4.11441503e-03 -4.73620091e-03 -1.53242482e-03 1.01015391e-03
    1.09528599e-03 3.33335274e-03 6.36914512e-03 2.68836436e-03
    1.10668514e-03 -2.28694105e-03 -4.41342499e-03 -4.17819666e-03
    -3.27353575e-03 -1.17150834e-03 3.02237482e-03 2.63724942e-03
    -5.26867865e-04 -8.27804441e-04 -6.68485090e-03 -4.93642967e-03
    -3.74170486e-03 -2.31082854e-03 -2.15638406e-03 4.02883114e-03
    -1.88650010e-04 -3.94464098e-03 -1.89048413e-03 -2.86632800e-03
    -3.80335422e-03 -2.17770622e-03 -9.87755833e-04 2.24954216e-03
    5.21592796e-03 -4.22774488e-03 -6.31133653e-03 -3.54088889e-03
    -3.43780429e-03 -2.40070326e-03 -3.23218806e-03 -1.84601056e-03
    3.04215075e-03 6.39759749e-03 -2.36946158e-03 -4.58998466e-03
    -1.31476228e-03 -2.72034877e-03 -2.90695205e-03 -3.42261395e-03
    -5.22389484e-04 9.25391563e-04 6.46000728e-03 -6.02463679e-03
    -7.12766405e-03 -2.00814358e-03 -1.93684641e-03 -2.25989358e-03
    -3.36325215e-03 2.63440027e-03 4.88224626e-03 4.05007275e-03
    1.35075732e-03 8.94963555e-03 -2.19157755e-05 -4.09074331e-04
    -2.29420466e-03 1.34444167e-03 -2.04145210e-03 -7.05631357e-03
    -5.57568111e-03 1.86908315e-03 9.95615870e-03 -1.04678993e-03
    -2.72485800e-03 -6.49888022e-03 4.78484872e-04 -4.79605142e-03
    -5.78084029e-03 -4.68756538e-03 2.65164272e-04 1.98231754e-03
    -4.59303660e-03 -4.31331666e-03 -6.58791605e-03 -2.77570728e-03
    -3.03893094e-03 -8.53908062e-03 -5.26347989e-03 9.69746965e-04
    2.61025783e-03 -8.12713243e-03 -6.59943093e-03 -8.15366115e-03
    -3.86881176e-03 -6.07472146e-03 -9.24413651e-03 -6.05088426e-03
    5.99219650e-03 8.94828513e-03 -2.30955100e-03 -3.28776753e-03
    -8.35266523e-03 -2.22120387e-03 -5.05039655e-03 -3.47538549e-03
    2.02785413e-05 4.18941304e-03 2.46085646e-03 -8.13702587e-03
    -5.70217194e-03 -8.64441320e-03 -5.82572864e-03 -4.84624133e-03
    -1.95668545e-03 2.00243504e-03 5.31532522e-03 4.50607995e-03
    -7.77166896e-03 -4.33506677e-03 -7.92191084e-03 -4.58323676e-03
    -7.84331188e-03 -6.71709655e-03 -1.91239489e-03 1.34180486e-03
    -9.07371170e-04 -1.06712375e-02 -5.44015178e-03 -7.58477720e-03
    -4.99046780e-03 -7.54693616e-03 -6.89498568e-03 -1.53436413e-04
    7.60608632e-03 1.74981146e-03 -7.05167092e-03 -5.56373503e-03
    -6.52312767e-03 -6.36877352e-03 -6.30888715e-03 -5.31224208e-03
    2.53156130e-03 1.11002168e-02 5.25175687e-03 -5.81461424e-03
    -3.62832402e-03 -6.13759877e-03 -7.30159506e-03 -8.69283453e-03
    -6.81487843e-03 9.90762492e-04 4.80356393e-03 6.82306592e-04
    -9.14477743e-03 -5.53442910e-03 -6.17809128e-03 -4.81481384e-03
    -6.66720886e-03 -6.76671462e-03 1.96244637e-03 8.52534361e-03
    2.67994031e-03 -9.03705601e-03 -4.48233215e-03 -6.17927406e-03
    -5.47778793e-03 -1.05144605e-02 -7.26393843e-03 1.61679427e-03
    1.04923863e-02 4.25555184e-03 -4.92532132e-03 -3.23966634e-03
    -4.62316908e-03 -3.55646131e-03 -5.01451176e-03 -3.21829109e-03
    1.24285684e-03 9.55705345e-03 2.41995696e-03 -7.80513277e-03
    -4.28290758e-03 -7.21781095e-03 -5.05123613e-03 -7.62091158e-03
    -3.69757134e-03 1.26841781e-03 1.01657808e-02 3.79054970e-03
    -8.86460114e-03 -3.62934964e-03 -3.75138596e-03 -3.37108714e-03
    -6.70007337e-03 -5.82991447e-03 1.87732733e-03 8.02746136e-03
    -7.80458504e-04 -1.25902072e-02 -3.58106894e-03 -6.57059485e-03
    -5.23688830e-03 -6.52813260e-03 -4.99082590e-03 2.45551346e-03
    1.23154875e-02 3.78528610e-03 -5.73288137e-03 -4.09630174e-03
    -6.72463421e-03 -3.90666071e-03 -1.08152097e-02 -7.17497896e-03
    4.95308731e-03 8.53795931e-03 1.23842934e-03 -5.64900041e-03
    -5.48840500e-03 -6.19425345e-03 -2.31806166e-03 -6.31453702e-03
    -7.40116090e-03 1.23244023e-03 1.03754820e-02 2.45414232e-03
    -8.89345910e-03 -3.49613070e-03 -3.38978041e-03 -3.80124338e-03
    -8.00914876e-03 -5.79231465e-03 4.80289152e-03 8.91062152e-03
    3.41155246e-04 -9.88081098e-03 -6.25715591e-03 -5.98157011e-03
    -2.23591668e-03 -7.82551710e-03 -8.01208150e-03 2.57741078e-03
    6.63883425e-03 -6.12043834e-04 -2.00287439e-03 -2.81453528e-03
    -2.54327059e-03 5.50162804e-04 -4.98885056e-04 -3.14834714e-03
    1.50405162e-03 2.67507136e-03 -2.81831622e-03 -2.18059588e-03
    -9.39326201e-05 -2.01908406e-03 -1.26395363e-03 -1.77632261e-03
    -1.60448707e-03 -9.96359973e-04 6.87296316e-03 -1.20418472e-03
    -5.24976570e-03 -4.38525388e-03 -5.04137948e-03 7.46075937e-04
    -2.13634246e-03 -5.74837858e-03 2.18296843e-03 1.42201665e-03
    -2.80794018e-04 -1.29899732e-03 -1.96015183e-03 -7.24925986e-03
    -3.09015531e-03 -2.50091637e-03 -4.96001448e-03 -1.23405748e-03
    4.47119540e-03 -1.74261149e-04 -2.74321274e-03 2.53241789e-03
    2.05250154e-03 2.08016165e-04 3.04201897e-03 3.36767547e-03
    8.73660378e-04 -9.79704433e-04 -1.94580993e-03 -2.84179463e-03
    -5.40529890e-03 -8.66542663e-03 -1.08001998e-03 2.30402034e-03
    -1.01142781e-04 -1.58453814e-03 3.74776195e-03 4.95153712e-03
    3.37016932e-03 3.86123802e-03 5.92528377e-04 -8.49090342e-04
    2.72835465e-03 6.96895644e-04 -7.79839815e-04 1.16091769e-03
    2.59142020e-03 1.40545401e-03 -4.24360204e-03 -9.94669925e-03
    -2.78367894e-03 6.09015988e-04 -1.10901333e-03 -2.63307709e-03
    -7.48679158e-05 2.86939531e-03 4.20560129e-03 -3.03340494e-03
    -3.36166308e-03 -8.21454523e-05 8.44741182e-04 5.28803575e-05
    3.15797818e-03 -1.59300736e-03 1.99272158e-03 3.95986577e-03
    -2.43593333e-03 -4.95672086e-03 7.57224392e-04 3.77116317e-04
    -2.83806003e-03 -4.78143455e-04 2.44652200e-03 6.17123209e-03
    7.46152364e-03 -3.72640905e-04 -2.61280010e-03 -1.02654728e-03
    1.59772730e-03 1.16940530e-03 2.93286587e-03 -5.38353296e-03
    6.43816264e-03 8.70951358e-03 5.02623757e-03 -1.72289950e-03
    -2.83884234e-04 -8.09493999e-04 -4.26395610e-03 -2.51744338e-03
    -1.05177076e-03 3.11731035e-03 5.84888365e-03 5.53364283e-04
    -1.13920250e-03 -2.37668937e-04 -2.87328672e-04 -3.27607407e-03
    -5.33385528e-03 -1.85756339e-03 5.51263150e-03 6.69518113e-03
    1.05771585e-03 -3.33789084e-03 -1.03026489e-03 -5.48638171e-04
    -4.21670685e-03 -5.61979925e-03 -1.65547628e-03 6.66834367e-03
    7.89641682e-03 5.23796352e-03 1.17302034e-03 1.34144313e-04
    -2.59163557e-03 -6.40435843e-03 -6.05031895e-03 -3.07471422e-03
    1.22807431e-03 4.30612219e-03 2.36044428e-03 -4.35299100e-03
    -1.03370054e-03 -7.11181434e-04 -4.65579750e-03 -7.47589068e-03
    2.13169097e-03 8.02408345e-03 4.93231136e-03 1.60205155e-03
    -2.78495229e-03 -1.03573641e-03 3.23072542e-04 -3.44618387e-03
    -3.43858730e-03 1.40337157e-03 7.02526374e-03 5.60775399e-03
    3.89002875e-04 -2.52244971e-03 -2.87397741e-03 -3.32772266e-03
    -6.05164748e-03 -5.18568931e-03 -1.86734041e-03 3.32014915e-03
    5.43266395e-03 2.15221336e-03 -3.71730234e-03 -1.29727705e-03
    2.50382413e-06 -3.06739332e-03 -6.36675674e-03 -1.10266835e-03
    5.08032972e-03 6.92711258e-03 -7.73941807e-04 -4.48194286e-03
    -4.47070412e-03 -3.95504525e-03 -5.27677452e-03 -5.63916471e-03
    4.76945454e-04 5.21256169e-03 6.06482523e-03 2.76370789e-03
    -1.22816465e-03 -2.49161827e-03 -2.08246033e-03 -4.22326755e-03
    -6.11224445e-03 -4.37833602e-04 3.84330563e-03 2.46798387e-03
    3.41659732e-04 -1.90800673e-03 3.14390287e-04 -1.05539896e-03
    -3.92006477e-03 -4.95319441e-03 -1.02632085e-03 5.21919644e-03
    8.86155572e-03 3.22716404e-03 -1.67445838e-03 -2.87743681e-03
    -2.37916224e-03 -4.29771189e-03 -4.36256919e-03 -4.25504195e-03
    -2.09171022e-03 1.89140381e-03 2.48953584e-03 2.13407358e-04
    1.87611231e-03 1.00290473e-03 -2.71925377e-03 -2.83014518e-03
    -1.00606449e-04 4.47331928e-03 3.16809327e-03 -1.05958723e-03
    2.99577950e-04 1.06153905e-03 -2.87757954e-04 -4.60814359e-03
    -5.79063920e-03 4.42163087e-04 6.64311554e-03 5.26257511e-03
    -3.64004401e-04 -1.38290809e-03 -1.87177298e-04 -8.38736130e-04
    -4.50107874e-03 -4.64423699e-03 2.94143334e-03 4.14714712e-04
    4.61073621e-04 -1.48532609e-03 -8.15489766e-05 1.02928746e-03
    1.37377251e-03 -2.59347586e-03 -8.85528454e-04 6.82738051e-03
    6.02298137e-03 5.56751713e-03 -1.21135218e-03 -3.43625341e-03
    -1.13988866e-03 9.66198451e-04 -4.29988233e-03 -1.79985212e-03
    1.70798576e-03 6.97796326e-03 3.86390439e-03 2.52938680e-05
    -1.76970579e-03 -3.21516139e-03 -4.96302871e-03 -3.48870642e-03
    -7.16875074e-04 2.42662919e-03 5.65559231e-03 2.98538548e-03
    7.61696792e-05 -1.98399811e-03 -3.94096458e-03 -4.56370460e-03
    -2.26232136e-04 1.30268128e-03 3.36682308e-03 5.42522920e-03
    2.90295575e-03 -1.95249962e-03 -3.79938702e-03 -3.85302422e-03
    -2.79297493e-03 -3.47038219e-03 -4.03212005e-04 1.65390898e-03
    3.14384047e-03 -1.47587736e-03 -3.50338453e-03 -2.47370242e-03
    -2.84450641e-03 -3.94096918e-04 3.23201602e-05 6.80733938e-04
    1.17129635e-03 1.99129991e-03 6.20487495e-04 -2.29542935e-03
    -3.18716303e-03 -1.71399687e-03 5.36666717e-04 3.85345286e-03
    4.41944599e-03 1.18282833e-03 1.86038809e-03 4.44812060e-04
    -4.91718575e-03 -4.02083294e-03 -1.87079667e-03 1.30660133e-03
    3.50015773e-03 2.89458921e-03 -1.24107755e-03 3.54459247e-04
    -1.34394714e-03 -1.98429753e-03 -2.08937796e-03 -1.33606012e-03
    4.21962515e-03 4.57663555e-03 4.22192767e-04 -4.94457083e-03
    -3.16803134e-03 -1.18215394e-03 -2.39235093e-03 -1.97999366e-03
    -1.38899649e-03 4.90788836e-03 5.10175806e-03 -2.55518639e-03
    -1.09476631e-03 3.63236963e-04 1.27844897e-03 -2.21835263e-03
    -1.78828789e-03 -7.50739593e-04 2.91014626e-03 2.18018284e-03
    3.52557236e-03 -4.56703966e-03 -3.25705810e-03 1.05490733e-04
    -2.76072347e-03 -2.89705489e-03 -1.62029662e-03 3.75173497e-03
    3.51837976e-03 1.17169833e-03 -4.81241150e-03 -3.82377184e-03
    -4.03397251e-04 -1.78149284e-03 -6.60372374e-04 1.87093008e-03
    6.17460534e-03 5.14570251e-03 -7.18639931e-04 -2.01569428e-03
    -2.14768643e-03 1.46874052e-03 -4.56907740e-03 -1.75160682e-03
    -1.54728733e-03 3.84765211e-03 4.06890921e-03 1.99322775e-03
    4.60954104e-03 4.02523391e-03 -3.14333313e-03 -4.41315770e-03
    -4.59232461e-03 -3.20053683e-03 -1.66405994e-03 -4.68401052e-03
    -4.46092337e-03 4.30792011e-03 6.86150882e-03 -4.11860272e-03
    -3.88746755e-03 -4.92961891e-03 -2.75969598e-03 -5.75437723e-03
    -7.63277756e-03 -3.09556420e-03 -1.06668053e-03 3.95702757e-03
    -2.92243739e-03 -5.45573002e-03 -6.52149087e-03 -2.15163897e-03
    -5.21639967e-03 -1.05203632e-02 -9.10713896e-03 -2.39172974e-03
    1.26670976e-03 -6.72055222e-03 -5.77347353e-03 -6.84177317e-03
    -1.76424917e-03 -7.29963789e-03 -8.44404846e-03 -5.19175595e-03
    5.87420445e-03 3.30758793e-03 -4.29800386e-03 -2.35652225e-03
    -3.68399988e-03 -1.15294475e-03 -6.67000934e-03 -5.43144252e-03
    2.31331083e-04 3.42635880e-03 3.11518437e-04 -7.18029775e-03
    -3.30183981e-03 -4.98883938e-03 -9.02426138e-04 -4.06675693e-03
    -3.55956703e-03 1.90426610e-04 1.79257698e-03 1.57740398e-03
    -6.83017820e-03 -4.22822032e-03 -6.28777780e-03 -1.52941456e-03
    -8.08127318e-03 -7.21348403e-03 1.42132893e-04 5.14557911e-03
    1.17851782e-03 -8.02983344e-03 -5.85409580e-03 -9.34774987e-03
    -2.52550608e-03 -7.77148083e-03 -8.15015752e-03 2.80748121e-04
    4.12987173e-03 1.48968340e-03 -7.11105065e-03 -4.16623894e-03
    -4.32330230e-03 -2.06963997e-03 -6.31966628e-03 -4.19306895e-03
    4.46776394e-04 7.54796667e-03 2.79941480e-03 -7.61096179e-03
    -3.78843909e-03 -5.16198482e-03 -1.19844638e-03 -9.05913487e-03
    -5.35628293e-03 1.32345501e-03 6.01911778e-03 2.54106894e-03
    -6.03431650e-03 -6.56832941e-03 -7.94092845e-03 -4.31868806e-03
    -8.34615994e-03 -6.33149501e-03 6.77106029e-04 6.15702709e-03
    2.75953964e-04 -6.61005685e-03 -4.22182633e-03 -4.79091797e-03
    -2.26169033e-03 -9.89073142e-03 -8.03788379e-03 2.43358640e-03
    7.77765596e-03 1.70616398e-03 -7.26863509e-03 -1.67799043e-03
    -1.75836298e-03 -6.11842770e-05 -6.21065591e-03 -5.76082757e-03
    -2.35689353e-04 8.41415673e-03 -1.50454405e-03 -1.11323949e-02
    -3.09397606e-03 -2.94206035e-03 -2.32444191e-03 -6.24289783e-03
    -5.57690579e-03 1.78870268e-03 9.44764912e-03 1.54502911e-03
    -7.10375700e-03 -3.92436935e-03 -2.03518872e-03 -7.89292681e-04
    -7.72256823e-03 -8.70619155e-03 2.28960044e-03 7.25610554e-03
    1.45806454e-03 -9.82700475e-03 -4.82118595e-03 -2.16966565e-03
    -3.32470844e-03 -8.25539511e-03 -8.27661995e-03 -3.49651236e-04
    1.10860597e-02 1.77022314e-03 -8.85787513e-03 -2.81908223e-03
    -1.64516026e-03 -1.48674985e-03 -6.86244713e-03 -5.42296469e-03
    3.95858614e-03 1.30354986e-02 2.08050734e-03 -8.14609230e-03
    -3.34621151e-03 -3.90641019e-03 -1.40851014e-03 -8.83935858e-03
    -8.56798980e-03 3.28972237e-03 8.62625986e-03 2.09255097e-03
    -1.00548500e-02 -4.45050607e-03 -4.53574210e-03 -2.61332677e-03
    -6.80791261e-03 -7.63582904e-03 1.51449942e-03 9.07496270e-03
    3.13946931e-03 -8.79104994e-03 -4.07997798e-03 -9.13048908e-03
    -2.21159426e-03 -8.81715305e-03 -1.19383698e-02 9.99046606e-04
    9.95413028e-03 2.37445696e-03 -3.82840727e-03 -1.79924595e-03
    -3.87629052e-03 6.55580079e-04 -4.48763045e-03 -8.71943869e-03
    1.59008050e-04 4.19511553e-03 3.33484239e-03 1.17330717e-04
    -9.11511423e-04 -6.02797559e-03 -8.49636679e-04 -1.48061139e-03
    -8.10341816e-03 -4.50327061e-03 7.60751870e-03 3.37586179e-03
    -3.96729307e-03 -5.50860539e-04 -5.66678308e-03 1.63936231e-04
    -4.75749653e-03 -9.40690935e-03 -9.05491761e-04 2.16052798e-03
    1.08747138e-03 -1.73433800e-03 -1.28835498e-03 -5.56202559e-03
    -1.21392870e-04 -3.63309658e-03 -8.19994509e-03 -3.72125348e-03
    3.47954663e-03 6.68447837e-03 4.75432584e-03 3.79636558e-03
    4.90917533e-04 8.63956939e-06 3.28970666e-04 -1.63904182e-03
    -2.36796425e-03 1.60341826e-03 1.91868935e-03 1.30217662e-03
    -3.46888811e-03 -9.68779251e-03 -1.26205978e-03 6.90581335e-04
    -2.60100584e-04 -5.54879662e-04 1.81002833e-03 3.62146110e-03
    3.59673705e-03 3.07909818e-03 2.99107458e-04 2.07141857e-03
    3.12771990e-05 -3.28062032e-03 3.26589128e-04 -1.87530590e-03
    4.67269775e-03 5.26155671e-03 -4.38434258e-03 -8.97272583e-03
    -4.65493285e-05 2.46982905e-03 -1.15487271e-03 -1.16530270e-03
    1.04187857e-04 3.80441616e-03 6.06951211e-03 -1.15206341e-04
    -3.51067842e-03 -2.40380570e-04 2.87713017e-03 1.82834500e-03
    -7.97605317e-04 -6.25574309e-03 3.92093929e-03 8.87464918e-03
    1.89999084e-03 -3.37572419e-03 -4.18546755e-04 -2.64897739e-04
    -2.95089558e-03 -7.78492866e-03 -6.17199636e-04 1.07551906e-02
    1.14796339e-02 8.25923402e-04 -1.10929995e-03 2.62138201e-04
    3.89306364e-03 1.88535498e-03 -4.04104777e-03 -5.03634010e-03
    9.29861236e-03 1.08559132e-02 2.21466599e-03 -4.44698753e-03
    -1.27636222e-03 2.33559913e-04 -7.11574976e-05 -7.51643954e-03
    -3.72291286e-03 4.34795022e-03 8.57940502e-03 4.54994803e-03
    1.23829592e-03 2.01425923e-04 -2.34928448e-03 -3.47340433e-03
    -6.84559252e-03 -4.81542852e-03 1.49378076e-03 4.59874468e-03
    2.89474078e-03 -2.92406883e-03 -1.21660437e-03 -1.33844779e-03
    -3.84042668e-03 -9.27401800e-03 -5.46841044e-03 4.26226901e-03
    1.12977754e-02 6.31724391e-03 4.88921534e-04 -9.68496432e-04
    -7.81745068e-04 -4.28741128e-04 -7.39301322e-03 -8.03303998e-03
    -3.87245120e-04 8.33753124e-03 1.42610294e-03 -4.13158862e-03
    -1.06178236e-03 -2.41226191e-03 -2.44678417e-03 -8.74940027e-03
    -1.17283780e-03 4.93865972e-03 8.82859528e-03 2.71217129e-03
    -1.25652424e-03 -1.02080905e-03 -1.02112896e-03 -4.02955944e-03
    -6.57405192e-03 -4.54881723e-04 7.07954587e-03 8.00764002e-03
    1.35654269e-03 -2.75932113e-03 -3.68360267e-03 -2.90323352e-03
    -3.80682875e-03 -4.31348244e-03 -3.50533309e-03 4.28520329e-03
    9.49695799e-03 1.05597335e-03 -1.32711732e-03 -2.63450597e-03
    -2.87498301e-03 -3.75894317e-03 -6.96885679e-03 -7.39706308e-03
    3.27832252e-03 8.85387883e-03 1.27697643e-03 4.44009871e-04
    -3.88237578e-03 -4.72795172e-03 -6.77673938e-03 -1.00585194e-02
    -1.61728577e-03 3.78951523e-03 7.88147561e-03 3.76821286e-03
    -1.80679583e-03 -1.42977620e-03 -1.33241038e-03 -2.35845405e-03
    -3.28420987e-03 -3.36177181e-03 -3.44352884e-04 1.73349679e-03
    2.50710757e-03 -2.08510901e-03 2.59976648e-03 1.17821235e-03
    -1.72494515e-03 -2.58054258e-03 -7.00966129e-03 1.54890632e-03
    7.90045224e-03 5.96407009e-03 3.82237067e-03 5.00865164e-04
    -2.08605290e-03 -4.54656361e-03 -9.57816653e-03 -4.23402572e-03
    1.44796027e-03 2.79114116e-03 2.72576790e-03 3.19258147e-03
    3.46911466e-03 -8.85851332e-04 -3.42707266e-03 -8.74625333e-03
    2.52515986e-03 2.69256695e-03 1.34552584e-03 7.00400269e-04
    -1.00223825e-03 2.01695133e-03 1.99883850e-03 -1.92475168e-03
    -2.00781738e-03 6.93488214e-03 6.22265181e-03 3.84294824e-03
    3.39290273e-04 -2.68471008e-03 -7.93074607e-04 9.84079437e-04
    -5.31352218e-03 -3.81217804e-03 1.48753388e-04 5.25294337e-03
    4.66508558e-03 3.74199729e-03 5.55774779e-04 1.84339064e-03
    -8.68936768e-04 -4.47882572e-03 -5.04348148e-03 3.38328118e-03
    6.86116191e-03 4.97056590e-03 1.74600119e-03 -4.75721620e-03
    -1.36450585e-03 -2.78395048e-04 -6.39930274e-03 -4.47160378e-03
    4.78610117e-03 5.24493493e-03 3.60607030e-03 -1.72896816e-05
    -1.94564508e-03 -2.39562360e-03 1.04911342e-05 -3.85032687e-03
    -2.18428834e-03 1.04303355e-03 3.45764356e-03 1.23225350e-03
    -9.80923069e-04 -1.51766720e-03 7.76637626e-06 1.67864503e-03
    -6.81830221e-04 -1.34769676e-03 3.34735052e-03 5.14321448e-03
    5.24636963e-03 1.49319391e-03 -7.46509933e-04 -3.62705672e-03
    -2.21587694e-03 -4.61681234e-03 -2.34985445e-03 7.79864029e-04
    5.33351675e-03 6.82473648e-03 2.74144491e-04 -3.66017543e-04
    1.28427098e-04 -2.74128921e-04 -2.11609132e-03 -3.39022768e-03
    -1.48667139e-03 -3.40403147e-07 7.63159071e-04 7.35091526e-05
    3.21036641e-04 3.45926092e-04 1.91582344e-03 4.07873216e-04
    -3.31110950e-03 -5.11900382e-03 -5.56748640e-03 -5.09684323e-04
    -5.32463775e-04 3.63056292e-03 -7.61874602e-04 -1.19717799e-04
    7.27599618e-05 -3.82836279e-03 6.39419071e-04 3.93713312e-03
    5.54599008e-03 1.66176981e-03 3.07140453e-03 2.95374566e-03
    5.83472465e-05 -3.43405781e-03 -3.81446187e-03 -1.48672506e-03
    3.89490882e-03 5.28972782e-03 3.30618746e-03 5.09032607e-03
    -3.21892294e-04 -2.23458069e-03 -4.22727596e-03 -5.87216299e-03
    -5.79183456e-03 -4.96506412e-03 -7.80769682e-04 -5.06131502e-04
    3.69268353e-03 1.69744948e-03 2.28671008e-03 1.15512696e-03
    -3.12895561e-03 -4.57025459e-03 -3.39525100e-03 6.82111888e-04
    -1.83412374e-03 2.97966204e-03 -4.91126033e-04 1.66701223e-03
    9.92198475e-04 -2.53604073e-03 -3.03334813e-03 1.87112484e-03
    5.86297549e-03 2.13746028e-03 4.55632154e-03 -9.14234784e-04
    7.71055464e-04 -1.91207553e-04 -5.08851930e-03 -4.41238098e-03
    8.95952748e-04 5.53844683e-03 1.75952353e-03 2.49869493e-03
    -1.10748212e-03 2.93978490e-03 1.24260958e-03 -4.25543683e-03
    3.24329408e-03 4.60602343e-03 -2.52170837e-03 -3.75302788e-03
    -6.16295496e-03 -3.12778191e-03 -3.81598203e-03 -8.27638153e-03
    -4.27637994e-03 6.12654584e-03 2.19836715e-03 -5.83270984e-03
    -4.49436577e-03 -6.20384002e-03 -3.67607712e-03 -6.16403390e-03
    -7.00504333e-03 3.32516560e-04 3.38516780e-03 6.10145321e-03
    -6.70354813e-03 -3.92454816e-03 -7.28519773e-03 -4.19003284e-03
    -4.51242970e-03 -1.02344677e-02 -6.62836386e-03 3.60237504e-03
    4.70201921e-04 -8.34420230e-03 -7.26537453e-03 -6.40212605e-03
    -5.29767992e-03 -8.45563412e-03 -8.36953241e-03 -5.37050795e-03
    9.20717511e-03 3.41113121e-03 -4.90940642e-03 -4.53112181e-03
    -6.06512371e-03 -4.08538897e-03 -7.98306800e-03 -7.33635481e-03
    1.83267903e-03 9.12830234e-03 3.87409143e-03 -5.23217954e-03
    -4.55054641e-03 -8.49365164e-03 -3.55857238e-03 -6.80538313e-03
    -7.83461146e-03 3.04218684e-03 3.12652206e-03 -1.37162674e-03
    -5.42797009e-03 -6.94103353e-03 -4.81135910e-03 -4.78742504e-03
    -8.60279426e-03 -9.31094680e-03 -3.53402691e-03 1.65923068e-03
    -2.61874800e-03 -4.98929759e-03 -5.75925270e-03 -5.94653795e-03
    -4.78358101e-03 -9.21577308e-03 -1.12866433e-02 -2.85527762e-03
    1.05692400e-02 3.94176506e-03 -3.20061436e-03 -4.78920294e-03
    -7.79826520e-03 -3.24133760e-03 -6.25084946e-03 -5.74078877e-03
    4.66706743e-03 1.00087235e-02 7.94871943e-04 -5.20080514e-03
    -4.47543571e-03 -3.63928755e-03 -3.31885298e-03 -8.08535796e-03
    -7.68874865e-03 1.50989939e-03 4.57664719e-03 -1.87689683e-03
    -6.42757956e-03 -5.50689874e-03 -5.51436841e-03 -3.04525229e-03
    -6.77499501e-03 -6.49206806e-03 -5.43602917e-04 4.47775144e-03
    -6.06003567e-04 -8.31953250e-03 -7.10764155e-03 -8.63741711e-03
    -3.55479773e-03 -6.95273886e-03 -8.34767986e-03 -1.24415185e-03
    1.15617337e-02 6.98071963e-05 -5.49881021e-03 -3.85412108e-03
    -1.58282905e-03 -2.48072366e-03 -5.81346173e-03 -4.74265683e-03
    1.12754386e-03 1.18169105e-02 3.46298737e-04 -8.26987531e-03
    -4.98964544e-03 -3.71541106e-03 -3.88366263e-03 -6.20956719e-03
    -5.10911457e-03 2.79444561e-04 8.19426682e-03 9.37324890e-04
    -7.32889585e-03 -6.26305025e-03 -7.90519826e-03 -3.06679658e-03
    -4.63319663e-03 -4.30385815e-03 7.95996457e-05 9.10721906e-03
    -1.75756097e-04 -8.91559105e-03 -7.00335158e-03 -8.34938139e-03
    -5.73278358e-03 -8.36822763e-03 -6.69314619e-03 8.43537564e-05
    1.12159504e-02 5.05578355e-04 -9.47851781e-03 -5.41855488e-03
    -6.64320728e-03 -3.08544887e-03 -4.90423245e-03 -5.98827563e-03
    1.08752854e-03 1.14635415e-02 4.05158708e-03 -7.14686047e-03
    -4.46603401e-03 -8.16563796e-03 -1.09979394e-03 -5.09107951e-03
    -7.82894809e-03 -7.74538377e-04 1.34486146e-02 1.45738758e-03
    -1.07502295e-02 -7.74298236e-03 -8.16779584e-03 -3.62748047e-03
    -7.31760310e-03 -6.31721783e-03 1.58804760e-03 9.62945912e-03
    4.77936538e-03 -7.53667485e-03 -6.90287305e-03 -7.12553645e-03
    -1.68626569e-03 -5.79996826e-03 -6.90032588e-03 -1.69548462e-03
    8.39573517e-03 5.60938707e-03 -2.67908233e-03 -4.72146145e-04
    -5.81289921e-03 -8.09399120e-04 -4.60156146e-03 -6.90928148e-03
    -3.18998308e-03 4.07394255e-03 4.72495519e-03 -2.96882726e-03
    -4.22817160e-04 -5.12551516e-03 -1.40911725e-03 -3.72042437e-03
    -7.57368142e-03 -4.03964240e-03 6.85491972e-03 7.09855650e-03
    -1.05216436e-03 -2.12002802e-03 -4.01739171e-03 -2.26408686e-03
    -5.26718749e-03 -9.43758432e-03 -4.67816461e-03 2.77686468e-03
    6.84044883e-03 -2.03056983e-03 -6.15047640e-04 -5.25546446e-03
    -3.75050167e-03 -4.85943630e-03 -9.28916503e-03 -7.91232567e-03
    7.20666815e-03 5.78063494e-03 6.66104956e-04 1.73600286e-03
    7.46525766e-04 1.87866879e-03 4.50801395e-04 -3.82454298e-03
    5.18241781e-04 1.92679185e-03 7.58753484e-03 6.84783654e-03
    -5.12138335e-03 -9.52726789e-03 -1.08239043e-03 4.25588951e-04
    -3.19798151e-03 -2.93907430e-03 7.48606119e-03 9.89471562e-03
    9.41191858e-04 1.87749276e-03 1.81031507e-03 1.22772274e-03
    -6.78420474e-04 -3.71643319e-03 -1.74605672e-03 7.50244828e-04
    5.33659058e-03 1.16157302e-04 -7.93026388e-03 -9.08466429e-03
    6.06362119e-05 -2.43135239e-03 -4.16406291e-03 -2.46685161e-03
    8.07342411e-04 1.30241942e-02 1.41993528e-02 -1.13171083e-03
    -5.84827177e-03 -1.59963639e-03 1.30993733e-03 1.52003180e-04
    -4.34363820e-03 -2.88472488e-03 9.33542755e-03 9.18548275e-03
    9.57944198e-04 -3.11143417e-03 -1.59560805e-04 -7.29545602e-04
    -1.94424263e-03 -6.96753943e-03 -2.00916998e-04 8.79855454e-03
    7.50408042e-03 -3.46212531e-03 -5.34354569e-03 1.47636875e-03
    1.11732130e-04 -1.47043716e-03 -2.72652810e-03 -2.10926123e-03
    5.73581411e-03 3.66981188e-03 1.20100367e-03 -3.43569531e-03
    1.22897234e-03 -1.95871620e-03 -5.03945211e-03 -6.05999585e-03
    -1.83371012e-03 7.58149987e-03 9.62914899e-03 4.15910361e-03
    1.36053644e-03 -6.29120448e-04 -2.32644123e-03 -2.15561548e-03
    -5.20029292e-03 -8.24396778e-03 1.38345861e-03 9.00697801e-03
    9.01703024e-04 -2.10763491e-03 -1.31027796e-03 -3.64848459e-03
    -4.83381003e-03 -7.62925949e-03 1.37499359e-03 5.20787155e-03
    4.54666838e-03 3.12761404e-03 4.68641374e-04 -3.71626666e-04
    -3.82325659e-03 -3.32470448e-03 -3.60867823e-03 -6.90376852e-03
    2.10298458e-03 4.08862205e-03 4.99589136e-04 -4.07866761e-03
    -2.70905206e-03 -3.89688066e-03 -3.23773292e-03 -8.20248853e-03
    -5.02002705e-03 3.46337236e-03 9.54651181e-03 2.39256234e-03
    1.33401062e-03 -1.56112807e-03 -2.94331880e-03 -3.67994537e-03
    -5.08347061e-03 -8.06023367e-03 -1.53651083e-04 8.14608485e-03
    3.62492562e-03 5.23072248e-03 -2.44747876e-04 -3.54896858e-03
    -5.25594596e-03 -7.38125574e-03 -5.13644749e-03 5.53979725e-03
    4.08235937e-03 3.12184589e-03 2.45359447e-03 9.01373278e-04
    -3.46759742e-04 -1.62400177e-03 -6.24249037e-03 -4.30644816e-03
    3.12033953e-04 1.55603385e-03 6.64649438e-03 5.72543079e-03
    2.59106047e-03 -8.61411740e-04 -2.85807741e-03 -7.13634584e-03
    -7.00736791e-03 7.00616394e-04 8.36988166e-03 5.78885525e-03
    5.56671713e-03 2.26829224e-03 -1.54406903e-03 -5.45474235e-03
    -1.00927353e-02 -4.56964131e-03 2.92004202e-03 5.75221330e-03
    3.36526427e-03 4.39827703e-03 2.30390485e-03 -4.20047232e-04
    -5.40594058e-03 -8.98436736e-03 -5.17876307e-03 3.68788867e-04
    6.23649778e-03 7.48859532e-03 1.50441646e-03 1.05131429e-03
    1.26501790e-03 -1.80166890e-03 -6.66734343e-03 -5.33284852e-03
    2.51347362e-03 6.49237307e-03 5.07390313e-03 3.11444676e-03
    -1.60653051e-03 3.28229740e-04 -4.69133817e-03 -8.85726232e-03
    -6.85135543e-04 5.67064481e-03 5.84742706e-03 2.31367839e-03
    2.51455489e-03 -4.55967442e-04 -7.00446602e-04 -5.33163687e-03
    -4.22866317e-03 1.90043135e-03 6.78212335e-03 4.76471195e-03
    1.83449709e-03 -2.78871669e-03 -2.73171463e-03 1.10858484e-04
    -5.92066068e-03 -3.68815451e-03 -4.00158949e-03 4.44790488e-03
    6.18249923e-03 4.13686130e-03 6.64497586e-03 -3.49786063e-03
    -7.77839567e-04 -4.99287248e-03 -7.42454315e-03 -4.16779844e-03
    6.61545154e-03 8.63811281e-03 2.84695369e-03 2.36792141e-03
    -3.69646074e-03 1.71971810e-03 -4.48006578e-03 -7.39144161e-03
    1.44520483e-03 5.42996917e-03 3.60926753e-03 8.05566553e-04
    3.56205361e-04 -3.68877104e-03 -2.61798297e-04 -3.79834045e-03
    -2.27607531e-03 3.44561925e-03 5.73527440e-03 5.09607187e-03
    1.55989884e-03 2.51591043e-03 -1.02817523e-03 -5.58797445e-04
    -2.33036652e-03 -2.68603629e-03 -1.48532516e-03 6.25492260e-03
    4.95802518e-03 2.11984530e-04 -4.56278096e-04 -5.01024723e-03
    1.58637727e-03 -2.86958204e-03 -4.73616924e-03 1.02576695e-03
    6.19736454e-03 5.93832880e-03 5.26264729e-03 8.73876386e-04
    -2.92806048e-03 1.26561360e-03 -1.01365545e-03 -1.76522334e-03
    2.68507516e-04 3.06886830e-03 4.83390223e-03 1.70790683e-03
    1.68426661e-03 1.80878886e-03 8.39071639e-04 -3.32930125e-03
    -5.64084761e-03 -3.90054844e-03 1.94811274e-03 2.81261629e-03
    2.27637985e-03 -5.85625763e-04 9.32816183e-04 2.33483850e-03
    -2.82985345e-03 -7.31611159e-03 -3.78361298e-03 -7.72375497e-04
    6.00762479e-03 5.76602994e-03 -4.03094193e-04 9.26007458e-04
    2.23002024e-03 -1.46324269e-03 -3.05048609e-03 -4.72201826e-03
    -3.85892275e-03 3.55322752e-03 2.88505410e-03 -2.35179882e-03
    2.74138246e-03 4.25501168e-03 -2.41907802e-03 -2.64966441e-03
    -1.60032394e-03 3.34406248e-03 3.94390896e-03 2.23448081e-03
    -9.17866360e-04 -5.81222354e-04 2.53435830e-03 -2.95473961e-04
    -4.16841218e-03 -8.77682120e-04 8.46711628e-04 2.76434398e-03
    -1.29895913e-03 -2.30568252e-03 -3.77667346e-03 -1.38309377e-04
    1.92794483e-03 -2.01898534e-03 -3.60282697e-03 -2.05237116e-03
    4.30089235e-03 2.89460854e-03 2.50683461e-05 6.26245164e-04
    3.46436421e-03 7.41430908e-04 -1.21555070e-03 -2.10306584e-03
    -8.76910577e-04 4.65927133e-03 1.84506192e-04 -3.16363905e-04
    -4.73170867e-03 2.53758044e-03 3.03411996e-03 -2.27432325e-03
    4.70164791e-03 6.62599551e-03 -3.43755540e-03 -2.65926099e-03
    -6.46827742e-03 -2.77439272e-03 -4.34621563e-03 -5.96082350e-03
    -3.46766831e-03 4.38195840e-03 5.05240168e-03 -2.66060396e-03
    -3.78778111e-03 -2.61586928e-03 -3.61665175e-03 -6.87770173e-03
    -4.83991206e-03 -4.82069096e-03 3.20007006e-04 1.69826858e-03
    -3.46893747e-03 -4.11385205e-03 -5.04590943e-03 -3.74901993e-03
    -8.16108380e-03 -7.05091329e-03 -4.70113242e-03 -2.95856327e-04
    2.96555599e-03 -3.10191861e-03 -3.56133352e-03 -2.33767624e-03
    -4.01749415e-03 -8.21400899e-03 -7.48129701e-03 -6.39933767e-03
    3.27168778e-03 2.12831353e-03 -3.09833069e-03 -4.84891795e-03
    -2.48873187e-03 -2.92733498e-03 -7.04450626e-03 -6.99342601e-03
    -4.53730254e-03 3.37664271e-03 1.99421775e-03 -3.67411762e-03
    -5.33516472e-03 -5.69885783e-03 -3.05036386e-03 -6.92018447e-03
    -8.46055988e-03 -3.37981433e-03 2.84524984e-03 6.00754982e-03
    -2.34598434e-03 -4.54671821e-03 -4.70467517e-03 -4.27844236e-03
    -8.26333277e-03 -8.66775960e-03 -6.59695268e-03 4.06304002e-03
    6.40935823e-03 -4.33019176e-03 -5.42693445e-03 -8.08683131e-03
    -2.27481988e-03 -7.68139306e-03 -9.98267438e-03 -4.85976972e-03
    6.39086030e-03 3.06770531e-03 -4.76266909e-03 -4.97242762e-03
    -5.96842077e-03 -1.76825351e-03 -3.59754963e-03 -3.93846771e-03
    -2.80052802e-04 7.43203610e-03 3.76598048e-03 -6.53072586e-03
    -5.95398620e-03 -7.93052465e-03 -1.85494823e-03 -4.60745953e-03
    -2.38514529e-03 2.47582421e-03 5.67048648e-03 4.84398566e-03
    -4.08891821e-03 -3.91883776e-03 -7.77895469e-03 -8.45922739e-04
    -4.52414621e-03 -5.14600752e-03 -4.92409710e-03 5.06048370e-03
    1.51289301e-03 -6.38246490e-03 -4.31337021e-03 -7.85348099e-03
    -1.02703995e-03 -5.07815229e-03 -3.59945651e-03 -1.32400857e-03
    9.26423073e-03 5.33482851e-03 -5.21047832e-03 -4.30346048e-03
    -7.37220561e-03 -2.04230123e-03 -4.38026618e-03 -1.80373050e-03
    2.97668134e-03 1.10924607e-02 3.07342503e-03 -7.77907483e-03
    -6.14298647e-03 -5.86235709e-03 -3.06316325e-03 -5.14699006e-03
    -3.93765280e-03 1.94988004e-03 6.04838505e-03 2.86316010e-03
    -6.30743103e-03 -5.07719070e-03 -5.64143946e-03 -1.29906795e-04
    -3.13995313e-03 -2.25965236e-03 -2.49904901e-04 6.68048719e-03
    5.94556273e-04 -7.29744649e-03 -6.48605172e-03 -5.40720159e-03
    -1.16520654e-03 -2.83527584e-03 -2.26109521e-03 -1.05230417e-03
    1.38718430e-02 4.19487711e-03 -7.50232488e-03 -6.17623143e-03
    -5.07836090e-03 -2.10577645e-03 -5.96061256e-03 -4.64187469e-03
    1.74809678e-03 1.07715242e-02 6.32175244e-03 -4.02174424e-03
    -4.54301760e-03 -6.89395098e-03 -7.36334012e-04 -4.34275577e-03
    -6.42572436e-03 -2.57866690e-03 8.27557780e-03 6.65409898e-04
    -6.86778501e-03 -4.05559177e-03 -3.30424542e-03 -1.18121249e-03
    -4.32858896e-03 -5.19782910e-03 -2.63647712e-03 6.39398256e-03
    2.90073361e-03 -5.05986949e-03 -1.82562531e-03 -6.49697240e-03
    3.90930014e-04 -4.40568477e-03 -9.38507915e-03 -6.40952168e-03
    8.21640901e-03 9.05417278e-03 -2.41731709e-06 -1.72738219e-03
    -5.12416661e-03 -1.19928992e-03 -2.20598839e-03 -7.58914044e-03
    -4.33495222e-03 5.41461771e-03 8.42972100e-03 -5.55832812e-04
    -2.83916743e-04 -3.55169154e-03 -1.78353454e-03 -2.93107401e-03
    -8.32116324e-03 -7.40392320e-03 4.70333500e-03 7.30430568e-03
    -1.54277694e-03 -2.84875603e-03 -6.82011247e-03 7.24007783e-04
    -3.26854456e-03 -9.63576790e-03 -7.47166062e-03 4.13397327e-03
    6.22386951e-03 -1.70337851e-03 -3.90540017e-03 -7.87862390e-03
    -1.36479572e-03 -4.67903493e-03 -1.20334812e-02 -5.69975795e-03
    7.07495911e-03 6.69727335e-03 1.34163362e-04 2.69888109e-03
    2.97243241e-03 1.74231338e-03 -4.74620356e-05 -1.96898263e-03
    -3.85159720e-03 2.36708074e-04 1.27571018e-03 9.69958317e-04
    -5.09980647e-03 -6.56281412e-03 1.19879935e-03 -1.01916186e-04
    -2.27720593e-03 -3.74023663e-03 7.21408240e-03 9.52009857e-03
    4.78548277e-03 4.00391407e-03 3.13068391e-03 1.22267741e-03
    -3.37641541e-04 -6.24804478e-03 -3.31355073e-03 -1.41683631e-04
    6.01675967e-03 6.20785868e-03 -4.47456958e-03 -6.35832362e-03
    -8.39813147e-04 8.95057514e-04 -4.54410724e-03 -4.13121702e-03
    2.23844219e-03 6.87037362e-03 4.75985045e-03 -1.56861276e-03
    -1.87909964e-03 1.86638068e-03 2.92972487e-04 -1.79906422e-03
    -3.73889599e-03 -1.17055408e-03 6.10282458e-03 2.13216292e-03
    8.00370763e-04 -2.74014031e-03 7.01480079e-04 -1.60757196e-03
    -3.29099293e-03 -5.11037000e-03 2.51940708e-03 8.32643174e-03
    6.38731476e-03 -4.69759852e-03 -1.50385033e-03 -4.31407767e-04
    2.89531844e-03 2.07645143e-03 -9.47917652e-05 -3.12534365e-04
    6.97212433e-03 3.16745904e-03 -9.99524840e-04 -1.89146493e-03
    5.92905562e-04 1.87334499e-05 -1.16989959e-03 -2.38080462e-03
    -1.84486399e-03 2.47117691e-03 1.85516255e-03 1.42520352e-03
    5.22011833e-04 -1.66675460e-03 -1.46290706e-03 -1.68935303e-03
    -5.17578516e-03 -4.69910912e-03 1.10495649e-03 -4.53834276e-04
    -7.31707434e-04 -3.34313954e-03 -4.18321323e-03 -1.97542761e-03
    -8.81873188e-04 -7.86911696e-03 6.66063977e-04 5.60465921e-03
    6.03203429e-03 4.90843272e-03 2.27073464e-03 -1.38271612e-03
    6.20738836e-04 -1.91190327e-03 -3.04340315e-03 -2.16883980e-03
    2.86006671e-03 5.64945349e-03 5.35876816e-03 -3.65942670e-03
    -6.66138204e-03 -2.35861377e-03 -2.34570820e-03 -5.14160562e-03
    -3.83309252e-03 3.27241793e-03 6.66808104e-04 6.71562739e-04
    -1.79652614e-03 -8.83810455e-04 7.66058511e-04 4.52082204e-05
    -6.18922804e-03 -5.91451814e-03 -1.86962646e-03 3.69936577e-04
    3.19759781e-03 1.02553226e-03 -8.79011466e-04 -1.08899036e-03
    -1.62594789e-03 -5.51321078e-03 -1.31369010e-03 5.18382853e-03
    6.73647085e-03 4.57860203e-03 -2.75790319e-03 -1.25238171e-03
    -6.07091410e-04 -8.50332144e-04 -3.85193457e-03 -2.02255254e-03
    1.04681379e-03 4.68746293e-03 3.98881873e-03 1.21560867e-03
    -4.29814691e-06 -1.59631122e-03 -4.26020985e-03 -4.42653988e-03
    -4.20653587e-03 -2.06743553e-03 1.79763383e-03 6.07595826e-03
    1.42514822e-03 -1.21601601e-03 -3.74231371e-04 -2.04694737e-03
    -4.58860397e-03 -2.14809435e-03 1.11019181e-03 1.69804355e-03
    8.12431041e-04 -2.14051164e-04 -3.07101430e-03 -2.65363400e-04
    -3.30828247e-03 -7.19602266e-03 -2.39731534e-03 5.96857339e-04
    5.47744380e-03 5.18742437e-03 3.97006888e-03 1.68179628e-03
    2.01985566e-03 -3.94462608e-03 -5.92246652e-03 -3.94292921e-03
    3.62706161e-03 -6.96572301e-04 -4.06700326e-03 -1.57405797e-03
    -8.71851575e-04 2.47293781e-03 -4.81393142e-03 -8.03174172e-03
    -1.57567812e-03 3.15699936e-03 1.30161794e-03 1.57996663e-04
    2.31429655e-03 -2.26112991e-03 1.08101289e-03 -2.54810276e-03
    -7.66509632e-03 -2.48929462e-03 5.94734028e-03 5.35961194e-03
    2.29839678e-03 -1.21304917e-03 -2.55091116e-03 2.51904060e-03
    -1.55398727e-03 -6.92711910e-03 -1.88356102e-03 3.87416314e-03
    -3.02196102e-04 -3.09815607e-03 -8.67979368e-04 -5.77246479e-04
    5.00850286e-03 -1.59193960e-03 -4.52443166e-03 -1.12199155e-03
    5.54028759e-03 4.91256826e-03 3.25492700e-03 -1.45331374e-03
    1.15860149e-03 6.12960989e-03 -1.53756802e-04 -3.05896974e-03
    -1.44116359e-03 4.44481336e-03 3.38388351e-03 2.22676271e-03
    -1.90239702e-03 -3.60743562e-03 1.06708461e-03 -2.33202637e-03
    -6.18535653e-03 1.66169571e-04 6.49627484e-03 4.81484784e-03
    3.42334458e-03 -1.85067777e-03 -2.60931882e-03 -3.30004026e-04
    -2.77864118e-03 -5.59974834e-03 -1.94027147e-03 5.85026154e-03
    6.67640893e-03 5.13684144e-03 -5.73032245e-04 6.21247687e-04
    2.75243632e-03 -9.28933616e-04 -6.12438424e-03 -2.33781597e-04
    7.61059765e-03 5.90489293e-03 2.21121474e-03 3.02977022e-03
    -4.91859973e-04 -1.28167390e-03 -3.68283968e-03 -6.72907149e-03
    -1.48445216e-03 4.17208672e-03 6.38508005e-03 5.62633527e-03
    -4.68279410e-04 -1.17865123e-03 4.38469055e-04 -1.03514886e-03
    -4.78009926e-03 -2.23086402e-03 -1.17482233e-03 4.76830546e-03
    2.83581787e-03 -3.93523462e-03 -1.86184421e-03 7.22177094e-04
    -5.27418277e-04 -2.86110071e-03 4.24694997e-04 3.94756952e-03
    2.32137367e-03 1.86908594e-03 2.68685445e-03 -2.09573540e-03
    -5.11045975e-04 -1.53172144e-03 -4.11975849e-03 -3.23220575e-03
    -9.23705753e-04 3.47398990e-03 1.82806340e-03 -2.19457014e-03
    -4.27102437e-03 -7.90033781e-04 -1.06282032e-03 -3.38657969e-03
    -1.50493544e-03 -8.36610561e-04 6.39991229e-03 3.38648772e-03
    -9.41950013e-04 -1.46629871e-03 8.28744262e-04 1.24069676e-03
    -1.58437237e-03 -4.95579932e-03 1.41268526e-03 7.61788525e-03
    8.21905269e-05 -7.55788293e-04 -4.13352111e-03 2.47383304e-03
    1.14727288e-03 -4.10758238e-03 -2.02814024e-03 1.08030136e-03
    7.20404135e-03 3.71357193e-03 -2.63493188e-04 -9.58055549e-04
    7.66133366e-04 -7.77146488e-04 -5.07620582e-03 -3.37387482e-03
    2.40222085e-03 8.53242818e-03 1.44700741e-03 -1.30737113e-04
    -2.64266110e-03 6.32936659e-04 -1.16684253e-03 -5.48291579e-03
    5.27834194e-03 5.40402252e-03 -3.00693931e-03 -5.06658340e-03
    -3.58897517e-03 -3.87722231e-03 -7.75977364e-03 -5.46246162e-03
    -1.48262456e-03 1.93611183e-03 5.26108686e-03 -1.52188831e-03
    -5.53459954e-03 -4.12154105e-03 -4.55511315e-03 -6.77825697e-03
    -6.64349925e-03 -5.30143781e-03 5.84095856e-03 3.83631815e-03
    -2.79711932e-03 -5.71916718e-03 -6.56024925e-03 -4.71171224e-03
    -7.42724258e-03 -7.61222374e-03 -3.75679717e-03 2.12135795e-03
    4.58371453e-03 -1.63798814e-03 -8.84113275e-03 -6.12833304e-03
    -4.09937091e-03 -7.05289561e-03 -9.54622496e-03 -9.84433386e-03
    4.55902796e-03 6.44764071e-03 -1.53693755e-03 -5.32245636e-03
    -5.33919921e-03 -4.31031734e-03 -6.10455964e-03 -6.25344273e-03
    -4.68270062e-03 3.61588690e-03 6.44564722e-03 -2.80604837e-03
    -5.21822693e-03 -4.45218338e-03 -9.47886088e-04 -5.31807216e-03
    -6.44625025e-03 -6.31332770e-03 3.27187963e-03 5.94502594e-03
    -2.05567596e-03 -7.49762356e-03 -5.59619209e-03 -4.33114264e-03
    -5.87959820e-03 -1.01208985e-02 -1.10736359e-02 1.77477847e-03
    2.65255314e-03 -5.82899014e-03 -5.26102912e-03 -4.39058244e-03
    -2.42913910e-03 -4.37846640e-03 -8.52900464e-03 -9.94290784e-03
    5.21557964e-03 5.64264832e-03 -1.71997538e-03 -3.33121186e-03
    -3.45625449e-03 -1.66997139e-04 -3.55072413e-03 -4.95775696e-03
    -6.64850511e-03 5.42588206e-03 5.85245062e-03 -3.58782499e-03
    -4.05831588e-03 -4.23438940e-03 -2.72688386e-03 -4.68741357e-03
    -5.06898761e-03 -1.91933895e-03 9.05695546e-04 4.51744534e-03
    -4.99084499e-03 -5.70566207e-03 -3.96275101e-03 -1.82607432e-03
    -2.55852658e-03 -5.06888051e-03 -9.46935359e-03 3.89130134e-03
    4.28429246e-03 -4.91792476e-03 -5.72416512e-03 -3.82364751e-03
    -2.71338015e-03 -4.86339116e-03 -5.54117840e-03 -3.09841055e-03
    6.80084853e-03 3.93292634e-03 -3.05681163e-03 -4.97322250e-03
    -4.44041518e-03 -1.12809089e-03 -4.29480197e-03 -4.44572140e-03
    1.15960697e-03 6.84795761e-03 4.02296428e-03 -6.32133102e-03
    -5.64146880e-03 -7.00539444e-03 -8.50075390e-04 -3.53792566e-03
    -1.72151497e-03 -2.30602687e-03 7.31294695e-03 5.39500685e-03
    -4.37868200e-03 -4.10874840e-03 -3.02664447e-03 -1.79908890e-03
    -6.24699006e-03 -5.16533060e-03 -4.49206302e-04 6.69995835e-03
    9.50865075e-03 -5.63938357e-03 -5.40263439e-03 -6.12587575e-03
    -2.96730758e-03 -8.54532793e-03 -6.97603961e-03 -3.68929771e-03
    8.27684347e-03 3.67816188e-03 -5.01370616e-03 -3.57239693e-03
    -5.25620719e-03 -8.38510867e-04 -3.49236350e-03 -2.17060768e-03
    -2.37753638e-03 7.59124942e-03 4.01038537e-03 -5.71978139e-03
    -1.88406475e-03 -4.38706996e-03 -3.38948419e-04 -3.94207845e-03
    -4.37534554e-03 -3.09058139e-03 6.85734721e-03 9.85049549e-03
    -4.14098147e-03 -4.94712638e-03 -5.89394476e-03 -2.12092325e-03
    -7.87091628e-03 -7.87832215e-03 -4.56399936e-03 4.61633410e-03
    7.20435707e-03 -5.35373064e-03 -4.23211278e-03 -7.93302990e-03
    -2.15671817e-03 -5.38342725e-03 -6.36272551e-03 -5.76410582e-03
    6.58193603e-03 5.28907729e-03 -3.94964218e-03 -9.26240464e-04
    -3.37071065e-03 5.44090115e-04 -2.74246931e-03 -5.94311394e-03
    -6.51718723e-03 4.59864363e-03 6.32398017e-03 -6.15186698e-04
    -1.52577111e-03 -4.94159060e-03 -8.09228281e-04 -3.41799529e-03
    -8.29437748e-03 -5.50567126e-03 3.44403926e-03 7.09123490e-03
    -4.60225577e-03 -7.81821378e-04 -4.56389086e-03 -1.38465827e-03
    -3.14800837e-03 -6.59896061e-03 -7.77793117e-03 3.58376093e-03
    8.09351448e-03 -3.15976766e-04 -9.93733178e-04 -2.14121677e-03
    -5.42754133e-04 -3.80522711e-03 -7.36747170e-03 -6.94679143e-03
    5.44199999e-03 1.07735693e-02 7.57913338e-03 4.45423881e-03
    2.91031715e-03 4.90734994e-04 1.02760480e-03 -4.24236897e-03
    -2.25717435e-03 1.35906925e-03 6.68265484e-03 6.03838731e-03
    -7.13057397e-03 -6.89717662e-03 -1.64683745e-03 2.38078833e-03
    -1.30786526e-03 -2.88698822e-03 5.15987491e-03 9.67514515e-03
    3.13964323e-03 1.80895976e-03 4.10696911e-03 1.30574754e-03
    4.37552459e-04 -3.68518778e-03 -3.64462286e-03 2.73371523e-04
    7.87128136e-03 -2.15525483e-03 -1.34626199e-02 -9.37292539e-03
    -3.04170349e-03 1.76543894e-03 -2.64121173e-03 -2.98532052e-03
    1.53110083e-03 6.81706518e-03 5.20934490e-03 -6.22415915e-03
    -4.55200486e-03 -1.36229687e-03 4.08850424e-03 1.42906851e-03
    -6.49018402e-05 -1.09021657e-03 6.69661956e-03 3.60389473e-03
    -1.56426057e-03 -8.39693239e-04 7.14898459e-04 2.81126681e-03
    -1.63177447e-03 -3.90459364e-03 3.73553834e-03 1.09290145e-02
    4.29994427e-03 -7.34680379e-03 -6.31982042e-03 -1.72149832e-03
    2.39159400e-03 -9.86192026e-04 -4.17121872e-03 3.39088059e-04
    3.54515738e-03 3.05317971e-03 6.69726403e-04 -1.59551948e-03
    1.04238966e-03 2.05249968e-03 -4.05638013e-03 -6.71122223e-03
    5.68175747e-04 4.17406205e-03 5.70834940e-03 3.64808599e-03
    1.39150041e-04 -5.45620278e-04 1.60633284e-03 -2.31894339e-03
    -8.92772630e-04 -1.96700031e-03 -3.70915310e-04 4.47369087e-03
    3.55703128e-03 -5.07609360e-03 -3.08328238e-03 1.50234543e-03
    -3.34920711e-03 -3.40459566e-03 -3.01965303e-03 -5.05937438e-04
    -2.08146498e-03 1.08448823e-03 5.11187653e-04 -1.55144968e-04
    1.59709691e-03 -2.93108798e-03 -3.30812437e-03 -2.57639145e-03
    -4.97567561e-03 -3.38179781e-03 -2.13435548e-03 -1.11733947e-03
    -3.23117315e-03 6.91099733e-04 -2.49029673e-03 -3.20614642e-03
    2.80066306e-04 2.73393723e-03 5.64372819e-03 4.05046484e-03
    -1.62796176e-03 -6.26256748e-04 -3.02478264e-04 -3.04821902e-03
    -3.24772624e-03 -3.48906964e-04 3.95514537e-03 3.06074345e-03
    9.15401790e-04 -1.71611353e-03 -5.87656512e-04 -8.89049959e-04
    -3.63980536e-03 -3.43893305e-03 1.06822408e-03 1.00759976e-03
    4.09187051e-03 2.64901761e-03 1.63136618e-04 -2.55662156e-03
    -2.28461716e-03 -2.52677477e-03 -2.45115743e-03 -2.91161379e-03
    7.18466879e-04 1.98080228e-03 -2.04292894e-03 -4.06591501e-03
    -3.49357119e-03 -2.27938709e-03 -2.90236948e-03 -5.38178161e-03
    1.36072654e-03 5.43293683e-03 6.05540909e-03 1.25739572e-03
    -1.47783919e-03 4.35455207e-04 2.90145446e-03 -1.33622438e-03
    -3.56337358e-03 -2.39044148e-03 3.58713255e-03 -2.26192782e-03
    -6.96945004e-03 -2.25616409e-03 -1.20398239e-03 3.96359852e-03
    -1.70087710e-03 -4.33191378e-03 -3.51132290e-03 8.47898424e-04
    5.17913094e-03 -1.95607496e-03 -1.33212458e-03 -1.08558568e-03
    9.87203559e-04 5.14035928e-04 -4.31726640e-03 -4.13448457e-03
    -1.03122054e-03 -2.34569493e-03 -4.81262896e-03 1.39757569e-04
    4.23609279e-04 3.51805380e-03 1.48602761e-03 -4.98797232e-03
    -4.90461476e-03 2.55893137e-05 -3.55692138e-03 -5.69139421e-03
    6.85245905e-04 -1.88942626e-03 4.33884049e-03 -1.18899415e-03
    -5.37121575e-03 -2.21678009e-03 4.41627670e-03 3.31829931e-03
    3.26663652e-03 4.66952857e-04 1.46976090e-03 5.21058170e-03
    -9.66784311e-04 -5.74050797e-03 -7.25945737e-03 -1.50398153e-03
    -1.72123616e-03 -7.51173429e-05 6.41146721e-03 3.27085960e-03
    5.20381518e-03 1.19498023e-03 -8.01339094e-03 -8.10523890e-03
    -2.07525154e-04 4.77886759e-03 8.12289119e-03 6.61377842e-03
    2.83373985e-03 6.39298372e-03 3.68291512e-04 -9.13445745e-03
    -1.07856945e-03 6.09472347e-03 7.66091421e-03 5.24234399e-03
    -3.09044844e-04 1.83903496e-03 2.93025374e-03 -5.38340712e-04
    -6.46304386e-03 -1.77263620e-03 5.93830505e-03 4.91553545e-03
    2.23039417e-03 4.35923738e-03 -5.90088137e-04 4.73316351e-04
    -2.66497210e-03 -6.95333630e-03 -6.71322970e-03 -1.46295771e-03
    3.66695481e-03 7.76534760e-03 3.03753489e-03 2.82018539e-03
    3.29265604e-03 -3.13562516e-04 -7.93283805e-03 -7.41841039e-03
    -3.14440019e-03 2.16061156e-03 4.79378272e-03 5.55139175e-03
    1.89269194e-03 4.19308338e-03 -1.63985929e-03 -1.02970079e-02
    -2.98383500e-04 2.02351017e-03 2.70946394e-03 1.88458443e-03
    4.23016539e-03 -3.95969808e-04 9.11651645e-04 -1.08347926e-03
    -3.55316629e-03 -2.80039385e-03 1.92313187e-03 4.71327407e-03
    3.58509063e-03 4.96421708e-04 -1.80332316e-03 -3.50679131e-03
    -2.69241724e-03 -4.35958896e-03 -6.54371129e-03 -1.61904562e-03
    4.99887718e-03 6.34462107e-03 2.25050701e-03 2.87991576e-03
    3.91775277e-03 -1.57594110e-03 -8.71230662e-03 -7.70553853e-03
    2.00904696e-03 4.36822325e-03 7.57488934e-03 4.62441094e-04
    -1.80982007e-03 -7.65927252e-04 -2.80129188e-03 -8.75486620e-03
    -2.46989890e-03 2.45412393e-03 6.16224622e-03 3.59013933e-03
    -1.03350950e-03 -1.99746387e-03 -1.58157002e-03 -1.42221199e-03
    -4.57604835e-03 -2.93875509e-03 3.04248347e-03 7.30360439e-03
    2.41586473e-03 -3.75189912e-03 -4.93341265e-03 -3.10088275e-03
    -2.61725648e-03 -5.78721892e-03 -7.33804610e-03 1.33948296e-03
    6.74757082e-03 7.58934859e-03 -4.86220262e-04 -3.52135301e-03
    4.01904515e-04 -9.20283666e-04 -7.93432631e-03 -7.88610987e-03
    1.03540171e-03 7.18787173e-03 4.71169315e-03 -2.47065001e-03
    -5.52759366e-03 -5.09013538e-04 -1.40660594e-03 -8.16887710e-03
    5.70915919e-03 3.34339170e-03 -1.54273130e-03 -3.48484935e-03
    -6.03821408e-03 -2.96632992e-03 -4.87926509e-03 -5.69001399e-03
    -1.80549652e-03 3.32664303e-03 1.86244829e-03 2.23149284e-04
    -5.62119624e-03 -2.90483329e-03 -2.69823521e-03 -5.00361761e-03
    -8.01112875e-03 -8.40335805e-03 5.60443150e-03 4.07421787e-04
    -6.01939671e-03 -4.61029401e-03 -5.46743302e-03 -2.58391188e-03
    -4.27490240e-03 -5.66625874e-03 -1.87174461e-04 -8.09695048e-04
    -2.95028236e-04 -4.42005740e-03 -6.23223837e-03 -3.34010227e-03
    -3.11306864e-03 -6.04570564e-03 -7.80671742e-03 -4.18327376e-03
    1.64637528e-03 4.21370333e-03 1.30231818e-03 -4.89032036e-03
    -2.27691769e-03 -2.41367915e-03 -3.09585710e-03 -8.23242124e-03
    -1.19417068e-02 5.68811025e-04 7.24004814e-03 -2.48623802e-03
    -2.75704917e-03 -2.15994613e-03 -1.41075510e-03 -1.81504397e-03
    -6.84615690e-03 -1.18871331e-02 -3.62367049e-04 4.65586456e-03
    -2.30842084e-03 -5.92491077e-03 -2.57395790e-03 -7.67834659e-04
    -3.23714898e-03 -5.57462312e-03 -7.76397018e-03 -1.65395113e-03
    3.93673033e-03 -3.98073811e-03 -2.24963529e-03 -1.30565302e-03
    1.43811537e-03 -1.80116657e-03 -3.94580094e-03 -9.00199916e-03
    1.81475328e-03 6.58738939e-03 -2.99909827e-03 -2.45006802e-03
    -1.69026747e-03 2.91477510e-04 -1.06174743e-03 -3.09466035e-03
    -6.97599538e-03 3.78175266e-03 5.60557051e-03 -1.34108833e-03
    -2.10033148e-03 -2.68599275e-03 3.18059319e-04 -2.85281474e-03
    -4.07656236e-03 -3.24206939e-03 2.06820856e-04 5.11952024e-03
    -2.00222945e-03 5.24286472e-04 -2.25037499e-03 -7.09211672e-05
    -3.91825940e-03 -4.70936019e-03 -7.16481172e-03 2.24661967e-03
    7.99251534e-03 8.60252767e-04 -1.59629504e-03 -4.14806558e-03
    -1.37839594e-03 -4.19473881e-03 -6.71606371e-03 -7.03037670e-03
    3.76132457e-03 6.07509073e-03 -1.55698496e-03 -2.75770621e-03
    -2.70950375e-03 -8.76611448e-04 -4.09146631e-03 -3.63735552e-03
    -2.88813352e-03 6.58204826e-03 7.73909409e-03 -3.91522283e-03
    -3.45517020e-03 -3.13434540e-03 -2.23287893e-03 -6.27676025e-03
    -5.85822249e-03 -4.44692839e-03 5.29928692e-03 9.79594421e-03
    6.98965450e-04 -5.46747074e-03 -5.87997213e-03 -2.26044888e-03
    -2.57403171e-03 -4.48791822e-03 -6.51130406e-03 5.53151080e-03
    7.88844284e-03 -5.17267920e-03 -5.28145256e-03 -7.41886394e-03
    -3.61785805e-03 -4.98102512e-03 -6.93118945e-03 -4.93052835e-03
    9.75128356e-03 6.57819537e-03 -3.88855441e-03 -4.37345915e-03
    -2.87513388e-03 -7.40494987e-04 -6.00043358e-03 -6.84151612e-03
    -5.00032026e-03 8.62917583e-03 8.39475170e-03 -5.25147188e-03
    -3.61088896e-03 -5.37026022e-03 -6.36484707e-04 -4.17268928e-03
    -6.20527193e-03 -4.59760521e-03 9.38857533e-03 6.13242621e-03
    -7.36416643e-03 -5.35091478e-03 -4.28983010e-03 -8.06663360e-04
    -3.50185903e-03 -4.75357519e-03 -6.31652772e-03 7.12741958e-03
    6.92880526e-03 -5.21439454e-03 -3.31321894e-03 -4.20823786e-03
    -9.55613214e-04 -4.18395549e-03 -4.72185342e-03 -5.07143466e-03
    5.54138282e-03 8.10232945e-03 -5.51123312e-03 -2.01745448e-03
    -4.97724209e-03 -1.39124761e-03 -3.37645411e-03 -4.68080537e-03
    -5.96873788e-03 3.47511540e-03 5.52080944e-03 -3.36018531e-03
    -2.26542950e-04 -2.14468874e-03 1.42952346e-03 -2.34893616e-03
    -5.45667484e-03 -3.96643905e-03 3.58925457e-03 6.59452984e-03
    -3.46124475e-03 -1.74517190e-05 -3.59476381e-03 -8.75441823e-04
    -4.66953823e-03 -6.84260717e-03 -6.19238755e-03 2.11158441e-03
    3.61380447e-03 -1.77127006e-03 1.32415572e-03 -3.97736439e-03
    9.17623576e-04 -2.56914296e-03 -7.81206228e-03 -4.69098613e-03
    5.04109450e-03 7.63749657e-03 1.83416391e-03 1.43170112e-03
    4.90963971e-03 2.82133580e-03 6.57576951e-04 -3.07173096e-03
    6.91097330e-06 3.26551218e-03 7.26135634e-03 -9.75796487e-04
    -1.27179716e-02 -8.19506496e-03 -3.59019963e-03 -9.60912948e-05
    -2.15710700e-03 -7.03392259e-04 5.44415647e-03 6.61892397e-03
    2.59977626e-03 1.76665036e-03 2.54492788e-03 3.03727877e-03
    2.13160971e-03 -7.90224934e-04 2.72457558e-03 2.47640838e-03
    5.44214854e-04 -4.49964684e-03 -1.41258948e-02 -9.50678345e-03
    -3.11982655e-03 1.23073778e-03 -1.36347953e-04 2.17355136e-03
    6.64816098e-03 1.05380723e-02 3.63437994e-03 -6.01560157e-03
    -5.33516472e-03 -1.89652853e-03 1.01251272e-03 -3.67596163e-04
    -3.40074912e-04 1.75833947e-03 4.35339799e-03 2.09873170e-03
    1.07644626e-03 -5.50365192e-04 -1.49944186e-04 -5.08726051e-04
    -2.57458701e-03 -4.88255639e-03 3.14733991e-03 6.50628516e-03
    4.37309919e-03 -6.43415982e-03 -3.33030289e-03 -5.56239451e-04
    2.88635120e-03 -1.15255581e-03 1.64940045e-03 -1.06900674e-03
    4.69438452e-03 5.48144337e-03 -1.59625360e-03 -2.67689978e-03
    -3.34962551e-03 8.94442783e-05 -4.22219001e-03 -2.62307632e-03
    -6.85036357e-04 -8.15326930e-04 -8.89463874e-04 5.82248496e-04
    2.84569513e-04 -2.27204524e-03 1.49141386e-04 -2.20012385e-03
    -1.55937008e-03 1.38852978e-03 6.24422741e-04 2.48825736e-03
    2.57456239e-04 -1.26717007e-03 -4.19965293e-03 -1.00511545e-03
    -2.07100017e-03 -7.16357434e-04 -1.35400961e-03 -5.86530834e-04
    2.79353117e-03 7.59315226e-05 -3.81437058e-05 -4.80435928e-03
    -2.00607954e-03 -3.77978012e-03 -1.54572772e-03 -1.32445933e-03
    -1.69048575e-03 3.66884028e-03 2.15776986e-03 -2.40355759e-04
    -3.48652643e-03 -1.80686405e-03 -4.43737255e-03 -2.51110410e-03
    4.38068574e-03 4.25737584e-03 4.48776037e-03 2.30497331e-03
    -4.21585399e-04 -3.27931298e-03 -8.64927890e-04 -7.46756210e-04
    -1.46691373e-03 4.40561882e-04 1.04128465e-03 2.77603068e-03
    -3.64319934e-03 -2.38575274e-03 -3.64520634e-03 -9.13799799e-04
    -6.28322014e-04 -2.88718264e-03 -2.75329291e-03 6.28272712e-04
    3.02598160e-03 2.61835521e-03 -9.96441697e-04 -1.80310788e-04
    2.73762248e-03 -1.38824177e-03 -4.41870838e-03 -4.95223003e-03
    -2.04619719e-03 -1.16691878e-03 -4.44028573e-03 -1.46770559e-03
    1.05766085e-05 1.60318264e-03 -3.23612388e-04 -5.46805840e-03
    -3.62474890e-03 -1.75976695e-03 1.23670127e-03 -3.52406804e-03
    1.72706423e-04 -1.72744645e-03 -5.98020444e-04 -9.90798580e-04
    -4.70522139e-03 -5.86113427e-03 -1.89358019e-03 -8.43780348e-04
    -1.94468163e-03 2.86820531e-03 1.64308073e-03 1.66778220e-03
    -1.49013998e-03 -5.44305099e-03 -1.97318173e-03 -1.32930884e-03
    -1.65830553e-03 -3.81765678e-03 7.36419635e-04 1.37371782e-04
    2.24285084e-03 2.43841088e-03 -3.14806495e-03 -6.95760362e-03
    1.01316546e-03 5.09023573e-03 6.35401160e-03 6.97488012e-03
    2.17591086e-03 5.88421477e-03 1.32759486e-03 -5.73796453e-03
    -8.92175641e-03 -2.55742623e-03 1.21976237e-03 2.29271245e-03
    5.77904889e-03 3.29239457e-03 2.13474641e-03 -4.15477483e-03
    -1.03280209e-02 -1.12837823e-02 -1.32277247e-03 4.54019941e-03
    6.14625635e-03 2.68491241e-03 1.22753467e-04 2.33661523e-03
    -3.74339079e-03 -1.03369867e-02 -8.89386330e-03 -1.75462046e-03
    6.16968283e-03 7.20200036e-03 1.08899670e-02 2.98668607e-03
    4.18914109e-03 -3.14818299e-03 -1.15667665e-02 -1.07369572e-02
    6.78631768e-05 7.99816474e-03 7.49387359e-03 4.63085808e-03
    6.66594133e-04 4.60558524e-03 -1.77842320e-03 -1.02370055e-02
    -8.05331767e-03 1.38849090e-03 6.59956224e-03 7.99354631e-03
    1.04980276e-03 5.83057117e-04 2.82524666e-03 -1.15592254e-03
    -7.28814956e-03 -7.96201546e-03 -8.21239519e-05 6.44061994e-03
    4.96337377e-03 1.12081610e-03 2.58355954e-04 3.14070657e-03
    -1.93791289e-03 -8.15781299e-03 -5.66316582e-03 2.33546365e-03
    6.42454624e-03 6.30749855e-03 -6.97015785e-04 5.46132760e-05
    5.23066614e-03 5.26051456e-03 -3.30765708e-03 -7.23569375e-03
    2.21322247e-04 7.41624972e-03 6.82243495e-04 1.35806052e-03
    -1.31000677e-04 3.98311112e-03 9.85557330e-04 -6.55006478e-03
    -5.44745149e-03 6.63170358e-04 7.78152980e-03 4.73061204e-03
    1.98722281e-03 1.65631506e-03 3.48692387e-03 1.20470955e-04
    -7.30847707e-03 -6.37336681e-03 1.07841089e-03 6.64708251e-03
    7.27784261e-03 9.12003277e-04 -2.06313538e-03 9.03614389e-04
    -6.19457918e-04 -7.92784337e-03 -6.73701474e-03 -3.26785119e-03
    5.76511724e-03 3.87436291e-03 3.89715028e-03 9.22763778e-04
    2.73036305e-03 1.43091730e-03 -5.64969052e-03 -9.86429304e-03
    -4.81742853e-03 1.98612851e-03 5.03576733e-03 1.07063481e-03
    -2.49064504e-03 -2.10040458e-03 7.54214067e-04 -5.83343720e-03
    -5.22155827e-03 2.34753941e-03 7.12182652e-03 5.33796521e-03
    8.41554487e-04 -2.81850901e-03 2.25869822e-03 -8.36923020e-04
    -7.00362818e-03 -4.89981147e-03 5.48675703e-03 8.20742641e-03
    1.04288489e-03 -1.77717360e-03 -3.31610208e-03 4.27591731e-04
    -1.30415650e-03 -6.72841165e-03 -7.85374548e-03 -1.83298660e-03
    4.59335931e-03 8.69768090e-04 8.18181376e-04 -2.29619257e-03
    1.43766881e-03 1.66496215e-03 -5.58528304e-03 -5.70167648e-03
    3.52398679e-03 7.80920871e-03 -1.59926340e-03 -6.85856096e-04
    -2.86224554e-03 2.35545845e-03 5.09211677e-04 -6.09452184e-03
    7.00409478e-03 3.00755142e-03 -5.34423115e-03 -4.80558584e-03
    -3.61093786e-03 -2.69627455e-03 -3.08088586e-03 -3.20959045e-03
    1.62158313e-03 6.88102795e-03 5.11310389e-03 -2.69282679e-03
    -4.05413751e-03 -2.05179630e-03 -1.84556423e-03 -5.77764725e-03
    -6.13602158e-03 -8.12270911e-04 7.05129292e-04 -1.57576776e-03
    -4.19951510e-03 -4.68979916e-03 -2.63956655e-03 -2.16886355e-03
    -3.71795474e-03 -6.12095138e-03 -5.49285160e-03 4.48699866e-04
    3.21601448e-03 -4.77745710e-03 -1.26698927e-03 -1.83388777e-03
    -3.17090598e-04 -4.72716568e-03 -8.71824939e-03 -7.81854335e-03
    3.51780443e-03 2.63651297e-03 -2.84094783e-03 -2.78544589e-03
    -1.72473246e-03 2.72823701e-04 -3.55336023e-03 -4.07026289e-03
    -3.71233933e-03 1.31588907e-03 1.40099460e-03 -1.84683420e-03
    2.03052443e-03 -8.36840831e-04 1.98915764e-03 -2.04007002e-03
    -2.11918086e-04 -3.31025664e-03 -1.60187614e-04 1.16386998e-03
    -4.93498892e-03 -9.26294131e-04 -3.04054632e-03 8.26880569e-05
    -2.91095232e-03 -7.57148629e-03 -1.00878645e-02 -3.37180472e-03
    1.25328253e-04 -9.93138645e-04 7.19527423e-04 -1.45487150e-03
    6.86433632e-04 -1.70270645e-03 -2.83249724e-03 -8.06645118e-03
    1.79290643e-03 3.75339179e-03 -5.80095802e-04 1.96697260e-03
    -2.41995906e-03 -9.92194167e-04 -1.98632828e-03 -1.03336573e-03
    -4.48997645e-03 9.60760575e-04 5.67280035e-03 1.58557203e-03
    -8.72574106e-04 -3.64528294e-03 -1.36517466e-03 -1.71995925e-04
    -1.27743743e-03 -4.43395181e-03 -4.03859094e-03 1.31542131e-03
    8.90997006e-04 2.63660261e-03 -8.26212752e-04 -9.09608731e-04
    -5.10629383e-04 -1.86968304e-03 -7.43542472e-03 -3.92225944e-03
    2.35207961e-03 1.40340230e-03 -1.24725176e-03 -3.48071009e-03
    -1.88675686e-03 -1.70226197e-03 -1.58497016e-03 -7.15551153e-03
    3.94824939e-03 9.96009819e-03 -4.83498327e-04 -3.39671853e-03
    -3.17793526e-03 -2.48084107e-04 -7.36238144e-04 -2.16542161e-03
    -4.15902026e-03 7.47881830e-03 1.13063501e-02 -3.99472518e-03
    -5.63352415e-03 -3.64678144e-03 1.34822296e-03 -2.22036662e-03
    -3.59851238e-03 -3.15236440e-03 -1.10658153e-03 5.60283381e-03
    -2.07598860e-05 -3.23611125e-03 -2.14445265e-03 -2.38483728e-04
    -3.39733413e-03 -4.12972504e-03 -8.02236330e-03 -3.27024842e-04
    7.91582745e-03 -2.21456890e-03 -4.94737737e-03 -1.26315223e-03
    1.85084541e-03 -3.51292850e-03 -6.54713484e-03 -9.08799190e-03
    8.96875840e-03 5.74431987e-03 -7.74815585e-03 -7.36675598e-03
    -2.51515256e-03 1.89633074e-03 -2.35673651e-04 -3.57621280e-03
    -4.39784676e-03 9.07345861e-03 8.84796120e-03 -3.77970352e-03
    -2.49396800e-03 -2.21397495e-03 1.35527016e-03 -4.44693898e-04
    -3.75397317e-03 -4.91285231e-03 8.35661602e-04 5.73444972e-03
    -2.19460763e-03 -5.13972994e-03 -4.27859864e-04 2.79665133e-03
    -1.94545102e-03 -6.73682895e-03 -9.38733108e-03 1.82235119e-04
    4.72506508e-03 -4.09840839e-03 -3.98263364e-04 2.98153539e-03
    3.11843259e-03 -1.75673433e-03 -7.87843578e-03 -7.75522785e-03
    8.47381167e-03 7.30115408e-03 -3.23911989e-03 -2.94745527e-03
    -3.38330446e-03 -2.10704585e-03 -3.50880250e-03 -5.74773876e-03
    -3.71889956e-03 2.33252533e-03 6.60452817e-04 -3.49873048e-03
    -2.98556406e-03 -4.36862325e-03 -9.40466416e-04 -2.04890198e-03
    -5.65076666e-03 -2.99868290e-03 1.00234360e-03 2.81188078e-03
    -3.82783217e-03 8.02235794e-04 1.45781564e-03 -5.34506573e-04
    -3.15173226e-03 -5.95589774e-03 -7.09245540e-03 -3.14482546e-04
    -5.05249074e-04 -4.71135322e-03 -5.18757850e-03 -3.28394771e-03
    -7.87004188e-04 -9.52971517e-04 -3.83186596e-03 -4.10610158e-03
    4.38320963e-03 3.38110537e-03 -2.63002421e-05 1.82065469e-06
    2.27723178e-03 2.74726725e-03 1.97946629e-03 1.70074811e-03
    2.99451640e-03 6.52086048e-04 1.18622374e-04 -4.25172038e-03
    -1.19140884e-02 -8.04896373e-03 -9.69168614e-04 2.52119894e-03
    1.63671724e-03 9.85277351e-04 3.57916043e-03 5.23398351e-03
    -1.27937557e-04 -1.27902383e-03 6.77184761e-03 3.96124739e-03
    4.84814169e-03 1.00629753e-03 9.84673025e-05 -6.15503464e-04
    3.87254311e-03 -8.35217070e-04 -1.22122746e-02 -4.36704094e-03
    -2.98730424e-03 2.12454936e-03 -1.87165558e-03 -2.75681331e-03
    3.18955304e-03 7.43998541e-03 5.92428911e-03 -6.98388042e-03
    -4.53003123e-03 -8.75567552e-04 2.63388292e-03 -9.08283473e-05
    2.11220668e-05 1.80165411e-03 3.79813300e-03 5.71054826e-03
    -4.26507508e-03 -4.04213974e-03 -4.14063223e-03 6.91499270e-04
    -2.50351126e-03 -1.52554270e-03 -6.05198555e-04 8.61290004e-03
    6.11542817e-03 -6.46079052e-03 -2.60683359e-03 -3.14174755e-03
    1.67508284e-03 -1.27035042e-03 -2.31901254e-03 9.41928243e-04
    5.60895819e-03 1.95281266e-03 -2.39845878e-03 -2.06067739e-03
    -4.65209596e-03 1.02626589e-04 -4.81463969e-03 -2.33156839e-03
    3.07583367e-04 -5.81766479e-04 1.92641933e-03 1.00618345e-03
    5.57609485e-04 -3.54390615e-03 9.54464267e-05 -8.22417438e-04
    -1.72368134e-03 -2.50724633e-03 -3.28803645e-03 1.50148082e-03
    1.83778070e-03 1.23232615e-03 -2.27386178e-03 4.95026703e-04
    -1.06963667e-03 -3.63634131e-03 6.41530496e-04 3.03049549e-03
    2.12878594e-03 1.22906361e-03 -3.12532810e-03 -3.10822367e-03
    -1.20130797e-04 -2.72906804e-03 -2.40741367e-03 -3.37453815e-03
    -8.63302557e-05 2.33117677e-03 1.40694424e-03 -4.52198042e-03
    -3.33460118e-03 -4.72892018e-04 -2.04763445e-03 -3.25843133e-03
    -1.95620977e-03 -2.11717980e-03 2.66673334e-04 1.08064828e-03
    1.16632890e-03 1.04125834e-03 2.09009252e-03 1.21652571e-04
    -4.52345097e-03 -2.40278640e-03 -2.19606841e-03 -4.44281334e-03
    -6.23351522e-03 -8.38866632e-04 1.69195444e-03 3.33599607e-03
    1.19556463e-03 -3.44477315e-03 -2.32882216e-03 2.69877957e-03
    7.12485169e-04 -1.62120454e-03 -1.23509474e-03 -4.40649950e-04
    5.04016178e-04 -1.67609018e-03 -3.95089854e-03 -2.46138964e-03
    4.13834350e-03 2.70857010e-03 3.22888169e-04 5.63027279e-04
    -1.36460003e-03 -3.54456541e-04 -3.18515324e-03 -4.80308430e-03
    -5.00238221e-03 -7.27532292e-03 -5.18664625e-03 -3.67875700e-03
    -1.16099627e-03 8.78217630e-04 2.31891358e-03 -1.01836410e-03
    -4.52144770e-03 -5.96552109e-03 -5.74582303e-03 1.77408732e-03
    3.60039389e-03 4.50557610e-03 1.32816890e-03 4.29481361e-03
    5.02539187e-05 -3.30596068e-03 -5.74077480e-03 -5.38183516e-03
    1.13061024e-03 3.39048100e-04 1.30845199e-03 6.36737735e-04
    7.49983941e-04 -4.20955801e-03 -5.15790191e-03 -5.20379981e-03
    -4.86858562e-03 5.33819804e-03 5.55909332e-03 4.73530544e-03
    2.04841536e-03 8.95115663e-04 -3.43667390e-03 -3.64482799e-03
    -7.50870118e-03 -1.82061666e-03 4.69241664e-03 3.73312761e-03
    4.98451525e-03 2.16186536e-03 4.01445897e-03 -3.75397212e-04
    -7.94303697e-03 -7.64454482e-03 -1.20378193e-03 8.47942661e-03
    4.90584411e-03 1.79752638e-03 2.83334614e-03 6.08827500e-03
    6.85526291e-04 -8.12973268e-03 -7.08021643e-03 -1.87353394e-03
    7.27492943e-03 3.34601151e-03 2.27600499e-03 2.18615402e-03
    2.78503890e-03 -2.46449769e-03 -5.42762736e-03 -9.77827609e-03
    -8.37080588e-04 5.15880669e-03 2.29182490e-03 4.86608391e-04
    2.70474493e-03 5.02289925e-03 -6.21984480e-04 -6.84655178e-03
    -4.24034754e-03 -1.40170683e-04 4.59018862e-03 4.05170070e-03
    1.74133340e-04 2.30844179e-03 6.85744500e-03 5.12507698e-03
    -2.81476974e-03 -5.61129861e-03 -1.58730242e-03 3.69736273e-03
    1.45500805e-03 2.98093376e-03 2.25424860e-03 6.25322293e-03
    3.03742918e-03 -3.63385770e-03 -7.07441662e-03 5.20909321e-04
    8.68856721e-03 9.27279238e-03 1.69512990e-03 2.13826052e-03
    7.63612427e-03 9.60445264e-04 -4.24437132e-03 -1.26232989e-02
    -4.85261297e-03 1.76272518e-03 3.26048722e-03 4.02911706e-03
    -2.66466872e-04 4.18547215e-03 -1.88037998e-03 -9.96550079e-03
    -4.96274326e-03 -3.09431483e-03 4.81591141e-03 2.91062938e-03
    3.64839332e-03 1.34395575e-03 1.99075695e-03 2.56388128e-04
    -4.05350840e-03 -7.39764189e-03 -3.37832794e-03 4.99401754e-03
    4.01509600e-03 1.98707264e-03 7.89004785e-04 -2.22348329e-03
    -5.40477573e-04 -4.78418916e-03 -1.08899744e-02 -5.58259850e-03
    4.29410627e-03 4.32742946e-03 5.36523294e-03 1.66281220e-03
    3.56997433e-03 -6.03160530e-04 -9.46820527e-03 -1.27707347e-02
    -3.78405326e-03 5.00052841e-03 4.59080609e-03 5.97634586e-04
    -6.37536054e-04 -2.53334525e-04 4.26507730e-04 -9.71822813e-03
    -8.32011458e-03 -2.29053292e-03 5.76632004e-03 -2.09575449e-03
    1.05752260e-03 -1.33849203e-03 5.46144911e-05 2.95007863e-04
    -5.69942500e-03 -5.50946686e-03 2.27490370e-03 7.13685108e-03
    -4.59254347e-03 -5.30893821e-03 -5.72180422e-03 -3.81040474e-04
    -2.57370668e-03 -5.17216930e-03 -1.11289900e-02 -4.13915375e-04
    1.01582361e-02 -5.25562617e-04 7.43753626e-04 3.61181592e-04
    3.93854128e-03 1.17787544e-03 -7.50490371e-03 -4.30625957e-03
    7.61105772e-03 1.06981592e-02 -4.79689287e-03 -3.32515873e-03
    -1.71578466e-03 9.65750951e-04 -2.72803591e-03 -7.72492448e-03
    3.89760360e-03 -5.20204951e-04 -1.63963216e-03 -1.70682394e-03
    8.50281387e-04 -2.16066110e-04 -2.14960426e-03 -4.78102406e-03
    -1.91028439e-03 3.53555335e-03 1.96321891e-03 -1.50800846e-03
    -5.30486577e-04 6.10215997e-04 -1.19034678e-03 -2.11930461e-03
    -8.62965547e-03 -5.92745841e-03 2.54914514e-03 3.10498202e-04
    -3.92717915e-03 -2.60757469e-03 -3.98567732e-04 -3.58433637e-04
    -2.02216930e-03 -5.73108299e-03 -3.91499884e-03 1.87368621e-03
    1.61030097e-03 -1.28993159e-03 -2.89611286e-03 -2.87578627e-03
    -2.90320884e-03 -2.18721223e-03 -8.62731878e-03 -3.45987384e-03
    7.46289152e-04 9.86039289e-04 -3.56529583e-03 -1.54854520e-03
    3.76701028e-05 -6.98908232e-04 -1.69606053e-03 -7.22610392e-03
