<?xml version="1.0"?>
<opencv_storage>
<my_first_detector type_id="opencv-object-detector-hog">
  <winSize>
    128 128</winSize>
  <blockSize>
    16 16</blockSize>
  <blockStride>
    8 8</blockStride>
  <cellSize>
    8 8</cellSize>
  <nbins>9</nbins>
  <derivAperture>1</derivAperture>
  <winSigma>4.</winSigma>
  <histogramNormType>0</histogramNormType>
  <L2HysThreshold>2.0000000000000001e-01</L2HysThreshold>
  <gammaCorrection>1</gammaCorrection>
  <nlevels>64</nlevels>
  <signedGradient>0</signedGradient>
  <SVMDetector>
    -1.18061844e-02 2.80099851e-03 -1.30333076e-03 -4.06535715e-03
    3.30105377e-03 -8.08908371e-04 -1.74827983e-05 -1.12137652e-03
    -1.64294615e-02 -4.34605358e-03 4.54922486e-03 2.07222719e-03
    -5.17838076e-03 5.11856843e-03 -4.37986571e-03 1.66044862e-03
    2.08882819e-04 -9.99173056e-03 4.53412347e-03 6.83485437e-03
    -3.30227381e-03 -6.74461108e-03 5.14848204e-03 -7.66276382e-04
    3.69138387e-03 3.07581224e-03 -3.65741062e-03 6.16477197e-03
    1.39734326e-02 1.69773435e-03 -4.67103114e-03 1.00221420e-02
    -1.08257344e-03 2.75180815e-03 3.31763714e-03 -7.43065786e-04
    -1.70720555e-03 4.93535399e-03 4.46026400e-03 -4.09229798e-03
    5.94089320e-03 -7.37784896e-03 -1.66151440e-03 -1.90681592e-03
    -8.73662997e-03 3.38938064e-03 9.76857357e-03 5.25050564e-04
    -3.80439498e-03 6.07886584e-03 -6.44490728e-03 -3.94231034e-03
    -6.59235846e-03 -8.78398400e-03 5.63169597e-03 1.29118096e-02
    -1.45309407e-03 -3.79748666e-03 8.36546719e-03 -6.82952581e-03
    -7.88566016e-04 -1.14188308e-03 -2.04493408e-03 6.82381308e-03
    9.48558841e-03 -2.55793537e-04 -3.26481392e-03 5.47423633e-03
    -5.60259912e-03 -2.84222118e-03 -6.70272531e-03 -2.29002512e-03
    1.22339849e-03 5.21993777e-03 -2.58335099e-03 -2.30325991e-03
    4.70617879e-03 -4.11374588e-03 -1.87790603e-03 -3.90646886e-03
    -8.22291430e-03 4.79562790e-04 7.39793153e-03 -5.65638184e-04
    -1.88360119e-03 8.26155767e-03 -2.04323628e-03 -2.54666666e-03
    -4.22932487e-03 -1.04909334e-02 7.67969014e-03 3.52784432e-03
    -1.39095495e-03 -3.41069628e-03 2.18547927e-03 -4.39881207e-03
    -3.73475393e-03 -5.46701020e-03 -3.13599920e-03 6.86752424e-03
    4.09587199e-04 -5.61321294e-03 -6.34216750e-03 7.94696901e-03
    -3.84062435e-03 -2.70031796e-05 -2.45212670e-03 5.03193005e-04
    4.08320545e-07 5.51703712e-03 -2.37695221e-03 -2.47492990e-03
    1.02760419e-02 6.45895256e-04 -7.48075894e-04 -2.43596849e-03
    -9.67285782e-03 4.90243838e-04 2.44683877e-04 -7.77046243e-03
    -1.53541262e-03 1.37594240e-02 -8.40730034e-04 2.24614749e-03
    -2.78194319e-04 -3.01489816e-03 2.15479708e-03 -2.22078408e-03
    -7.19184754e-03 -4.98351455e-03 8.14887229e-03 -1.25262223e-03
    1.22944871e-03 -1.68826629e-03 1.22876826e-03 5.76298870e-03
    -5.61938295e-03 -1.32471342e-02 -5.85497404e-03 9.72050987e-03
    -1.43906451e-03 -3.50327377e-04 -4.63358941e-04 3.86769976e-03
    3.57324304e-03 -5.19695750e-04 -1.00528346e-02 -1.96165987e-03
    6.25866884e-03 -5.13411779e-03 8.15577747e-04 1.34467229e-03
    2.20343634e-03 2.42984993e-03 -3.02050565e-03 -9.98352934e-03
    -2.39035115e-03 -2.31931498e-03 -6.14567520e-03 -3.31292558e-03
    -1.34480491e-04 5.58867631e-03 1.04086734e-02 -7.66534498e-03
    -1.16211176e-02 -5.08948695e-03 3.38141224e-03 -3.23891407e-03
    -5.27439232e-04 5.75494021e-04 1.17160240e-02 8.84904340e-03
    -1.23185907e-02 -1.00556333e-02 -3.76334391e-03 -1.33262458e-03
    -5.41471271e-03 -2.00051232e-03 -7.32572284e-04 1.53501341e-02
    -3.22874752e-03 -2.62221671e-03 -8.60668253e-03 -2.09410070e-03
    6.12969976e-04 -4.27785749e-03 -3.40472511e-03 -6.21903979e-04
    3.81078222e-04 -4.65818867e-03 -3.06009175e-03 -4.67858789e-03
    -4.64792270e-03 3.80139449e-03 -2.36429716e-03 1.35571041e-04
    2.66547635e-04 -1.13703252e-03 3.46331554e-03 -1.12396786e-02
    -7.39342673e-03 -2.45907484e-03 1.03010959e-03 -3.85625428e-03
    -4.23724297e-03 -2.10223789e-06 9.11219232e-03 -5.83618275e-05
    -8.94623809e-03 -7.49159558e-03 -4.16164240e-03 6.32577203e-03
    -2.69789668e-03 -4.31446778e-03 4.22713533e-03 5.66959986e-03
    -2.75329594e-03 -6.51092688e-03 -2.50907568e-03 -1.54153747e-03
    3.03785782e-04 -3.07601411e-03 1.08161871e-03 3.26388748e-03
    2.73810187e-03 -5.63160935e-03 -1.02819139e-02 -2.97597516e-03
    -9.73159040e-04 3.91573925e-03 -5.22948243e-03 3.95890838e-03
    8.25285260e-03 6.35995716e-03 3.87594546e-03 -6.12464640e-03
    -1.95143383e-03 -1.69916617e-04 1.62795046e-03 -3.31925345e-03
    -1.39003375e-03 5.35631506e-03 6.48772717e-03 1.77385774e-03
    -4.61854460e-03 -7.14480237e-04 -1.33025029e-03 3.52841662e-03
    -8.82748794e-03 9.37878620e-04 3.84814246e-03 5.91711979e-03
    -6.27346756e-03 -1.05218980e-02 -6.03429461e-03 -1.63198356e-03
    1.78804301e-04 -2.94708996e-03 5.60541870e-03 5.35990950e-03
    7.30372360e-03 4.84591117e-04 -6.01954944e-03 -5.39589301e-03
    3.47643421e-04 -2.46367930e-03 -6.23873109e-03 1.58967986e-03
    2.35571619e-03 8.45342036e-03 5.96155820e-04 -5.19435387e-03
    -1.40417472e-03 -1.22515333e-03 6.80846046e-04 -5.07054897e-03
    2.25773989e-03 2.09228229e-03 3.63966567e-03 -2.78557208e-03
    -2.15988280e-03 -4.35841968e-03 -1.32588809e-03 -1.64499506e-03
    -6.99915458e-03 6.68258057e-04 -1.79150712e-03 8.45427217e-04
    4.54610260e-03 -1.79187977e-03 -4.11447231e-03 -1.33116846e-03
    -3.96107463e-03 -5.85455913e-03 -1.81678648e-03 -3.20569707e-05
    4.38690325e-03 1.52882421e-03 -4.29459033e-04 -4.16642334e-03
    -6.55948941e-04 1.07619027e-03 -3.81836458e-03 -4.39962139e-03
    -6.59703510e-03 -2.02444801e-03 -4.13002243e-04 1.36597943e-03
    -7.29606580e-03 -1.76514417e-03 -4.00472386e-03 -6.14642538e-03
    -6.12071424e-04 -2.82319752e-03 -9.76961674e-05 -4.20033792e-03
    1.79630285e-03 -3.30459932e-03 -1.81428925e-03 7.15235423e-04
    -3.19050904e-03 -5.10859711e-04 -3.64860334e-03 -5.76383527e-03
    -2.13290798e-03 1.79581833e-03 -3.92317073e-04 -1.04367966e-03
    4.44317237e-03 1.10772112e-03 -9.80403856e-04 -2.96293292e-03
    -5.42365620e-03 -2.48118979e-03 3.44219152e-03 -6.37816731e-04
    -3.86860361e-03 -3.91991530e-03 4.12062172e-06 2.63976329e-03
    9.41142731e-04 -5.91416191e-03 -6.65491493e-03 8.19935836e-03
    3.85191711e-03 1.09632721e-03 4.86264704e-03 1.94595032e-03
    6.83707476e-04 -2.41813320e-03 -9.99307074e-03 -5.96858235e-03
    8.73455591e-03 9.10925621e-04 -3.69670708e-03 -2.08136300e-03
    1.77395949e-03 3.20169353e-03 9.05321969e-04 -7.46878749e-03
    2.99457298e-03 1.18659285e-03 1.22928410e-03 -1.64845050e-03
    -1.30501285e-03 -9.10056755e-04 2.05152319e-03 3.31736403e-03
    -6.73207338e-04 4.74059908e-03 1.88305287e-03 5.40430134e-04
    -1.91746664e-03 -4.24250634e-03 -7.25569203e-03 -5.49566653e-03
    -1.11952962e-04 1.76096777e-03 -1.51335809e-03 6.14583818e-03
    5.56700747e-04 -2.40434171e-03 1.36950298e-03 1.98431755e-03
    3.09721450e-03 4.54472285e-03 -1.31495821e-03 4.18138836e-04
    4.40006144e-03 -6.59873884e-04 -4.44407668e-03 -1.02071592e-03
    -4.08617826e-03 -3.13540315e-03 1.82964513e-03 7.02096208e-04
    1.99510437e-03 3.36015970e-03 1.50810811e-03 1.52919430e-03
    1.08197541e-03 -4.48467815e-03 -3.69609962e-03 -1.08606776e-03
    1.24771753e-03 -5.20133355e-04 1.13825873e-03 2.08065659e-03
    3.81407258e-03 4.45995061e-03 1.56221562e-04 -4.18391777e-03
    -2.34533194e-03 6.32898184e-04 -2.61185551e-03 2.17938819e-03
    2.37676036e-03 1.69486168e-03 -5.11109538e-04 -6.50498597e-03
    -4.92077367e-03 1.80300140e-05 -3.60586075e-03 -9.52805765e-03
    -2.11086497e-03 7.50874751e-05 3.63410846e-03 3.66057875e-03
    -2.80299643e-03 -4.65639960e-03 1.29134976e-04 -5.61721809e-03
    -1.80626207e-03 -4.93501965e-03 -4.86058503e-04 1.14659453e-03
    3.95573117e-03 1.24604150e-03 1.73349574e-03 -3.75667674e-04
    9.19345825e-04 2.81179440e-03 -3.16957897e-03 -1.54022465e-03
    -1.88272598e-03 5.16787684e-03 1.77935488e-03 5.86405070e-03
    8.46390787e-04 2.16087373e-03 -9.56103019e-03 -7.57643394e-03
    -3.25137866e-03 6.09240611e-04 1.57258793e-04 -9.33880161e-04
    3.88512592e-04 4.91602905e-03 -3.27608013e-03 -2.03325087e-03
    -3.52886110e-03 -2.86915945e-03 -1.66146271e-03 -8.43064045e-04
    -3.23619880e-03 4.71143052e-03 5.88959130e-03 1.04857597e-03
    6.65829144e-03 -2.05848203e-03 -3.70471110e-03 -4.85012168e-03
    1.12897286e-03 -3.73075571e-04 4.98422096e-03 1.79524627e-03
    4.20513377e-03 4.03217319e-03 -6.07915781e-03 -1.11892531e-02
    -2.90479162e-03 5.61939459e-03 1.07368187e-03 3.93622648e-03
    1.01613638e-03 4.51624021e-03 -1.47806725e-03 -3.58110224e-03
    -3.24914115e-03 -2.76723760e-03 -1.74059009e-03 -4.03286237e-03
    3.03936447e-03 2.01592315e-03 -8.04839656e-04 -3.23208096e-03
    -7.27930106e-03 -6.43431442e-03 -3.83365992e-03 6.43373607e-03
    1.44663558e-03 5.43024577e-03 2.80155987e-03 -1.81360310e-03
    4.76205535e-03 -8.11721012e-03 -1.20709362e-02 -2.13791081e-03
    7.51821836e-03 -1.01524324e-03 1.78568892e-03 1.55085686e-03
    4.74182423e-03 7.24960957e-03 -4.21887147e-04 -4.53395490e-03
    -3.18678049e-03 5.25159296e-03 -2.43073865e-03 -2.33351672e-03
    1.35905854e-03 7.58507382e-03 -2.10966356e-03 -7.59738218e-03
    -6.89457357e-03 -7.48419017e-03 6.34088321e-03 1.17276388e-03
    4.24813107e-03 4.54910845e-03 2.14223983e-03 -4.26691491e-03
    -5.98411355e-03 -7.42480578e-03 -1.02459351e-02 4.52754926e-03
    -1.85970974e-03 4.53784887e-04 2.49078427e-03 4.99400357e-03
    -2.54600658e-03 2.81010591e-03 -6.26817998e-03 -3.31516168e-03
    1.69819850e-03 1.04391533e-04 1.84733025e-03 1.55682082e-03
    -5.93206054e-03 -2.00862391e-03 9.23642702e-03 -2.44902889e-03
    -2.13445676e-03 4.16312972e-03 2.80734571e-03 3.95382615e-03
    5.78289246e-03 -4.04158467e-03 -2.60127941e-03 1.09177679e-02
    -1.43982610e-03 2.91984784e-03 6.50031958e-03 -5.29764511e-04
    -1.44825364e-03 -6.69284817e-03 -1.59449521e-02 4.37473366e-03
    1.50555251e-02 8.05219228e-04 1.32247363e-03 7.82469008e-03
    1.28612609e-03 -7.76870933e-04 -1.55143125e-03 -7.44475983e-03
    1.44495082e-03 8.01652018e-03 -5.09737246e-03 -2.27895426e-03
    1.94227626e-03 -4.04825481e-03 -4.43908997e-04 2.97336810e-04
    -1.93563825e-03 2.50960910e-03 3.47912405e-03 -2.49952381e-03
    -1.10753893e-03 1.79856739e-04 -4.94110305e-03 -5.03900461e-03
    -2.72695301e-03 -2.88990163e-03 9.13675688e-03 1.10867983e-02
    -6.07735151e-03 -3.08178971e-03 2.96013779e-03 -1.88743428e-03
    -3.20874085e-03 6.16111618e-04 -2.46857968e-03 1.12299845e-02
    6.79500168e-03 -5.40222460e-03 -1.56106451e-03 -1.85457943e-03
    -4.38693305e-03 -7.57960789e-03 -1.01033703e-03 7.39230216e-03
    3.86268273e-03 2.52999621e-03 -2.59911316e-03 -8.19657114e-04
    -1.32372649e-03 -4.05016169e-03 -4.11230884e-03 -1.70068059e-03
    1.09838007e-03 1.85553962e-03 2.79906642e-04 -7.12804636e-03
    -2.08258815e-03 5.18928235e-03 -2.93358276e-03 -1.38196500e-03
    5.45621559e-04 2.64383457e-03 9.51676350e-03 5.92289958e-03
    -4.40796232e-03 -1.56016939e-03 -1.29096687e-03 -3.89873283e-03
    -7.26543739e-03 -4.71186684e-03 4.51900624e-03 7.00346241e-03
    1.28136284e-03 -4.50576609e-03 -2.02887086e-03 3.50803509e-03
    -2.85388948e-03 -4.40471107e-03 -9.47192661e-04 3.81595083e-03
    -3.93978204e-04 -2.87485169e-03 -8.13012104e-03 -6.99664524e-04
    4.29173186e-03 1.24214916e-04 3.07129230e-03 -1.98946029e-04
    1.03785994e-03 -2.34521506e-03 -5.74551756e-03 -9.73828603e-03
    -2.80677783e-03 2.22671614e-03 -9.52052505e-06 2.24250020e-03
    -3.12027172e-03 -1.63625088e-03 2.61687557e-03 7.24706188e-05
    -3.28103732e-03 -9.87415784e-04 5.14126709e-03 4.26712824e-04
    3.85176577e-03 3.42268031e-03 2.02368665e-03 1.78101042e-03
    5.55884792e-04 -5.00202365e-03 -3.53705924e-04 5.28638903e-03
    4.30294196e-04 4.07401519e-03 -3.94742470e-04 1.94989634e-03
    3.42876418e-03 -6.03271695e-03 -8.50626081e-03 -3.27806850e-03
    -2.95924809e-04 -4.14594455e-04 -3.46398447e-04 -3.16803507e-03
    4.83632647e-03 3.94842122e-03 -1.18017290e-02 -1.00135682e-02
    -5.58493799e-03 -2.94537330e-03 -2.93487473e-03 -2.26144399e-03
    -1.89023360e-03 9.88579821e-03 1.05490433e-02 8.77263257e-04
    -6.36403635e-03 -2.18794728e-03 2.89743091e-03 5.35675907e-04
    -5.92058117e-04 -3.78740858e-03 4.02318966e-03 1.02956891e-02
    -3.95594491e-03 -9.76541918e-03 -6.10523857e-03 9.85322869e-04
    -1.45583856e-03 -3.20283300e-03 -4.90785437e-03 7.39445537e-03
    6.42672938e-04 -9.41722188e-03 -5.71300415e-03 -2.71396269e-03
    -1.59049500e-03 -2.41349265e-03 -2.45764642e-03 6.23501721e-04
    7.52131920e-03 -4.43085702e-03 -7.56614096e-03 1.39470038e-04
    1.95880522e-04 2.91633280e-03 -4.34736838e-04 -2.50681140e-03
    4.30314429e-03 2.84612179e-03 4.73280158e-03 -6.05413271e-03
    -4.00923193e-03 -2.35303887e-03 -6.18333754e-04 -8.96249374e-04
    7.32754357e-04 -8.38573265e-04 5.87366289e-03 -2.85456143e-03
    -6.70405896e-03 6.76772906e-04 3.07331007e-04 1.39897654e-03
    1.24083355e-03 1.84409972e-03 3.16452072e-03 1.26833306e-03
    -1.83619303e-03 -3.29724140e-03 3.34094744e-03 3.43928579e-03
    4.77470312e-04 -1.58053450e-03 -3.67694651e-04 5.56874368e-03
    3.34025687e-03 -1.92651711e-03 -2.82500684e-03 -2.65944307e-03
    -7.38455448e-04 -4.62079933e-03 -8.49705469e-03 1.60250824e-03
    4.38111182e-03 2.20234622e-04 2.06046947e-03 -1.01812975e-03
    1.43974161e-04 2.71082204e-03 -1.34049289e-04 4.81096213e-04
    1.12979929e-03 6.88540237e-03 3.81460949e-03 3.28595494e-03
    -1.97521527e-03 -6.82788715e-03 -1.56762975e-03 -7.97410961e-03
    -9.28776246e-03 1.03510695e-03 1.00083966e-02 3.45592597e-03
    -2.17209337e-03 -1.98218948e-03 -4.05255426e-03 -4.80643270e-04
    -8.13728198e-04 -3.80293978e-03 2.28626374e-03 2.46940763e-03
    1.77769468e-03 -1.64277898e-03 8.78381892e-04 -5.53757092e-03
    -1.60447287e-03 -6.59129641e-04 -4.38794401e-03 2.57990498e-04
    -1.20436214e-03 -2.71140342e-03 7.03191245e-03 -2.89360853e-03
    -7.32760783e-03 9.33546748e-04 -3.79238371e-03 -4.33480227e-03
    1.69980107e-03 6.91573881e-03 2.30941642e-03 4.20675753e-03
    -4.18044254e-03 -7.95611739e-03 4.06841718e-04 1.18813000e-03
    -9.57979355e-04 2.10765516e-03 -7.01231475e-05 -2.39651138e-03
    -2.95062689e-03 3.18735628e-03 -2.61241337e-03 1.08850875e-03
    -2.99110776e-03 -1.97409512e-03 -7.94094405e-04 -2.86030257e-03
    -7.27863749e-03 -3.44245043e-03 7.36975018e-03 -2.87868868e-04
    1.87045126e-03 1.20204117e-03 -9.95416311e-04 7.24387995e-04
    -3.38198896e-03 -1.10518970e-02 -5.68613577e-05 -5.24655310e-03
    -5.44754043e-03 3.26198479e-03 2.88446760e-03 9.94920629e-05
    2.08209548e-03 3.73220741e-04 -4.15038550e-03 -3.13182641e-03
    8.33357917e-04 -1.49682257e-03 6.06015231e-03 5.08169224e-03
    4.57609654e-04 1.95515179e-03 -1.47077616e-03 -8.87050759e-03
    -3.32743442e-03 1.18160266e-02 2.47148657e-03 1.58678892e-03
    4.69670631e-03 3.48790898e-03 2.74402322e-03 -2.31766049e-03
    -9.45651252e-03 -7.07468949e-03 4.50077653e-03 2.05346470e-04
    1.27469946e-03 -4.33212472e-03 2.34026951e-03 1.98693527e-03
    6.06785878e-04 -8.75287037e-03 -5.57067804e-04 2.08559912e-03
    1.99582009e-03 7.75094563e-03 4.86965291e-03 3.59522225e-03
    1.87593186e-03 -2.33763596e-03 -8.47454276e-03 -3.09010199e-03
    -5.85749920e-04 -3.92300106e-04 3.62152373e-03 -4.59688017e-03
    -9.12256946e-04 -1.04681344e-03 -2.17299862e-03 -7.28611415e-03
    -1.71703205e-03 3.60107049e-03 1.76684081e-03 3.26643093e-03
    -2.42639589e-03 4.06198815e-04 4.92969202e-03 7.35010393e-03
    7.23194580e-06 -2.17799842e-03 -2.07256549e-03 -3.45145888e-03
    5.19010646e-04 -3.94087611e-03 -2.79744528e-03 2.44835368e-03
    6.35962375e-03 4.54635941e-04 4.91573184e-04 2.27389741e-03
    -2.98417988e-04 2.79669790e-03 -1.12486491e-03 -3.02070577e-04
    4.49653529e-03 3.46908695e-03 -2.29532202e-03 -2.42695445e-03
    -2.73265853e-03 -7.63759576e-03 1.85859262e-03 -1.54605997e-03
    -1.98511151e-03 1.80080777e-03 1.89717731e-03 3.64813139e-04
    -9.52803006e-04 2.74034566e-04 1.93554698e-03 4.14078217e-03
    1.09376269e-03 -3.54138506e-03 -1.37972587e-03 1.71225495e-03
    1.94487558e-03 -5.17302379e-03 -1.21051830e-03 2.65316456e-03
    5.17085800e-03 1.32738345e-03 -1.12098141e-03 -4.34138905e-03
    5.22362825e-04 -1.94988737e-03 -8.79636791e-04 -1.50503288e-03
    -2.30045902e-04 6.40965533e-03 4.92700096e-03 -3.47339083e-03
    -3.64460843e-03 -2.86143133e-03 -8.75263882e-04 -4.94083064e-03
    -6.73862733e-03 2.47961842e-03 5.79535402e-03 6.41519763e-03
    -1.99531252e-03 -6.32182695e-03 -4.92492737e-03 -2.11915025e-03
    -9.85418260e-03 -5.28924074e-03 -4.54291323e-04 4.46307193e-03
    5.48217446e-03 1.27214962e-03 3.26493266e-03 7.77528761e-03
    1.80513458e-03 -5.01498533e-03 -7.72348931e-03 -2.45308387e-03
    3.92249832e-03 3.84735456e-03 -2.54162936e-04 9.35377646e-03
    1.08650494e-02 2.29422119e-03 -5.93091361e-03 -7.01388065e-03
    2.93738412e-04 2.53748125e-03 9.26079322e-03 -1.46036196e-04
    -9.05559718e-05 8.04077077e-04 -2.20000002e-04 -6.16249302e-03
    -6.79193391e-03 -2.14294749e-04 -4.63484845e-04 8.67675897e-03
    -1.32740114e-03 7.75131583e-03 5.95664792e-03 1.57440279e-03
    -2.32485216e-03 -5.64027531e-03 -3.43245827e-03 1.56645232e-03
    -7.49875384e-04 -1.63743855e-03 5.70255006e-03 4.42517456e-03
    1.34976686e-03 -1.35766936e-03 -5.77159505e-03 -4.16344078e-03
    -1.17403641e-03 5.97279845e-03 2.28357385e-03 6.85407873e-03
    7.08460715e-03 6.27224334e-04 -3.42147029e-03 -5.15779853e-03
    -1.80546590e-03 9.30453010e-04 9.50238376e-04 -4.04170342e-03
    2.90224724e-03 2.44773040e-03 5.49081706e-05 -8.68114585e-04
    -7.95154739e-03 -3.51098436e-03 -1.08827208e-03 5.03574498e-03
    -1.29994907e-04 1.64832489e-03 5.67164645e-03 3.56894615e-03
    -2.67603341e-03 -5.84716629e-03 -4.02877899e-03 -6.09813258e-03
    2.85471720e-03 3.06699146e-03 5.32982172e-03 6.66515669e-03
    2.85569648e-03 -5.14101645e-04 -4.20684088e-03 -5.90125611e-03
    -9.43178125e-03 4.52777458e-04 3.02196149e-05 1.44500693e-03
    5.29755745e-03 3.98847973e-03 -3.09786596e-03 -1.04190828e-02
    -4.19675792e-03 -6.39127474e-03 5.49709424e-03 2.09542201e-03
    2.85229017e-03 6.58038957e-03 5.17150993e-03 -2.82097515e-03
    -8.05485249e-03 -7.30932085e-03 -1.01340208e-02 1.35343638e-03
    -3.66448716e-04 -2.08777245e-04 8.16488918e-03 4.15772200e-03
    -1.51441561e-03 9.65612754e-03 -4.48854314e-03 -1.28340651e-03
    -3.71720665e-03 -4.03162558e-03 -3.16696381e-03 -7.77964201e-03
    -1.21117150e-02 1.68491923e-03 1.40689462e-02 -3.89913074e-03
    -7.03201105e-04 -2.52948469e-03 -4.36217152e-03 -4.39957483e-03
    -6.48607314e-03 -1.11919800e-02 5.38327452e-03 1.99423805e-02
    2.05055415e-03 -1.84938509e-03 -7.09381700e-03 -4.30320902e-03
    -5.38402889e-03 -7.47877080e-03 -7.78199965e-03 1.07910903e-02
    1.83723439e-02 -1.07075798e-03 -2.29809768e-04 -6.55633211e-03
    -4.23697429e-03 -6.37869537e-03 -5.81840891e-03 -1.65770587e-03
    6.58084219e-03 1.10210339e-02 -7.81439804e-03 -2.20295950e-03
    -3.06388666e-03 -2.86658132e-03 -5.74712502e-03 8.25873518e-04
    -3.32896505e-03 8.98844469e-03 6.57884078e-03 -9.89503320e-03
    -4.13354998e-03 -5.12042595e-03 -6.04013493e-03 -1.13442121e-02
    -3.92388785e-04 4.86853474e-04 9.78218950e-03 1.07404981e-02
    -5.74958371e-03 -9.46556393e-04 -5.70798572e-03 -3.37979244e-03
    -5.56380302e-03 4.38563002e-04 1.71128113e-03 6.17593667e-03
    6.94260094e-03 -8.55704863e-03 -4.96383151e-03 -2.03516893e-03
    -6.53304532e-03 -7.61716347e-03 6.42348663e-04 2.52474379e-03
    6.79115253e-03 1.88989774e-03 -6.75597973e-03 -1.74652983e-03
    -2.29254118e-04 -4.25308244e-03 -1.03887441e-02 -5.18750818e-03
    2.01568170e-03 3.22129484e-03 8.94277007e-04 -3.51226632e-03
    -1.26212882e-03 -2.28943792e-03 -3.20701115e-03 -7.33814761e-03
    -3.95553140e-03 -1.03019376e-03 2.73068482e-03 3.27531202e-03
    -5.17281145e-03 -1.52623968e-03 6.95220055e-03 -5.20001492e-03
    -7.61667034e-03 -7.01707962e-04 3.28985538e-04 3.32650170e-03
    4.46723728e-03 -3.62299778e-03 5.17823175e-03 6.38952339e-03
    -3.28390836e-03 -5.04523516e-03 -5.94296434e-04 -9.23304993e-04
    -1.67608855e-03 2.10008607e-03 -4.35169460e-03 -8.47277464e-04
    5.37453103e-04 -8.41205707e-04 1.04028433e-04 6.64462277e-04
    -1.87953864e-03 -3.58372857e-03 1.46667729e-03 -5.93492854e-03
    -1.22203387e-03 2.05603731e-03 1.94866804e-03 3.95603827e-04
    -2.95868900e-04 -4.40518837e-03 7.24854553e-03 6.66121347e-03
    -6.75056316e-03 3.67672369e-03 3.73746105e-03 -5.55028673e-04
    -4.93221625e-04 1.22643227e-03 -3.59254365e-04 5.39594376e-03
    6.02365937e-03 -7.67733483e-03 -8.88680457e-04 -1.23879954e-03
    -4.03369922e-04 -1.96803245e-03 -1.58738159e-03 -2.40631518e-04
    2.52048858e-03 -3.52734969e-05 -7.35637173e-03 -1.78865716e-03
    3.91659414e-04 2.15331232e-03 -4.78494447e-04 -7.75369641e-04
    1.41571159e-04 4.27917810e-03 -3.34340194e-03 -1.13568250e-02
    -5.58870472e-03 -4.51303832e-03 -4.42598073e-04 1.40936160e-03
    1.40177365e-03 4.97341016e-03 8.58115125e-03 4.71532345e-03
    -6.01028791e-03 -2.96292664e-03 -1.87550078e-03 2.13166408e-04
    -1.34812284e-03 7.15784787e-04 6.99814549e-03 8.75247549e-03
    5.62918489e-04 -8.67935922e-03 -9.51629970e-03 -8.10186751e-03
    -1.88237743e-03 7.15772738e-04 4.22774116e-03 9.32098366e-03
    1.00012566e-03 -4.73916484e-03 -6.44139107e-03 -2.11984268e-03
    -3.65015026e-03 7.65109609e-04 3.38627491e-03 2.74525606e-03
    6.22627186e-03 -2.33467342e-03 -8.09423905e-03 -7.70528149e-03
    -2.29807734e-03 -3.76638316e-04 2.01708381e-03 1.56834931e-03
    2.26763473e-03 2.94673280e-03 7.97407422e-03 -1.88139314e-03
    -7.25119421e-03 -4.94572241e-03 -1.70080946e-03 3.94208648e-04
    3.86026251e-04 5.54668903e-03 9.40062851e-03 3.31494468e-03
    -8.40364862e-03 -9.85398795e-03 -6.19277870e-03 -8.10149766e-04
    -3.26042209e-04 3.88732180e-04 7.23750284e-03 6.64566504e-03
    1.07793487e-03 -3.85292224e-03 -4.93053161e-03 -4.33927460e-04
    5.15763357e-04 1.65902078e-03 2.30989652e-03 5.21541201e-03
    4.38458007e-03 4.81974287e-03 -3.42633994e-03 -7.78692495e-03
    -4.47986508e-03 -9.55523644e-03 -5.58662880e-03 -1.28115958e-03
    3.83529370e-03 2.61131627e-03 4.03639534e-03 -3.79086914e-03
    -3.69394757e-03 -2.15969491e-03 7.41949698e-05 -5.40254929e-04
    1.91365555e-03 4.84936917e-03 7.94901885e-03 4.86752298e-03
    1.32660312e-03 -1.43580034e-03 -4.73807054e-03 -6.29979605e-03
    -9.12017561e-03 -2.42302450e-03 -6.69841829e-04 6.50030328e-03
    3.54098692e-03 -3.91653832e-03 -3.35783744e-03 -6.99628901e-04
    -8.50112550e-03 -3.23415035e-03 -6.54571224e-04 2.35970831e-03
    1.22939842e-03 -1.02191325e-03 -7.70417461e-03 -4.25744941e-03
    2.71628681e-03 -3.30696022e-03 1.33006996e-03 1.41271192e-03
    1.16066355e-03 -4.64454154e-03 1.73019548e-03 1.00169075e-03
    3.16848396e-03 -7.49020401e-05 -9.52447182e-04 -4.79718670e-03
    -1.32245757e-03 -2.79125501e-03 2.65097502e-03 -3.30955558e-03
    -6.92172814e-03 -2.84088950e-04 4.42478154e-03 3.31558427e-03
    3.00926412e-03 6.24856853e-04 9.49406880e-04 -1.57112969e-04
    -1.95188122e-03 -8.66696145e-03 -3.19326948e-03 3.37479170e-03
    -2.66361702e-03 -6.00109401e-04 1.77060498e-03 2.21199263e-03
    -1.68427138e-03 -5.67573868e-03 -3.25735332e-03 5.18229965e-04
    9.17780679e-03 -9.54419549e-04 -8.49778706e-04 -9.04147921e-04
    -7.70045386e-04 -5.19750826e-03 -2.78733484e-03 -4.64450242e-03
    -4.82951524e-04 4.59266314e-03 -1.93376234e-03 1.63994904e-03
    2.32969713e-03 4.65873722e-03 9.74640716e-04 -4.51538991e-03
    5.41621353e-04 -1.47156208e-03 8.21041409e-03 4.51145577e-04
    -3.92193964e-04 -3.54279764e-04 2.05900008e-03 -3.58309178e-03
    -2.85505271e-03 6.35595992e-04 5.90749877e-03 1.24952383e-02
    2.36465735e-03 3.53401783e-03 1.07790309e-03 -1.28786918e-03
    -5.72478492e-03 -1.78112136e-03 -2.76775309e-03 2.04951549e-03
    4.34094528e-03 -5.29916165e-03 1.43779186e-03 1.76281075e-03
    -2.46187835e-03 -6.32513780e-03 -2.00160313e-03 7.34585279e-04
    2.39080889e-03 8.62287264e-03 6.59620296e-03 3.94429779e-03
    4.01524315e-03 2.10521324e-03 -5.83606400e-03 -2.19117478e-03
    -3.61410365e-03 -2.24816566e-03 -8.89398449e-04 -2.02005263e-03
    2.59290636e-03 3.20422486e-03 -1.26802700e-03 -4.95773787e-03
    3.57757043e-03 1.50939904e-03 -1.02633392e-04 4.00547928e-04
    -3.89828510e-03 1.64110144e-03 3.58835608e-03 1.43413513e-03
    -9.74042268e-05 2.09673936e-03 1.38717913e-03 -9.52848350e-04
    2.50763888e-03 -4.49063070e-03 -2.14822195e-03 -1.22583774e-03
    -8.98212660e-04 2.71213613e-03 3.30238207e-03 5.68557391e-03
    3.42436181e-03 -3.64152336e-04 -2.58689513e-03 1.30220794e-03
    3.07880691e-03 -5.24019182e-04 7.89890240e-04 -9.09708266e-04
    5.88580454e-03 8.86960980e-03 5.27442759e-03 -1.50002108e-03
    -3.74969468e-03 1.56842801e-03 -5.94261626e-04 -2.72273493e-04
    -1.14860035e-04 2.39859312e-03 2.86336592e-03 6.99951733e-03
    -2.92900717e-03 -4.49984334e-03 -4.20077657e-03 -1.78912096e-03
    -1.57801347e-04 -1.19025656e-03 -6.96904724e-04 2.70748185e-03
    5.69445966e-03 -1.28093979e-03 -4.16568387e-03 -6.96836226e-03
    -2.56114034e-03 -8.33904778e-04 -6.40018960e-04 6.68295380e-03
    9.99920722e-03 5.60877705e-03 -9.24872293e-04 -8.70472752e-03
    -3.17641208e-03 -1.71603620e-04 -2.91739620e-04 -2.29901896e-04
    6.43889373e-03 7.05388933e-03 4.79195919e-03 -6.14965757e-05
    -6.11614669e-03 -5.32238930e-03 -2.05216859e-03 -2.81336321e-03
    -2.80922232e-03 -4.46289731e-03 -5.03653253e-04 1.97696174e-03
    3.65117472e-03 -5.51474164e-04 -6.69590430e-04 -1.24323054e-03
    -5.14456769e-04 -3.05253360e-03 -3.66182346e-03 -2.28289654e-03
    -3.62203550e-03 3.06198886e-03 -2.34590191e-03 1.88409281e-03
    7.94385793e-04 -3.43505148e-04 -3.77111719e-03 2.26569106e-03
    3.89118795e-03 3.18169198e-03 4.02300851e-03 -1.40254491e-03
    -5.16610511e-04 -2.96440488e-03 -5.43918973e-03 -2.15781014e-03
    -3.57930921e-03 -1.22226600e-03 -3.75290238e-03 4.35483130e-03
    -2.01229379e-03 1.66948885e-03 -2.84835068e-03 -3.16428742e-03
    -4.59707668e-03 -3.98192648e-03 -4.25568642e-03 -1.46434095e-05
    1.49688683e-03 -5.32344310e-03 1.48251183e-05 -2.65007984e-04
    -1.55687076e-03 -3.82022141e-03 -8.41248687e-03 -7.68290507e-03
    -4.22034645e-03 4.19162028e-03 -2.54330807e-03 -1.31142186e-03
    6.28915615e-03 1.14248332e-03 -2.47016875e-03 -3.02517973e-03
    -4.00590757e-03 -1.69494282e-03 3.27490806e-03 -5.74763864e-03
    -6.85885141e-04 -2.07025115e-03 -6.15819066e-04 3.86136730e-04
    -4.48173657e-03 -9.15601384e-03 -8.26998241e-03 1.69016595e-03
    -5.63186547e-03 -1.43493293e-03 5.26541751e-03 6.27706526e-03
    -5.75847598e-03 -8.54242407e-03 -6.29787194e-03 -8.44586175e-03
    3.48820514e-03 -6.03660359e-04 1.55805540e-03 9.41600464e-03
    5.70967048e-03 -3.17132962e-03 -5.87780681e-03 -8.42884090e-03
    -1.50777129e-02 -3.39471572e-03 -6.90156303e-04 2.65659671e-03
    1.22338673e-02 6.50914479e-03 2.33567669e-03 -1.97972218e-03
    -7.19471835e-03 -9.75983590e-03 1.48905371e-03 -5.93559258e-03
    -1.31398963e-03 7.89781567e-03 9.38970502e-03 -2.22438411e-03
    -2.05276022e-03 -8.11778568e-03 -1.62318423e-02 -3.56536428e-03
    -4.86363610e-03 1.32751826e-03 1.22454064e-02 1.24517130e-02
    2.62723258e-03 1.32211661e-02 1.39308302e-03 -2.28017545e-03
    -3.69187258e-03 -3.81854217e-04 -4.67868010e-03 -5.47389872e-03
    -6.10637432e-03 6.34049019e-03 8.72481801e-03 -3.01684928e-03
    9.69302026e-04 -6.26629405e-03 -2.93156668e-03 -7.84489792e-03
    -5.59047190e-03 -1.44068722e-03 6.49773050e-03 8.16783775e-03
    -4.29813936e-03 -1.44656142e-03 2.27391487e-04 6.35403441e-04
    -1.19713088e-03 -3.26253613e-03 -3.61563801e-03 7.87151139e-03
    7.36589357e-03 -3.88371013e-03 -1.31965009e-03 -3.67416651e-03
    -7.57851929e-04 -3.06525757e-03 -3.83352768e-03 -5.09907724e-03
    2.54626502e-03 2.59998604e-03 -4.82257130e-03 -1.50996537e-04
    -6.94328034e-03 -9.91422217e-04 -3.94675275e-03 5.63326466e-04
    -1.69486520e-04 -6.35494711e-04 3.63468262e-03 -6.72108447e-03
    -2.76446273e-03 -1.48151850e-03 -2.28377688e-03 -2.30849162e-03
    2.15909746e-03 -7.17679577e-05 5.69339609e-03 6.75726263e-03
    -3.70586221e-03 -3.38737504e-03 -3.73593159e-03 -4.11719753e-04
    -4.03387332e-03 -1.38089794e-03 -4.90672654e-03 5.86129306e-03
    1.66500779e-03 -9.32141487e-03 -3.47141013e-03 1.82545034e-03
    1.19953230e-03 -1.43009773e-03 3.74745345e-03 5.27380267e-04
    -1.07404613e-03 2.13829521e-03 -6.45794580e-03 -2.98534124e-03
    -5.18324901e-04 -6.06281590e-03 -4.08326276e-03 -7.58701208e-05
    4.57992632e-04 5.41127112e-04 4.25151642e-03 -5.14891231e-03
    1.65736210e-03 5.22154383e-04 -5.15120104e-03 -5.41911786e-03
    -1.41952129e-04 -3.28182243e-03 5.61813451e-03 -5.42148482e-04
    -1.10345101e-02 -3.58607876e-03 9.42990358e-04 -3.26821837e-03
    -2.46674544e-03 2.20979284e-03 3.99228092e-03 6.46043848e-03
    2.64680525e-03 -7.35664135e-03 -1.47337525e-03 -1.05533830e-03
    -4.21916973e-03 -6.79632509e-03 -5.66494418e-04 5.91185642e-03
    3.27647920e-03 4.58415924e-03 -6.93784142e-03 1.37451314e-03
    1.27051224e-03 -1.77386962e-03 -2.53499323e-03 6.22120046e-04
    -2.83953082e-03 2.29787710e-03 3.01277521e-03 -7.87716359e-03
    -1.00196130e-03 -1.29941676e-03 -2.40071490e-03 -4.68261167e-03
    -3.61858774e-03 -2.67534424e-03 6.65616756e-03 2.02281051e-03
    -8.38806760e-03 -3.79361631e-03 -1.24901370e-03 -2.45368923e-03
    -3.43399728e-03 1.47873384e-03 4.56256140e-03 6.60993345e-03
    2.12746370e-03 -1.05773509e-02 -4.74108709e-03 -2.06105178e-03
    -3.35588190e-03 -3.81727843e-03 -5.76495833e-04 1.03401393e-03
    2.56035849e-03 2.95048510e-03 -5.57658076e-03 -1.15276396e-03
    -1.95384026e-03 -1.66660186e-03 -3.72517505e-03 -2.32090009e-03
    -4.38124116e-05 5.23404637e-03 2.15544458e-03 -1.00794081e-02
    -9.00751725e-03 -7.22134206e-03 -8.03046685e-04 -5.76725637e-04
    -1.01593835e-03 4.60112188e-03 1.14089604e-02 6.06848346e-03
    -8.76161084e-03 -2.52414052e-03 -1.48432911e-03 -2.84179812e-03
    -4.50489903e-03 -2.25735945e-03 3.82452388e-03 9.89291724e-03
    2.53506494e-03 -1.68844927e-02 -9.03380103e-03 -4.73806961e-03
    -1.03853736e-03 -1.46218750e-03 -2.19659437e-03 7.04876240e-03
    7.35832378e-03 3.03939404e-03 -7.71604665e-03 -4.87599056e-03
    -2.30007549e-03 -5.99591993e-04 -2.04430381e-03 9.90710454e-04
    5.33720711e-03 5.38070826e-03 -2.37201736e-03 -5.50556742e-03
    -2.79275212e-03 -5.42858895e-03 -2.59711593e-03 -4.08195937e-03
    1.95429008e-03 2.48584617e-03 1.62874889e-02 1.89942657e-03
    -1.19529590e-02 -5.34998951e-03 -1.94810133e-03 4.92292398e-04
    5.76108810e-04 3.48472130e-03 1.06618647e-02 1.21384636e-02
    1.35616038e-03 -8.73776246e-03 -3.81423952e-03 -5.73666627e-03
    -1.92167005e-03 -3.17616016e-03 1.36508979e-03 1.08683938e-02
    4.04590834e-03 1.95442419e-03 6.19514904e-04 1.28909235e-03
    -2.24552187e-03 -1.78311137e-03 -1.23126071e-03 3.29580228e-03
    -3.50823888e-04 -1.58719125e-03 2.63548153e-03 1.30804593e-03
    -8.67548923e-04 -4.07187268e-03 -7.13877333e-03 -3.36628873e-03
    -2.17716745e-03 -4.12664749e-03 1.28475707e-02 6.99776970e-03
    -5.07633155e-03 -4.04442653e-05 -1.18073216e-03 -1.22959071e-04
    -1.40166737e-03 3.78197711e-03 6.81099715e-03 6.93984842e-03
    5.48577029e-03 -7.11104181e-03 -7.00949505e-03 -4.48563602e-03
    -2.78586708e-03 -2.48448434e-03 -2.76924897e-04 -8.49463802e-04
    5.67357114e-04 7.20309187e-03 8.46261065e-03 3.58159584e-03
    -5.65546332e-04 -5.51452534e-03 -3.52372951e-03 -4.81161848e-03
    -2.32597953e-03 5.18835383e-04 3.12326010e-03 7.41137611e-03
    2.62866216e-03 1.60063221e-03 1.31647906e-03 -2.55987491e-03
    -2.96428590e-03 -4.09278180e-03 3.85096506e-03 1.02453958e-02
    -1.81130227e-03 -3.58007522e-03 -3.28213559e-03 -3.26129026e-03
    -2.37219874e-03 4.22925164e-04 -1.15689065e-03 9.77951451e-04
    -1.80884567e-03 -3.41754151e-03 -3.60569940e-03 -1.91961022e-04
    2.33380659e-03 -1.95013208e-03 -4.43839061e-04 -2.96025048e-03
    4.25624428e-04 3.54729453e-03 6.45421259e-03 1.62746478e-03
    -7.50269508e-04 3.04653775e-03 2.78625824e-03 1.43629580e-03
    -8.29425335e-05 -4.58860816e-03 1.91492063e-03 6.03479845e-03
    3.84624279e-03 1.10601645e-03 7.10644410e-04 3.57180997e-03
    1.22325111e-03 -3.20883794e-03 -2.98381550e-03 -1.33451540e-03
    7.06420094e-03 1.03667029e-03 1.96779403e-03 4.86209942e-03
    1.85951544e-03 5.06347278e-04 -4.22816211e-03 -9.16067511e-03
    -1.85482844e-03 9.24639869e-03 8.64595454e-03 8.09087139e-03
    1.73547887e-03 8.91890610e-04 -2.12827744e-03 -7.11997133e-03
    -2.25943094e-03 3.48051521e-03 4.95638605e-03 5.40529750e-03
    5.84686687e-03 3.30276485e-03 4.98364819e-03 2.47200183e-03
    -3.74068157e-03 -1.74964487e-03 2.82479147e-03 1.17557647e-04
    8.46058887e-04 -9.15465120e-04 2.42683594e-03 3.16944160e-03
    1.70715246e-03 -3.59063991e-03 -5.28886821e-03 2.61266204e-03
    6.83645671e-03 7.67209847e-03 6.88501075e-03 3.13044107e-03
    1.93149678e-03 -1.18784257e-03 -6.02454739e-03 -6.17556646e-03
    1.33760949e-03 2.17158394e-03 1.85977784e-03 4.32814741e-05
    1.06810697e-03 8.87102156e-04 -1.60182489e-03 -7.79235736e-03
    3.67071270e-03 7.92943686e-03 3.84050165e-03 1.02683797e-03
    -3.70605476e-03 -4.25455248e-04 1.88147533e-03 2.12905128e-04
    -2.50163837e-04 -9.01296036e-04 8.36322084e-03 7.76682096e-03
    3.81384208e-03 -1.09228166e-03 -2.30996637e-03 4.88539808e-04
    -2.52175867e-03 -4.95313434e-03 -4.27300064e-03 6.33575255e-03
    7.03392504e-03 2.18114490e-03 3.63465602e-04 -1.98742119e-03
    -2.06087891e-04 -9.82752768e-04 -4.67133336e-03 -2.52605020e-03
    9.89251491e-03 7.91435689e-03 5.22301812e-03 9.60181176e-04
    1.53344602e-03 -7.83627504e-04 -2.01079389e-03 -5.47118811e-03
    1.04906212e-03 2.43933196e-03 3.10664228e-03 5.30595100e-03
    2.96394131e-03 -2.69305031e-03 -1.94569794e-03 -1.00677647e-03
    2.92855169e-04 -5.23817900e-04 5.32999542e-03 1.46641920e-03
    2.41943146e-03 -1.05748790e-04 -1.79890543e-03 -2.62021017e-03
    -2.57478748e-03 -1.60836469e-04 -1.40408275e-03 3.88586661e-03
    5.32375788e-03 4.34912695e-03 5.21922018e-03 2.88017537e-03
    -1.95742538e-03 -1.03943853e-03 -4.56664804e-03 7.11482484e-04
    3.42393876e-03 2.80389981e-03 -6.97333657e-04 4.47870872e-04
    2.87669478e-04 -6.44501718e-03 -4.84605227e-03 -2.20580655e-03
    -3.74329113e-03 4.92191361e-03 1.43915392e-03 -3.27823102e-04
    7.40455929e-04 1.21376838e-03 2.30952655e-03 4.02890328e-05
    -1.14072522e-03 -2.77302133e-05 5.84213994e-04 -1.12978603e-04
    -2.99727218e-03 1.00453862e-03 -9.03668872e-04 3.08394688e-03
    3.13684228e-03 1.36325124e-03 -1.57662632e-03 4.63451864e-03
    -7.44747813e-04 -4.71362052e-03 1.37877988e-03 1.11847720e-03
    -1.24762813e-03 -2.47759838e-03 -3.33779864e-03 -4.92708859e-05
    1.23905099e-03 -2.53465655e-03 -5.32926712e-03 5.12996409e-03
    -2.15208391e-03 -2.28565270e-07 3.88496066e-03 -3.69836646e-03
    4.21351194e-03 5.17124659e-04 -1.49577926e-03 -1.10335974e-03
    1.01543532e-03 -5.02982689e-03 -5.01170929e-04 2.45384127e-03
    6.21151738e-03 2.34784861e-03 5.10363956e-04 -4.99921106e-03
    -4.14685579e-03 1.04741391e-03 -3.60206654e-03 -7.20813579e-04
    4.00745636e-03 3.96696152e-03 1.81685423e-03 -3.89269262e-04
    -2.58323620e-03 -3.02405143e-03 1.44365779e-03 -6.45142980e-03
    -2.85421102e-03 2.55252793e-03 2.38461909e-03 -3.88100510e-03
    -4.48185904e-03 -9.34398174e-03 -4.73399088e-03 -1.14822539e-03
    -3.13471677e-03 -2.90472852e-03 8.97637336e-04 4.51698527e-03
    2.19656131e-03 -1.06846890e-03 -5.98071888e-03 -5.16333897e-03
    6.79237884e-04 -5.04071591e-03 -1.84258341e-03 4.60955780e-03
    6.71071233e-03 -2.55046529e-03 -4.80482401e-03 -6.67887926e-03
    -1.01896683e-02 4.38467861e-04 -3.98342591e-03 1.07724925e-04
    7.71822594e-03 1.04270587e-02 -4.10391483e-03 -8.89387168e-03
    -8.33059847e-03 -4.83637257e-03 2.29047914e-03 -3.62374797e-03
    -2.51436722e-03 2.67490372e-03 8.42264760e-03 -6.50205510e-03
    -1.11444797e-02 -6.34073745e-03 -7.18085468e-03 4.67157736e-03
    -1.48617825e-03 2.38604285e-03 6.72799535e-03 5.42434771e-03
    3.16489395e-03 8.52892827e-03 -7.64540536e-03 -2.85081146e-03
    -4.65892022e-03 4.30588349e-04 8.67458293e-04 4.14929527e-04
    -1.29101297e-03 4.56311181e-03 1.15361381e-02 -5.19881118e-03
    -2.69527128e-03 -5.68299880e-03 -1.20702724e-03 -3.76980868e-03
    -8.61707376e-04 -1.97654869e-03 8.64062167e-04 1.58791244e-02
    -1.82942790e-03 -6.21594395e-03 -9.06410906e-03 -9.83992708e-04
    -9.20855906e-04 4.20314376e-04 -6.09006360e-03 4.39104950e-03
    1.43199749e-02 -1.40052452e-03 -3.07905395e-03 -7.34531088e-03
    -2.48300051e-03 -6.63858838e-03 -2.09846674e-03 -5.94720338e-03
    5.22728497e-03 1.32038007e-02 -4.11822839e-04 -3.56591772e-03
    -4.11001500e-03 -1.98042206e-03 -5.14251273e-03 -7.33098423e-04
    -2.69819424e-03 4.72439919e-03 8.85406788e-03 -7.48995319e-03
    -5.06379083e-03 -2.69848015e-03 -1.53527420e-03 -2.90586450e-03
    2.43564742e-03 -1.57702190e-03 3.94565426e-03 1.30709670e-02
    -1.67294615e-03 -1.55470450e-03 -1.14259380e-03 -2.51519843e-03
    -8.20035394e-03 -4.06384096e-03 -5.94151113e-03 -1.33041514e-03
    2.27574166e-03 -1.07053900e-02 -4.73312428e-03 -3.86837171e-03
    -2.38383841e-03 -5.11877984e-03 -2.17951927e-03 -6.90618344e-03
    6.49602572e-03 4.50033834e-03 -7.85338972e-03 -3.98688950e-03
    -1.27256790e-03 -2.46641855e-03 -1.03885250e-03 8.12000886e-04
    2.78982962e-03 1.01528810e-02 2.19013472e-03 -6.17152732e-03
    -2.08114577e-03 1.80059524e-05 -1.88437058e-03 -1.13047101e-03
    -5.40572742e-04 2.65651685e-03 6.64069259e-04 2.06388603e-03
    -9.64727812e-03 -5.57845784e-03 -4.18489194e-03 -1.95729313e-03
    -1.24308036e-03 8.98058235e-04 1.28479302e-03 5.25361439e-03
    -5.74047735e-04 -1.03340521e-02 -5.26643358e-03 -2.07149936e-03
    -2.18748511e-03 1.15592149e-03 2.53294338e-03 3.29054287e-03
    9.11387987e-03 2.63239373e-04 -6.15546759e-03 -3.58827040e-03
    -1.15803198e-03 -6.92114292e-04 1.98278390e-03 2.83756480e-03
    1.88324531e-03 7.73681328e-03 5.00673288e-03 -7.26581644e-03
    -3.85763776e-03 -2.54341075e-03 -2.45540659e-03 1.68533428e-04
    3.97527544e-03 -7.56336958e-04 9.31940507e-03 2.82359752e-03
    -1.14547918e-02 -4.12177993e-03 -1.08323344e-04 -1.25738804e-03
    2.38914322e-03 2.15559220e-03 6.31901377e-04 5.05412603e-03
    4.05116100e-03 -1.09489132e-02 -5.83749544e-03 -4.82838880e-03
    -6.30029535e-04 1.68840808e-03 2.17885850e-03 -4.69026912e-04
    9.16616432e-03 1.05065256e-02 -5.51910186e-03 -2.04816554e-03
    -3.42848315e-03 -3.33142886e-03 -2.67045456e-03 -2.10685379e-04
    2.52996746e-04 9.87912901e-03 3.47614754e-03 -1.44319097e-02
    -6.79073902e-03 -2.89912056e-03 -1.33660110e-03 -8.68030183e-04
    9.52666276e-04 3.65294050e-03 7.70759163e-03 8.79978761e-03
    -7.70042324e-03 -4.16228175e-03 -4.96166758e-03 -2.74152821e-03
    -2.06473004e-03 -4.56389331e-04 -1.34828966e-03 7.40256952e-03
    2.17090710e-03 -1.43072447e-02 -7.75842415e-03 -3.26068373e-03
    -3.50465579e-03 -1.62477011e-03 2.12678895e-03 3.17002111e-03
    9.72985290e-03 1.97549188e-03 -7.56488321e-03 -2.53583118e-03
    6.67351589e-04 1.02105283e-03 3.56809166e-03 5.83159225e-03
    7.30870757e-03 5.23015717e-03 1.69654004e-03 -9.23349522e-03
    -4.88842931e-03 -2.19162251e-03 8.53082747e-04 2.45656981e-03
    6.34879479e-03 5.73357381e-03 5.06110210e-03 1.48431922e-03
    -8.48580990e-03 -2.41136993e-03 1.56619679e-03 3.93299822e-04
    2.90563004e-03 4.53029200e-03 5.31311380e-03 -2.13925960e-04
    -2.15360848e-03 -8.02282710e-03 -3.71691678e-03 -3.99888819e-03
    -4.09839966e-04 1.72953785e-03 7.35280337e-03 2.41439207e-04
    4.81463969e-03 5.31711755e-03 -6.63222373e-03 -1.98001089e-03
    2.59520556e-03 1.68769329e-03 2.80531752e-03 7.62630114e-03
    5.66442963e-03 4.74153925e-03 4.45718598e-03 -9.89583507e-03
    -4.73950431e-03 -2.57629552e-03 -2.79987301e-03 -1.30327605e-03
    2.65677716e-03 6.11962052e-04 2.62876530e-03 5.31365303e-03
    -2.48370692e-03 -1.25272677e-03 -7.09807326e-04 -3.87325272e-05
    1.72877673e-03 8.81749392e-03 3.19057447e-03 2.72953999e-03
    4.34432598e-03 -7.01737404e-03 -1.12527597e-03 -1.23210310e-03
    -4.86208126e-03 -4.28861845e-03 2.38410966e-03 -1.02211896e-03
    5.07294014e-03 6.90383511e-03 -3.09055625e-03 -1.40122647e-04
    -1.28798222e-03 -2.24766298e-03 -8.77624378e-04 4.48063621e-03
    2.49204761e-03 -1.97390630e-03 1.61431823e-03 4.46466496e-04
    9.48891218e-04 -6.79950230e-04 6.77736418e-04 3.49730290e-05
    2.81011942e-03 -4.60060965e-03 8.45005363e-03 9.28598922e-03
    9.75331292e-04 6.91684475e-03 4.27589146e-03 -3.41688952e-04
    -7.53298867e-04 4.05393681e-03 1.86803896e-04 -3.09726619e-03
    5.83317131e-03 4.80220001e-03 1.13991005e-02 4.59228177e-03
    3.99262120e-04 3.67442583e-04 3.13486112e-03 -5.89825492e-03
    -4.68784850e-03 4.50557517e-03 1.21329101e-02 7.97624234e-03
    4.26709233e-03 2.55896826e-03 1.85522716e-03 1.36894872e-03
    -7.35054910e-03 -9.51853488e-03 4.22869949e-03 1.33929839e-02
    1.14768418e-02 1.00319497e-02 2.62726622e-04 9.20611201e-04
    -3.02034104e-03 -1.00262547e-02 -6.71632355e-03 6.29426911e-03
    1.05060348e-02 1.12365233e-02 6.94444124e-03 1.89846219e-03
    2.79368367e-03 1.58212369e-03 -8.89373850e-03 -1.09815197e-02
    2.22531194e-03 1.32898670e-02 1.26979593e-02 1.04831755e-02
    1.78252219e-03 2.14288593e-03 -4.47803177e-03 -1.46501502e-02
    -6.34916173e-03 8.10053293e-03 8.72706249e-03 6.26626099e-03
    8.10413621e-03 4.30196896e-03 3.88141745e-03 -3.07749491e-04
    -8.41853488e-03 -3.81503091e-03 8.78169574e-03 9.03865695e-03
    2.30065707e-04 2.11433333e-04 9.71919741e-04 2.17362051e-03
    9.65259038e-04 -6.82309968e-03 -8.87602568e-03 3.60122742e-03
    1.41741447e-02 1.42275449e-02 8.51447321e-03 2.77075730e-03
    2.95824208e-03 -3.79083841e-03 -1.18357269e-02 -9.21183731e-03
    5.93282143e-03 1.84702519e-02 1.16379159e-02 2.54230038e-03
    -1.11443980e-03 7.97295710e-04 -2.82781431e-03 -1.10466881e-02
    -2.35131802e-03 1.27004227e-02 1.13388393e-02 1.05826976e-03
    -4.92040813e-03 -2.18552700e-03 -3.90364323e-04 1.36571075e-03
    -4.92128124e-03 -3.39599722e-03 8.52265023e-03 8.04137159e-03
    5.89483930e-03 1.29562535e-03 2.39722896e-03 4.14116681e-03
    5.93110779e-03 -3.30395414e-03 -8.56057275e-03 7.30850315e-03
    1.68175977e-02 9.96334385e-03 -1.98360765e-03 -2.65688472e-03
    -1.41280820e-03 -1.43343420e-03 -8.40655901e-03 -9.94492695e-03
    2.27802852e-03 8.45588092e-03 1.00611644e-02 4.31817584e-03
    2.81707291e-03 2.65066419e-03 3.34410323e-03 -3.54579254e-03
    -3.85669665e-03 6.36729645e-03 6.98843831e-03 5.87523822e-03
    4.32416657e-03 4.45601763e-03 2.60756677e-03 1.40215398e-03
    -3.58823361e-03 -1.34238438e-03 4.50415350e-03 3.26427375e-03
    2.29465845e-03 -7.82022762e-05 2.39843689e-03 -2.38136854e-03
    -3.43483780e-03 -1.84583396e-03 -5.98201482e-03 -1.54115772e-03
    2.70290393e-03 6.27420144e-03 7.20162224e-03 2.62667635e-03
    1.42375985e-03 4.20907134e-04 -1.75271672e-03 1.13667129e-03
    3.82823031e-03 4.54267999e-03 2.23115087e-03 1.24627782e-03
    2.58048018e-03 -1.98714668e-03 -3.40150250e-03 -1.47730007e-03
    1.39937911e-03 8.17592628e-03 3.72004067e-03 -3.12499527e-04
    2.89341481e-03 -2.25365933e-04 -3.13246087e-03 -4.57880611e-04
    1.73311529e-03 -3.00755096e-03 2.58687325e-03 -2.84016511e-04
    -5.06077055e-03 4.15357947e-03 -4.38930467e-03 -1.89881655e-03
    8.11038539e-03 9.54952498e-04 -1.42040092e-03 4.41742223e-03
    2.91171460e-03 -3.00549832e-03 2.40260572e-03 1.29853922e-03
    -2.07369053e-03 8.64489004e-04 -1.07942452e-03 -4.64644562e-03
    6.86711515e-04 -4.28903429e-03 -7.16531556e-03 -7.73799664e-04
    -9.76181589e-04 6.93056558e-04 4.34751669e-03 -2.62543588e-04
    -4.48097941e-03 -1.03912456e-03 -4.14758781e-03 -3.91263934e-03
    5.24577277e-04 -4.82341414e-03 5.82457462e-04 8.05490278e-03
    4.28013690e-03 -5.50637813e-03 -3.30951810e-03 -6.51395647e-03
    -5.15599316e-03 1.75165420e-03 7.58775859e-04 1.80747721e-03
    6.61277305e-03 2.61131278e-03 -4.90765693e-03 1.38161890e-03
    -2.75382423e-03 -3.50596290e-03 -2.66953721e-03 -2.08584568e-03
    1.11213140e-03 3.87240876e-03 2.52082595e-03 -7.91361276e-03
    -1.52332021e-03 1.08351151e-03 2.40724214e-04 4.15951479e-03
    2.40356103e-03 2.86840717e-03 2.65084137e-03 -2.23751325e-04
    -6.87752990e-03 -3.52745061e-03 -6.48792088e-03 -6.42509898e-03
    4.16563079e-03 1.47933592e-04 1.70990580e-03 6.10920461e-03
    4.82960464e-03 -5.63295931e-03 -6.49741944e-03 -8.13455041e-03
    -8.45655426e-03 2.02450831e-03 -2.19997554e-03 5.48963575e-03
    1.04968334e-02 6.39994536e-03 -6.56887423e-03 -4.75632446e-03
    -6.76091807e-03 -3.04534426e-03 7.82898720e-03 2.95398198e-03
    3.18292738e-03 5.69145335e-03 3.27104796e-03 2.72577250e-04
    -4.98183584e-03 -7.89674278e-03 -5.33498684e-03 3.03809298e-03
    -3.95274395e-03 -6.71743415e-04 8.36436823e-03 9.32515692e-03
    6.63962169e-03 1.62964109e-02 -1.72187691e-03 -5.87509247e-03
    -7.29393354e-03 -1.65885082e-03 1.47042365e-03 2.95782345e-03
    -6.10814942e-03 5.58291702e-03 1.68222878e-02 -1.77523377e-03
    -4.32317518e-03 -6.29499787e-03 -2.43821018e-03 -3.03175696e-03
    1.29905506e-03 -3.47031653e-03 -5.24897594e-03 7.59304129e-03
    -6.85543101e-03 -9.02168453e-03 -7.41147110e-03 -1.00845343e-03
    -1.32499466e-04 -1.75577705e-03 -1.12204673e-02 -6.53129676e-03
    -3.87095002e-04 -8.71669780e-03 -7.65106129e-03 -4.84843645e-03
    -2.93610385e-03 -1.53056299e-03 3.57980520e-04 -6.89630723e-03
    6.51825685e-03 1.18036205e-02 1.06116604e-04 -6.13881508e-04
    9.19201819e-04 -5.14123007e-04 -3.58796492e-03 1.85919620e-04
    9.24662800e-06 -1.21582276e-03 4.27583407e-04 -5.00697596e-03
    -1.61824413e-04 -5.72836376e-04 -9.23093350e-04 -1.45218521e-03
    7.20637676e-04 -3.86302080e-03 -1.79470866e-03 2.41447845e-03
    -5.01852110e-03 -1.93737098e-03 1.23352080e-03 -1.88531075e-03
    -2.53550196e-03 9.91558074e-04 7.66999146e-04 2.50984216e-04
    -1.21357793e-03 -7.87685625e-03 -1.21349434e-03 -8.03717194e-05
    -3.96906585e-03 -5.00281295e-03 -7.61200499e-04 4.80676172e-05
    -9.03575739e-04 -9.32174851e-04 -4.74882079e-03 -2.49547604e-03
    7.82278541e-04 -6.45898399e-04 -3.27497517e-04 2.61377683e-03
    1.37911033e-04 4.32859734e-03 3.57766519e-03 -8.84262286e-03
    -4.34851972e-03 -1.02011405e-03 -1.36972766e-03 1.98954856e-03
    5.03621763e-03 9.86686093e-04 3.59794335e-03 6.04948308e-03
    -5.00488747e-03 -2.19813501e-03 -1.49845704e-03 -2.44939188e-03
    -1.15327234e-03 -3.88594839e-04 -1.90828217e-03 5.81566105e-03
    7.94408936e-03 -5.83134126e-03 -2.90197763e-03 2.49313744e-04
    -6.42458384e-04 -7.26891449e-04 9.14455624e-04 -2.93041719e-03
    7.51749566e-03 5.85460011e-03 -7.14545790e-03 -3.47505370e-03
    2.19711103e-03 -6.28678477e-04 1.69648579e-03 1.13732554e-03
    -8.23998475e-04 9.33933351e-03 6.31640060e-03 -7.57835479e-03
    -5.71341300e-03 -4.52376815e-04 1.26043044e-03 3.52906878e-03
    2.17093667e-03 2.56544934e-03 8.14359449e-03 8.10435880e-03
    -7.00479979e-03 -4.85920534e-03 1.31828780e-03 -1.22882484e-04
    -2.09061219e-03 -8.28875985e-04 -1.79428631e-03 8.19687545e-03
    4.35680430e-03 -9.64526832e-03 -1.07888933e-02 -1.77299744e-03
    -2.27349950e-03 -7.57193775e-05 8.33884289e-04 3.91247030e-03
    6.91665895e-03 7.28222588e-03 -7.35195260e-03 -3.25589580e-03
    4.84703232e-05 -5.95270889e-04 8.94935627e-04 1.53806002e-03
    9.89581924e-04 1.02705136e-02 1.74335961e-03 -1.13491602e-02
    -3.53845744e-03 1.27359817e-03 -9.16371006e-04 -2.58064433e-03
    1.89538303e-04 2.22281227e-03 1.19205890e-02 4.14146530e-03
    -8.81017093e-03 -8.15285835e-03 -4.04030550e-03 -5.27183898e-03
    -2.90342001e-03 8.81461427e-04 4.39434312e-03 9.76542011e-03
    2.86230957e-03 -1.00152008e-02 -5.45384269e-03 -4.64708428e-04
    -5.10549918e-03 -7.21239625e-03 -1.37903422e-04 6.65601529e-03
    9.92741808e-03 2.89661856e-03 -7.14009255e-03 -3.06747551e-03
    -1.75838592e-04 9.43951251e-04 -1.15404068e-03 -7.22687517e-04
    2.18165875e-03 5.91948396e-03 6.10410143e-03 -5.86104998e-03
    -2.03437544e-03 -4.43617254e-03 -2.53481587e-04 -6.34783006e-04
    2.29170034e-03 -4.80905827e-03 9.33548622e-03 2.96109566e-03
    -8.21343623e-03 -1.93433370e-03 1.75983543e-04 -2.34317908e-04
    -4.29505575e-03 9.16405173e-04 3.59999109e-03 6.07806584e-03
    4.23798757e-03 -1.04792444e-02 -2.50288332e-03 2.98369210e-03
    1.88959716e-03 -2.52696685e-03 1.56171538e-03 -1.44756224e-03
    3.76748876e-03 8.96403845e-03 -4.23563179e-03 -8.87736620e-04
    -1.72262604e-03 1.29564520e-04 -1.97034935e-03 4.62376559e-03
    -1.46658451e-03 2.97052506e-03 4.76364372e-03 -7.42605142e-03
    -2.40458502e-03 -1.95188646e-03 -2.31523329e-04 -2.98373657e-03
    1.58831372e-03 -2.31893407e-03 5.63996052e-03 7.65523827e-03
    -4.83078463e-03 -1.03335755e-04 3.60460626e-03 3.64185218e-03
    -3.20267107e-04 3.38828657e-03 1.00303127e-03 2.39636749e-03
    7.09275855e-03 -1.35544850e-03 -4.88046120e-04 -7.82523653e-04
    1.39433381e-04 -1.98674761e-03 1.01345789e-03 -3.97163123e-04
    1.55019155e-03 5.06783416e-03 -2.79329455e-04 5.82142500e-03
    1.83800166e-03 3.17262299e-03 1.34313898e-03 3.03574302e-03
    -3.87683394e-03 -5.24084317e-03 1.16113969e-03 3.62013862e-03
    7.39724888e-03 4.31067450e-03 1.70134893e-03 -7.67814287e-04
    -9.46844288e-04 -1.13162408e-02 -1.77343586e-03 1.19986292e-02
    4.90793819e-03 6.21114857e-03 3.51667753e-03 1.16061768e-03
    1.90560182e-03 1.79332984e-03 -1.48389256e-03 -4.15979931e-03
    1.07433302e-02 1.41648101e-02 5.73856384e-03 1.36204401e-03
    4.59632603e-04 5.22291462e-04 1.15455630e-04 -8.30384437e-03
    -6.52871421e-03 3.94369429e-03 8.44770484e-03 6.30649785e-03
    4.00597695e-03 3.82478535e-03 1.98179833e-03 3.71343456e-04
    -1.03429053e-02 -9.60342493e-03 -1.74371366e-04 9.79338866e-03
    7.93750491e-03 1.64910813e-03 1.32273382e-03 3.29939532e-04
    -3.03451321e-03 -1.39952460e-02 -5.10150241e-03 5.25201391e-03
    2.05847230e-02 9.31373518e-03 3.33710643e-03 4.95041162e-03
    4.68926551e-03 4.46098344e-03 -6.26425678e-03 -1.10592684e-02
    7.29992113e-04 1.68035366e-02 7.91306142e-03 1.43316889e-03
    3.47903254e-03 2.55556661e-03 2.70712376e-03 -9.32966825e-03
    -2.95812776e-03 6.54571410e-03 1.62602831e-02 1.07499165e-02
    2.50673923e-03 9.72813577e-04 4.73426655e-04 -3.96673288e-03
    -8.62518232e-03 -7.16161402e-03 6.18695468e-03 1.94985010e-02
    1.17993085e-02 -3.45411943e-03 -2.64108903e-03 -1.00388844e-03
    -3.94271640e-03 -6.06224313e-03 -5.85942203e-03 5.86907146e-03
    1.76761728e-02 9.83834360e-03 2.48441542e-03 1.05039147e-03
    -1.18659146e-03 7.89148107e-05 -4.69212979e-03 -1.09968511e-02
    3.26844677e-03 1.70343611e-02 8.70177243e-03 -3.19015584e-03
    -1.46095187e-03 -5.48760581e-04 -1.73664105e-03 -7.10352371e-03
    -9.35807358e-03 2.29272037e-03 1.69027559e-02 1.21582290e-02
    -3.55236046e-03 -1.73560300e-04 -1.69234001e-04 -8.28619115e-04
    -4.39748075e-03 -1.15141105e-02 -6.48246423e-05 9.92666837e-03
    1.28177935e-02 4.36528213e-03 5.44817885e-03 2.28117476e-03
    2.38477063e-04 -2.40547536e-03 -1.18634263e-02 -1.13814697e-03
    1.33155026e-02 1.21149672e-02 -1.56097848e-03 1.35407865e-03
    1.55934144e-03 6.04427536e-04 -5.52500878e-03 -1.07844472e-02
    3.65613750e-03 1.49996057e-02 1.59492791e-02 7.33704632e-03
    4.43793787e-03 1.49403990e-03 -1.12820475e-03 -8.34361091e-03
    -6.39006915e-03 -2.13022064e-03 5.74634084e-03 1.03912447e-02
    9.73403081e-03 2.88350112e-03 -2.19712572e-04 7.27536972e-04
    -3.89240129e-04 1.50450808e-03 4.55402723e-03 4.94275754e-03
    1.48818851e-03 -2.67104595e-03 -8.59979264e-05 -2.69219954e-03
    -3.09174228e-03 -1.94891600e-03 -9.00080148e-03 4.09447122e-03
    1.19314864e-02 1.18932482e-02 6.88184099e-03 1.93699985e-03
    8.64204660e-04 4.43616998e-04 -6.72722934e-03 -5.48526691e-03
    6.76778005e-03 6.37891376e-03 3.57498671e-03 -1.84668938e-03
    8.86688009e-04 -2.22865306e-03 -2.65794736e-03 -8.95982608e-03
    1.93129771e-03 5.45448763e-03 2.07926240e-03 -4.05237591e-03
    -1.21779798e-03 2.23132013e-03 5.82873065e-04 1.99937727e-03
    2.49688514e-03 -1.46275642e-03 1.83680956e-03 -1.11871061e-03
    -5.42206597e-03 -2.83318944e-03 1.22568500e-03 -4.63071017e-04
    2.27270206e-03 1.04372553e-03 -5.31176478e-03 5.83143951e-03
    8.44911300e-03 5.86618995e-03 7.75872916e-03 1.00293127e-03
    -1.78582268e-03 -1.28656765e-03 -4.53322008e-03 -4.69916221e-03
    4.76483349e-03 8.71056691e-03 1.91647664e-03 5.99937700e-03
    -1.39908670e-05 -3.98402335e-03 -2.34976225e-03 -4.30148840e-03
    -3.01254960e-03 3.64867481e-03 1.87289063e-03 -2.74043810e-03
    -2.01608054e-03 -1.52545719e-04 4.02598671e-04 1.89413421e-03
    3.07308347e-03 -7.36793550e-03 -3.01929587e-03 -2.24170904e-03
    -3.68020235e-04 7.01992493e-03 2.15446507e-03 1.61489646e-03
    1.82355754e-03 6.77943346e-04 -1.56682520e-03 7.08907191e-03
    3.24594602e-03 -4.37694427e-04 6.09230017e-03 1.61998195e-03
    -3.05810710e-03 -2.37606070e-03 -1.33267278e-03 -1.78341113e-03
    3.16252420e-03 -4.28024493e-03 3.82024678e-03 7.90451746e-03
    -7.50051579e-04 -2.25508492e-03 -3.29729426e-03 -4.10067569e-03
    -6.32105675e-03 -8.31668917e-03 -7.14782067e-03 -6.23103464e-04
    5.71447890e-03 2.78269965e-03 1.01691170e-03 3.37919989e-03
    1.96240074e-03 2.68005161e-03 -2.82381359e-03 -4.08507837e-03
    -2.02514301e-03 2.18281336e-03 -3.51428147e-03 -2.77379621e-03
    5.02645969e-03 5.00276731e-03 -2.92572449e-03 -1.01396127e-03
    1.17177272e-03 2.86767003e-03 4.00150241e-03 -3.67455767e-03
    -4.13854746e-03 -2.11364962e-03 -3.54982587e-03 -1.05933344e-03
    5.51482569e-03 7.28741940e-03 2.53596413e-03 3.13427299e-03
    -5.74718183e-03 -4.27324791e-03 -8.66250717e-04 -1.66072801e-04
    -5.58685139e-03 6.85294624e-03 -3.29866330e-03 -6.71238638e-03
    -8.40617437e-03 -1.63871492e-03 -1.01489939e-04 -2.20666756e-03
    -1.38626397e-02 -3.30614205e-03 9.18458402e-03 -4.18764120e-03
    -2.81387800e-03 -4.22508875e-03 -2.82528810e-03 -3.09883477e-03
    -1.82118922e-04 -7.74524407e-03 3.00469017e-03 1.31573351e-02
    -5.93233714e-03 -4.74821450e-03 -8.09746701e-03 -3.15771089e-03
    -1.44736678e-03 -5.49217081e-03 -7.11448910e-03 6.42432319e-03
    1.35054095e-02 -3.80951189e-03 -3.26712546e-03 -2.58944440e-03
    -4.40338627e-03 -4.73998114e-03 -3.01557430e-03 -4.23341012e-03
    -1.54906325e-03 6.27512950e-03 -2.64935661e-03 -1.39963289e-03
    4.54601221e-04 -1.14461046e-03 -2.69716978e-03 1.31414924e-03
    -3.54680652e-03 -1.04772684e-03 6.82453020e-03 -8.44043773e-03
    -6.70454372e-03 -6.24623988e-03 -3.05819488e-03 -3.19326064e-03
    1.08917267e-03 -1.77913113e-03 7.26030953e-03 1.30412569e-02
    -3.23935808e-03 -4.99325758e-03 -5.24791051e-03 -1.60878582e-03
    -4.74439003e-03 -1.79567316e-03 -7.04968057e-04 4.98494273e-03
    5.68688521e-03 -6.87143207e-03 -9.83401015e-03 -1.14018070e-02
    -2.65872432e-03 -7.28001539e-03 -2.03164667e-03 -2.43728841e-03
    1.77167880e-03 1.06399506e-02 -2.77927681e-03 -2.87296413e-03
    -4.53804946e-03 -1.84934738e-03 -9.72547452e-04 1.29268994e-03
    -2.89511308e-03 6.20343396e-03 6.66830596e-03 -5.91275096e-03
    -1.71920739e-03 2.87449546e-03 -1.90964609e-03 -2.30589579e-03
    7.45992467e-04 -5.56816952e-03 6.97546499e-03 3.32681509e-03
    -5.25827939e-03 -3.44960275e-03 -4.06789035e-03 -3.08812154e-03
    -3.75517481e-03 1.93833071e-03 3.96475632e-04 7.70365121e-03
    -6.41777122e-04 -1.40844090e-02 -3.66810360e-03 2.09856965e-03
    -1.74536870e-03 -2.42764037e-03 2.56053475e-03 4.24255664e-03
    1.02725029e-02 1.04222251e-02 -5.53654414e-03 -4.45033191e-03
    -4.03135433e-04 -1.00003474e-03 4.78194270e-04 3.29267792e-03
    -3.92672140e-03 1.36501649e-02 8.99379794e-03 -9.20925476e-03
    -8.67120456e-03 -4.06129984e-03 -1.21471216e-03 1.77823054e-03
    3.65570630e-03 8.94129917e-04 1.64867789e-02 5.31221787e-03
    -1.15562705e-02 -8.38690996e-03 -2.68785446e-03 -2.14007823e-03
    -5.41921647e-04 3.24292667e-03 6.36339653e-03 1.80389043e-02
    6.11734251e-03 -1.23615349e-02 -1.08401319e-02 -4.37313458e-03
    -2.30567600e-03 -9.50586749e-04 2.98163365e-03 6.42172573e-03
    1.36136618e-02 3.71568976e-03 -1.10295899e-02 -1.00539699e-02
    -4.72902972e-03 -3.62257659e-03 -7.67097634e-04 1.61337235e-03
    2.95841531e-03 1.50166051e-02 6.15971955e-03 -8.35491437e-03
    -5.59012033e-03 -3.80119251e-04 -1.83687697e-03 -4.08827653e-03
    -6.82605663e-04 1.74808339e-03 1.79662444e-02 8.75658076e-03
    -1.30828125e-02 -7.88819417e-03 -3.72235454e-03 -3.73212784e-03
    -3.77609744e-03 -4.80680144e-04 1.82410923e-03 1.32010188e-02
    1.41281690e-02 -5.14109479e-03 -3.52355442e-03 -1.11529371e-03
    -2.14993977e-03 -7.43728178e-03 -5.81098907e-03 -2.38956488e-03
    1.03469789e-02 7.99749698e-03 -2.19905865e-03 -1.38507201e-03
    7.58420618e-04 3.79128905e-04 -4.62099817e-03 -1.28541212e-03
    -3.21523543e-03 7.76375877e-03 7.26782810e-03 -6.50317129e-03
    -1.36089115e-03 3.34340986e-03 1.20527914e-03 -4.34988923e-03
    -1.74057437e-03 -5.67331119e-03 9.41724982e-03 1.13831321e-02
    -1.54361257e-03 -3.14321043e-03 -1.98781909e-03 -7.26880098e-04
    -7.47114001e-03 -6.97462400e-03 -5.44825196e-03 5.10874810e-03
    9.49804392e-03 -5.56276133e-03 -1.31197693e-03 -1.53880182e-03
    -1.70135358e-03 -9.03377961e-03 -6.13405695e-03 -7.96265155e-03
    8.63345247e-03 8.43704771e-03 -4.83134855e-03 -4.60138777e-04
    2.16571521e-03 2.46801181e-03 -1.78916613e-03 1.57373678e-03
    -2.03458569e-03 -4.70951723e-04 3.83565645e-03 -1.24149490e-03
    -1.79394137e-03 -2.66924105e-03 -1.11394958e-03 -3.93140456e-03
    -8.45254515e-04 -4.38394956e-03 8.68416298e-03 1.28769139e-02
    -2.43507046e-03 7.65944424e-04 1.51933765e-03 1.34543376e-03
    -4.97264415e-03 -1.07074436e-03 -3.20535013e-03 -7.28231738e-04
    6.89748349e-03 1.07100303e-03 5.44819573e-04 -2.52124458e-03
    1.28529873e-03 -3.06336046e-03 -2.11928133e-03 -7.09581980e-03
    -3.46860802e-03 9.26119834e-03 7.45314686e-03 1.94474391e-03
    -5.05433018e-05 -1.18013599e-03 -1.27158570e-03 -8.09778794e-05
    -3.39385960e-03 -6.51357509e-03 9.14880075e-03 1.06037455e-02
    1.31867500e-03 8.09259887e-04 1.29669695e-03 1.12356187e-03
    -3.09722382e-04 -7.04284711e-03 -3.17506189e-03 6.81899441e-03
    5.62200602e-03 1.37364713e-03 -1.72835356e-03 1.65714230e-03
    -1.06628845e-03 2.55565858e-04 -8.94480851e-04 -4.93201613e-03
    1.77333120e-03 4.09401162e-03 -1.18977472e-03 4.53374843e-04
    3.44737596e-03 2.98965344e-04 1.88454520e-03 1.98889975e-04
    -4.86432761e-03 1.30713815e-02 1.90485809e-02 7.57492380e-03
    3.43957427e-03 5.17549738e-03 4.43670247e-03 3.74284573e-03
    -4.14850283e-03 -1.39647340e-02 2.32114247e-03 1.92799252e-02
    7.47387158e-03 2.68765469e-03 2.77520367e-03 1.57820305e-03
    3.25196097e-03 -6.55604433e-03 -4.80895489e-03 7.03178393e-03
    1.17368959e-02 2.95876130e-03 1.30480144e-03 5.19207632e-03
    1.48116809e-03 2.96658580e-03 -2.76243663e-03 -1.40121644e-02
    1.59707363e-03 1.06522366e-02 5.08060446e-03 -1.36581803e-04
    3.20682448e-04 -3.47035297e-04 9.78836557e-04 -5.81877166e-03
    -7.70648988e-03 4.51335963e-03 1.81239862e-02 8.99255369e-03
    2.65589054e-03 2.73377215e-03 1.53981533e-03 3.86749534e-03
    -3.36248474e-03 -1.48652876e-02 -2.46572657e-03 1.74590312e-02
    1.04611497e-02 2.07316270e-03 3.86594422e-03 3.95501172e-03
    1.26643851e-03 -8.21282063e-03 -8.93067196e-03 4.90689138e-03
    1.11769736e-02 8.48817639e-03 3.46727739e-03 3.49571533e-03
    3.72554408e-03 3.99200758e-03 -3.63858789e-03 -1.56285167e-02
    3.28083319e-04 1.24177607e-02 1.55507512e-02 7.82024860e-03
    6.10845862e-03 4.17406065e-03 3.41619103e-04 -7.20435940e-03
    -1.54877044e-02 -3.10518453e-03 1.45209692e-02 9.92561039e-03
    1.70479878e-03 2.72821612e-03 3.10242991e-03 6.61995960e-04
    -8.63168202e-03 -1.21293953e-02 4.41685691e-03 1.61191020e-02
    1.14292465e-02 4.89086891e-03 4.28291690e-03 4.27669991e-04
    -1.51237124e-03 -1.23676807e-02 -1.49884000e-02 -1.16924544e-04
    1.44961588e-02 1.06474524e-02 8.03836505e-04 2.58752261e-03
    3.14505119e-03 8.95133009e-04 -5.75170852e-03 -8.77972785e-03
    8.41525104e-03 1.43849598e-02 1.08347125e-02 1.08620105e-03
    5.30875148e-03 1.54571247e-03 -1.18247326e-03 -6.24137092e-03
    -1.23823015e-02 6.95972843e-03 1.32237989e-02 5.67481015e-03
    3.70819168e-03 2.37137266e-03 1.12077098e-04 3.32252908e-04
    -1.01231234e-02 -1.07157342e-02 5.86847914e-03 9.35405400e-03
    2.34826398e-03 -1.67918240e-03 3.21592670e-03 1.67041528e-03
    1.31254853e-03 -1.08282296e-02 -6.98161358e-03 8.62129498e-03
    1.05158351e-02 8.95571988e-03 6.00009505e-03 3.61726200e-03
    1.77665078e-03 3.02438042e-04 -6.26829267e-03 -7.66388746e-03
    7.67961983e-03 1.00785708e-02 5.17651392e-03 -4.63589677e-04
    4.88833291e-03 2.76986929e-03 3.36320931e-03 -6.73676003e-03
    -9.27886460e-03 5.23653626e-03 9.79344361e-03 3.77069204e-03
    4.60797362e-03 8.55917227e-04 2.24535528e-04 -1.21795740e-04
    -7.82634318e-03 -6.61280844e-03 1.72812154e-03 6.42655417e-03
    3.31463083e-03 4.10048291e-03 -1.58775842e-03 -3.66241322e-03
    -3.02907429e-03 -8.82032420e-03 -2.28830241e-03 8.54528788e-03
    5.51158562e-03 8.46759183e-04 1.25862251e-03 1.70503475e-03
    2.98704370e-03 5.40494407e-03 -2.42933445e-03 2.40824628e-03
    5.58445184e-03 2.47153314e-03 2.87178042e-03 2.89926352e-03
    -3.14610708e-03 1.73006323e-03 3.61549249e-03 -1.12774177e-03
    -2.30213557e-03 2.70248880e-03 5.31052414e-04 2.85824225e-03
    5.63435536e-03 -7.51292449e-04 -2.24248623e-03 -2.57185660e-03
    -5.26747992e-03 -1.81101006e-03 5.33464178e-03 -3.85881751e-03
    1.71986106e-03 -3.15168232e-04 -3.09441448e-03 2.52748956e-04
    -3.30317090e-03 -7.59691279e-03 2.48986389e-03 4.78657149e-03
    5.63739147e-03 9.15144570e-03 3.03634140e-03 -2.79448344e-03
    2.54273531e-03 1.87510054e-03 2.73505750e-04 1.98959792e-03
    2.65210238e-03 2.33255234e-03 1.66970550e-03 -2.72896700e-03
    -4.49571386e-03 3.98174068e-03 -1.04924059e-03 -4.37042443e-04
    -1.92569138e-03 5.89760719e-03 5.86167444e-04 1.96946668e-03
    -2.91856797e-03 -4.43401234e-03 -2.35746172e-03 -2.14925339e-03
    -8.90215207e-03 1.68248033e-03 6.75122440e-03 4.47321171e-03
    -2.27582385e-03 2.07534572e-03 -5.53226890e-03 -4.37523518e-03
    -5.88417461e-04 -4.09381464e-03 -2.68573116e-04 1.93169364e-03
    2.43965909e-03 2.70129438e-03 2.10157334e-04 -2.97421706e-03
    6.72397611e-04 5.25303243e-04 -3.29807553e-05 1.51437311e-03
    6.90865703e-03 7.77521310e-03 2.80502602e-03 7.19141914e-03
    -4.33227513e-03 -4.70108632e-03 -1.65903359e-04 -4.79438138e-04
    3.60479206e-03 9.73439496e-03 -5.29570924e-03 -3.81077058e-03
    -2.39342544e-03 -2.45938863e-04 -7.16893061e-04 -3.62607324e-03
    -5.20847179e-03 4.62917052e-03 1.40484842e-02 -1.58468622e-03
    -1.76172389e-03 -1.47909427e-03 -2.25814548e-03 -3.73763731e-03
    -1.66391500e-03 -1.33040233e-03 -5.03889751e-03 9.93189309e-03
    -1.66152115e-03 9.68039603e-05 -2.42602592e-03 3.09639945e-05
    -3.72452498e-03 -6.76188339e-03 -1.24584353e-02 -1.93119005e-04
    1.35005089e-02 -4.52873670e-03 -2.40436359e-03 -4.54704370e-03
    -2.18582316e-03 -6.70000166e-03 -5.16091334e-03 -8.22279137e-03
    5.73024945e-03 1.27893239e-02 -7.11458633e-05 2.69039330e-04
    -4.04821197e-03 -9.79720149e-04 -3.60522163e-03 -1.35693175e-03
    8.39572458e-04 2.89367489e-03 7.58096436e-03 -3.37590510e-03
    -3.28993448e-03 -8.14390555e-03 -1.62760296e-03 -7.30081648e-03
    -2.16102041e-03 -2.85661384e-03 4.46012331e-04 1.12867421e-02
    -2.13822024e-03 -2.74038262e-04 -2.10835855e-03 -1.19147415e-03
    -4.78415843e-03 -4.51173214e-03 -7.25473091e-03 -1.31625100e-04
    1.06080882e-02 -2.98336823e-03 -4.01172787e-03 -8.20219703e-03
    -1.35516748e-03 -6.78711478e-03 -4.00764029e-03 -7.93295819e-03
    9.26834904e-03 5.05061401e-03 -1.39747234e-03 -1.33091176e-03
    -3.40977102e-03 -2.30123615e-03 -6.22381223e-03 4.76119785e-05
    2.04302045e-03 1.12729389e-02 3.84389004e-03 -8.80803820e-03
    -1.37209415e-03 -8.81981803e-04 -1.35956518e-03 -3.51771154e-03
    1.51120441e-03 5.56573458e-03 6.52904110e-03 9.35400277e-03
    -3.17312474e-03 -1.49078981e-03 -6.86317589e-03 -3.40005965e-03
    -8.20570718e-03 -3.79954441e-03 -3.18315742e-03 1.10408226e-02
    6.06064266e-03 -8.91353562e-03 1.32989037e-04 -2.45141028e-03
    -5.18075703e-03 -7.60986330e-03 -9.02465195e-04 4.95582493e-03
    1.36483191e-02 2.49499269e-03 -1.34049384e-02 -5.21861110e-03
    -2.57513486e-03 -1.42260944e-03 -3.48541117e-03 1.52325010e-04
    5.60303871e-03 1.43242823e-02 3.49785807e-03 -1.42203718e-02
    -4.74400260e-03 -2.77362717e-03 -1.13760796e-03 -1.76332612e-03
    2.35959771e-03 4.69750213e-03 1.36141134e-02 1.03373183e-02
    -8.87121819e-03 -8.07935314e-04 -1.37811899e-03 -4.99923900e-03
    -2.92601413e-03 -2.45652191e-04 3.08380602e-03 1.35700777e-02
    6.75786333e-03 -5.10079600e-03 2.86498945e-03 1.94200745e-03
    -2.24363408e-03 -7.40839168e-04 1.51973777e-03 -1.69059756e-04
    1.24646882e-02 8.23777169e-03 -1.07151167e-02 -6.84562779e-04
    -1.01880543e-03 5.19754685e-05 -1.11249881e-03 1.54638290e-03
    -1.25868828e-03 1.08318338e-02 7.89741706e-03 -1.08044716e-02
    -4.85529378e-03 -5.77362301e-03 -5.13298437e-04 -2.93646147e-03
    -2.15539825e-03 -2.34646001e-03 9.05191991e-03 8.72561149e-03
    -8.72069690e-03 2.85865390e-03 1.40166096e-03 1.29090308e-03
    -4.49064595e-04 2.12596334e-03 -5.28857997e-03 4.38607624e-03
    9.09683667e-03 -1.06409574e-02 -1.76458224e-03 -5.08231809e-03
    2.21070298e-03 -1.25760678e-03 -6.56224613e-04 -2.84821051e-03
    9.07411519e-03 1.07593071e-02 -5.72130224e-03 -3.66622000e-03
    -5.94395492e-03 -1.62169943e-03 -3.90938297e-03 -4.04798752e-03
    -2.37888051e-03 8.86354037e-03 1.66892353e-02 -4.18185163e-03
    -2.06557219e-03 -4.22569457e-03 -4.28034313e-04 -6.45129802e-03
    -6.81342091e-03 -9.50457994e-03 4.79095150e-03 9.32930876e-03
    -4.90810163e-03 -2.20632739e-03 -4.48397966e-03 -1.50086521e-03
    -2.96186679e-03 -2.15976223e-04 -3.20666004e-03 3.93853709e-03
    1.21168522e-02 -4.73732501e-03 -4.04954841e-03 -7.08133960e-03
    -1.09276967e-03 -1.93035463e-03 -1.75763667e-03 -5.70450025e-03
    8.32482800e-03 1.59834344e-02 -5.70209872e-04 4.78692236e-04
    -8.40992550e-04 1.41509029e-03 -4.54975292e-03 -3.39611410e-03
    -7.30446586e-03 -4.83778771e-03 3.10127158e-03 -1.73085846e-03
    -4.50353924e-04 -2.84437323e-03 2.01276573e-03 -3.16332909e-03
    -4.10757633e-03 -9.97405220e-03 5.77948196e-03 1.47537505e-02
    2.11561029e-03 4.83500276e-04 -1.44692336e-03 3.04587465e-03
    -4.58814029e-04 -1.94557291e-03 -7.46980915e-03 -4.16631112e-03
    4.17977711e-03 1.57542422e-03 -7.57220550e-05 -1.12123589e-03
    4.08894708e-03 -7.36884947e-04 -2.10225652e-03 -1.02081839e-02
    2.11325256e-04 3.12102493e-03 4.02895967e-03 2.80420249e-03
    -2.02383148e-04 2.54358468e-03 -3.37566482e-04 9.63640850e-05
    2.09783204e-03 -4.74763336e-03 1.31366274e-03 5.94101206e-04
    -3.55289131e-03 -4.45586583e-03 1.99901732e-03 -5.32860286e-04
    2.85131368e-03 -3.34761688e-04 -4.55158384e-04 8.52088165e-03
    4.11517592e-03 2.14908132e-03 -1.29593699e-03 3.55155673e-03
    2.95452867e-03 5.20057231e-03 3.59431538e-03 -9.59480181e-03
    6.20204397e-03 4.11987351e-03 -8.79852276e-04 -8.13862216e-03
    1.54592819e-03 2.55681085e-03 5.25484933e-03 1.30952673e-03
    -4.57358221e-03 2.90999678e-03 4.72325599e-03 1.52475841e-04
    -8.46201496e-04 4.34601679e-03 1.22834311e-03 3.31576820e-03
    -1.95767079e-03 -1.04886759e-02 -1.34924150e-04 3.71487532e-03
    1.27615081e-03 -2.53286236e-03 -8.22061265e-04 -2.00911146e-03
    -1.26787240e-03 -6.72300393e-03 -5.75733662e-04 8.35416745e-03
    1.08315656e-02 7.90574402e-03 -2.60977447e-03 4.18854738e-03
    3.01360432e-03 3.37364734e-03 5.08737343e-04 -5.22454327e-04
    5.16574504e-03 1.20452354e-02 9.04699042e-03 -5.82767464e-03
    6.87001622e-04 -2.99613806e-03 -1.75496237e-03 -1.21022668e-03
    -1.10794138e-02 -2.04036804e-03 2.46427371e-03 4.22092527e-03
    -4.45563393e-03 -1.24067155e-04 3.57337296e-04 5.60817216e-06
    -5.59186796e-03 -1.14342701e-02 -2.73584831e-03 4.10315534e-03
    7.46951299e-03 -3.19233653e-03 -1.45725743e-03 -3.34319513e-04
    1.67905912e-03 -6.33366453e-03 1.52760325e-03 5.01555763e-03
    1.03485724e-02 7.47778406e-03 -7.92193785e-03 8.12403625e-04
    -1.12291041e-03 -3.27298301e-04 2.89710937e-04 4.21850197e-03
    7.72239454e-03 1.05105052e-02 6.12818915e-03 -6.31078659e-03
    1.20539706e-04 5.72707446e-04 1.13372481e-03 2.89975840e-04
    -1.19471513e-02 -3.91174387e-03 3.63674713e-03 4.84314514e-03
    -4.68004914e-03 -1.81484327e-03 -6.68648427e-05 2.30937265e-03
    -3.04286601e-03 -5.77698462e-03 3.83009482e-03 3.35799041e-03
    1.44120061e-03 -1.06232148e-02 1.93038286e-04 -1.65290805e-03
    4.30599059e-04 -2.41735415e-03 4.32260931e-05 3.07255355e-03
    5.26483590e-03 3.30367195e-03 -3.24547873e-03 7.59738439e-04
    2.90032942e-03 4.28375276e-03 7.88688601e-04 2.26451829e-03
    1.02265775e-02 -1.86102418e-03 -3.11619136e-03 -8.39966442e-03
    2.97001493e-03 4.49648546e-03 4.78018215e-03 -9.96298186e-05
    -3.66506050e-03 7.52125354e-03 5.24736242e-03 4.12254455e-03
    -2.31496640e-03 1.40909653e-03 -4.11877154e-05 1.12536654e-04
    -5.16851898e-03 -6.13655942e-03 9.20211338e-03 5.82541199e-03
    4.30369098e-03 -1.01847090e-02 2.40480271e-03 3.01240711e-04
    1.53647023e-04 -8.69561639e-03 4.63419448e-04 1.27615528e-02
    -3.17110447e-03 -1.76387164e-03 -7.39072915e-04 4.91656968e-03
    9.15692467e-03 5.43858763e-03 -9.27966612e-04 -9.28737037e-03
    7.58732809e-03 1.85871718e-03 1.86391443e-03 -7.20522460e-03
    6.07077172e-03 8.04921240e-03 3.56171117e-03 -6.19269582e-03
    2.88671901e-04 7.40177417e-03 3.45287169e-03 1.58113695e-03
    -4.15569870e-03 3.95357900e-04 1.04177615e-03 3.22206295e-03
    -3.24130803e-03 2.65962956e-03 4.40790784e-03 2.65204837e-03
    5.59074059e-03 -1.17257540e-03 -3.73441912e-03 -1.42164959e-03
    1.98737951e-03 -3.75525886e-03 -3.55103752e-03 6.59901509e-03
    6.80933939e-03 4.72338265e-03 -2.67635006e-03 2.67946487e-03
    3.47418291e-03 2.64386204e-03 -3.95178422e-03 -2.30001239e-03
    1.71322620e-03 5.41804219e-03 6.23382628e-03 1.11828535e-03
    -1.71053084e-03 -2.58346740e-03 -4.24400065e-03 -6.42169174e-03
    1.69707381e-03 -2.84695561e-04 1.46152650e-03 8.50363635e-03
    -7.45421450e-04 -5.41379582e-03 -4.04820530e-05 2.22098199e-03
    -4.42420860e-04 -1.07723183e-03 -4.65310086e-03 5.48669719e-04
    -9.78197204e-04 -6.33779867e-03 -6.17459184e-03 1.15388888e-03
    7.11542845e-04 -3.14233213e-04 6.86440500e-04 -1.96785317e-03
    5.21034235e-03 8.71521793e-03 -5.82850480e-04 -3.65312258e-03
    5.31531172e-04 -7.53885251e-04 -1.56112819e-03 -5.87533088e-03
    -5.01078833e-03 4.82068723e-03 5.08603128e-03 -3.25023779e-03
    -4.56508342e-03 1.47390517e-03 -1.67494710e-03 -2.83686980e-03
    -5.17243985e-04 3.20177933e-04 3.54852411e-03 4.93488461e-03
    -1.86972658e-03 -5.17407153e-03 -6.20576087e-04 -1.23796565e-03
    -5.36992447e-04 -1.26702844e-05 4.62059164e-03 5.30560268e-03
    1.26161671e-03 1.07735582e-03 -3.69210122e-03 -3.33954697e-03
    -4.20086784e-03 -3.83572094e-03 -3.93142365e-03 -1.50074615e-04
    6.19692262e-03 6.31200243e-03 -1.39190885e-03 -3.24306963e-03
    1.55021762e-03 -1.60503434e-03 -4.94143227e-03 -5.01963915e-03
    4.18978091e-03 5.25458250e-03 4.25364356e-03 7.77906389e-04
    -6.64878113e-04 -2.66558654e-03 -4.73133288e-03 -7.10223662e-03
    2.30090902e-03 1.08974138e-02 1.98121532e-03 3.58147616e-03
    -1.81039446e-03 -1.15976669e-03 -2.91344663e-03 -4.32021124e-03
    -6.33963989e-03 3.59102990e-03 9.45947133e-03 -1.43539615e-03
    -1.20894663e-04 -2.76593305e-03 -4.72006359e-04 -4.08897782e-03
    -4.65615094e-03 -7.58676184e-03 6.78324327e-03 6.55728765e-03
    -2.91499076e-03 5.95434685e-04 -1.74017146e-03 -3.24709550e-03
    -5.79472026e-03 -7.03925779e-03 -1.01680891e-03 7.97234848e-03
    6.97846990e-03 -6.67168573e-03 -2.89313495e-03 -3.98318982e-03
    -3.59937199e-03 -6.06160611e-03 -7.13102473e-03 -3.37190507e-03
    1.38444069e-03 7.61187403e-03 -2.58099032e-03 -5.15390479e-04
    6.90133718e-04 1.01963663e-03 -2.22111749e-03 -4.78439918e-03
    -7.97402672e-03 -1.47766992e-03 1.06394552e-02 -1.94815116e-03
    -4.17253934e-03 -3.53216240e-03 2.01116345e-04 -1.35483756e-03
    -2.39758962e-03 -1.06024882e-02 7.01374980e-03 1.36410706e-02
    -6.76700100e-03 -4.45319247e-03 -5.90318395e-03 -5.05495060e-04
    -2.82150903e-03 -5.04407007e-03 -7.26605626e-03 7.83678889e-03
    1.18629308e-02 -1.86626811e-03 -4.83086379e-03 -5.85692422e-03
    1.20277831e-03 2.18817819e-04 -1.26530742e-03 -9.98571701e-03
    1.11704262e-03 9.94741358e-03 -4.47531696e-03 -2.49661854e-03
    -6.20071590e-03 -1.01164449e-03 -3.25273117e-03 -2.31208093e-03
    -6.83748396e-03 7.24255154e-03 1.04616191e-02 -4.57243156e-03
    9.39094578e-04 -1.47207757e-03 -2.83999369e-03 -5.13768476e-03
    -1.73828832e-03 9.87620559e-04 4.21422347e-03 7.99827650e-03
    -2.78379186e-03 -2.49410770e-03 -6.67802943e-03 8.86906346e-05
    -1.34555798e-03 -2.42361496e-03 -5.51590510e-03 2.69005774e-03
    8.48511234e-03 -6.11266959e-03 1.07954489e-03 7.47206795e-04
    -2.45198468e-03 -6.60134060e-03 -4.02555382e-03 -2.08391272e-03
    8.04827735e-03 8.65154061e-03 -4.73422976e-03 -3.06338444e-03
    -2.57242192e-03 -2.78820260e-03 -3.00753419e-03 -2.93125911e-03
    -1.04020745e-03 6.60650106e-03 6.76388014e-03 -4.41256445e-03
    5.31083788e-04 1.11658417e-04 -1.53971708e-03 -2.35561328e-03
    3.61395476e-04 -6.21324265e-03 8.34718719e-03 1.19927423e-02
    -4.58630780e-03 -1.16438221e-03 -2.27549556e-03 -2.57231155e-03
    -5.98970754e-03 -3.49135417e-03 -2.68883863e-03 4.82031843e-03
    1.23548452e-02 -2.27774121e-03 -1.62115647e-03 -3.52995796e-03
    4.25913808e-04 -4.00621397e-03 -4.45767259e-03 -3.28575633e-03
    4.39946912e-03 8.82368349e-03 -1.13916898e-03 1.99233694e-03
    -1.02946383e-03 -5.86405396e-04 -3.24415014e-04 1.93540158e-03
    -6.80713635e-03 4.08249116e-03 6.28699828e-03 -4.19975724e-03
    1.50837505e-03 -6.53862674e-03 -6.05088368e-04 -4.84955125e-03
    -2.08645803e-03 -3.96804884e-03 6.70475746e-03 1.19807795e-02
    -8.25559429e-04 -2.12715263e-03 -4.96351533e-03 -4.71186475e-04
    -2.27184594e-03 -3.23950965e-03 -4.47131181e-03 4.66413749e-03
    8.34863167e-03 -7.68181263e-03 -2.42843269e-03 -7.11909076e-03
    -2.44121463e-03 -6.97040465e-03 -4.27189004e-03 -4.08549048e-03
    6.57737255e-03 8.13116971e-03 -2.31126253e-03 2.17889622e-03
    -3.21856374e-03 -1.89389696e-03 -5.45662688e-03 -3.85212270e-03
    -6.12485502e-03 3.50224390e-03 1.15764551e-02 -3.87060619e-03
    -2.11196067e-03 -7.11850449e-03 -2.15941924e-03 -2.40311516e-03
    -2.13922909e-03 -7.65254395e-03 7.71152228e-03 9.04929359e-03
    -5.88888302e-03 4.84115502e-04 -1.78355281e-03 -9.13317665e-04
    -4.34443494e-03 -5.23327338e-03 -7.68608507e-03 6.60038693e-03
    1.22669395e-02 -3.43143102e-03 -1.58377492e-03 -1.20915438e-03
    -1.22405530e-03 -3.47574288e-03 -5.08999638e-03 -9.15650558e-03
    1.95629941e-03 1.18297720e-02 1.31628907e-03 8.06310214e-04
    -2.71146302e-03 6.98010146e-04 4.05411818e-04 -1.41054858e-03
    -4.97864839e-03 -2.60490971e-03 6.19019847e-03 8.71122989e-04
    -3.81314801e-03 -7.24412315e-03 5.16148051e-04 7.28654617e-04
    -3.60243212e-05 -4.81294002e-03 6.76263915e-03 1.24526117e-02
    -6.57201861e-04 -2.46428463e-05 -1.33496046e-03 -2.81720131e-04
    -1.49001717e-03 -9.97023191e-04 -6.05244609e-03 -7.32085726e-04
    8.06082878e-03 -1.40445982e-03 -8.57572071e-03 -1.20319761e-02
    -2.37087323e-03 -7.92143634e-04 6.80348836e-04 -3.33363260e-03
    -1.08690094e-03 5.19735320e-03 2.98626535e-03 -2.61955871e-03
    -5.78216184e-03 2.05812580e-03 2.70980620e-03 4.41960385e-03
    3.38424137e-03 -6.46901038e-03 2.31911428e-03 6.30867342e-03
    -2.58630980e-03 -9.45814233e-03 1.38011792e-05 1.01166067e-03
    2.91251647e-03 6.47680426e-04 2.81938282e-03 1.27894273e-02
    6.51840959e-03 -3.60288355e-03 -1.11521240e-02 7.37962779e-04
    1.48110397e-04 2.11334880e-03 4.02864476e-04 -4.69413493e-03
    2.49473541e-03 4.42645978e-03 -1.88386964e-03 -9.83646046e-03
    1.14398648e-03 -3.41784698e-03 9.22610634e-05 -4.10658307e-03
    -2.56194198e-03 1.47120783e-03 1.01150787e-02 3.79337464e-03
    -4.59799683e-03 1.74360571e-03 6.40463724e-04 -3.43102234e-04
    2.09127509e-04 -2.42136139e-03 1.23104081e-03 4.49527241e-03
    2.45617190e-03 -6.21902524e-03 3.17851256e-04 -2.15477473e-03
    -4.67375759e-03 -4.68236674e-03 -3.11426143e-03 3.28415330e-03
    4.14283853e-03 2.60995002e-03 -1.93823443e-03 5.07521164e-03
    7.78913731e-04 2.67792144e-03 5.33957034e-04 1.04425172e-03
    -1.53710935e-04 -1.31607556e-03 2.24974123e-03 6.99929136e-04
    3.81129736e-04 8.74256308e-04 2.95577548e-03 5.79021056e-04
    2.60597141e-03 6.50530029e-03 8.12857039e-03 2.65075522e-03
    -5.29996073e-03 -1.62007799e-03 -4.33610147e-03 -4.98277741e-03
    -2.14290479e-03 3.86566785e-03 1.19674345e-02 9.29052383e-03
    -2.72707827e-03 -9.47296247e-03 -4.13919846e-03 -5.10307262e-03
    -5.25125302e-03 -1.09677156e-03 6.23397855e-03 1.04846219e-02
    8.94867163e-03 2.58078589e-03 -2.02222378e-03 -3.72108375e-03
    -4.17240197e-03 3.68178735e-04 1.14627811e-03 1.47887110e-03
    1.38792051e-02 1.20123653e-02 -2.67790980e-03 -9.81581025e-03
    -8.53960309e-03 -5.42432768e-03 -1.17017014e-03 -2.35603517e-03
    4.07190016e-03 1.20601598e-02 8.74199346e-03 -1.67691044e-03
    -9.15760547e-03 -1.31578115e-03 -1.53227549e-04 -1.44745235e-03
    -8.32948368e-04 1.58198108e-03 1.07709039e-02 -4.27184300e-03
    -5.57350507e-03 -5.47143305e-03 3.43571906e-03 3.24514648e-03
    1.46858557e-03 -2.39550229e-03 -8.09173973e-04 1.24300634e-02
    1.43498797e-02 -2.57049163e-04 -1.02510722e-02 -4.96309064e-03
    1.40299540e-04 1.66590954e-03 -2.14346335e-03 -4.30925051e-03
    6.21390389e-03 3.55681288e-04 -1.10435276e-03 -6.09762594e-03
    1.89344550e-03 3.25979851e-03 4.33492381e-03 -5.99122792e-03
    -3.73028289e-03 8.42288323e-03 -5.77482302e-03 -2.97563756e-03
    3.74888815e-03 5.06781880e-03 5.74634317e-03 3.56311630e-03
    -2.99515389e-03 -5.04084071e-03 4.86422190e-03 1.83661398e-03
    3.00340541e-03 -2.39502196e-03 6.23934157e-03 5.00127440e-03
    3.46918777e-03 -4.76557342e-03 -1.03972917e-02 3.08642723e-03
    8.93482124e-04 1.67403114e-03 9.42294579e-03 7.93099869e-03
    7.01859221e-03 5.19972760e-03 -7.11572822e-03 -1.01718213e-02
    1.61462836e-03 1.09760622e-02 8.44677631e-03 4.27630544e-03
    6.11603633e-03 5.61632635e-03 3.30083258e-03 -9.33893211e-03
    -2.66929157e-04 7.74266059e-03 6.28008135e-03 5.79339359e-03
    -3.09900893e-03 3.40457447e-03 3.58768716e-03 1.02546508e-03
    -2.54156720e-03 -1.79197185e-03 3.80218215e-03 3.59822973e-03
    4.29025618e-03 -2.64780363e-03 -4.62472744e-05 3.81611113e-04
    -4.23545437e-03 -6.17503515e-03 -6.64745597e-03 -2.80174147e-03
    5.45484060e-03 7.95061048e-03 4.77970345e-03 4.55213524e-03
    5.74990548e-03 2.36737938e-03 -5.59233408e-03 -1.03058014e-02
    -6.44372031e-03 3.52976215e-03 8.01182073e-03 1.92665588e-03
    1.05345342e-03 3.97421280e-03 -3.78431898e-04 -9.21779685e-03
    -1.70685851e-03 2.23942637e-03 5.32537512e-03 4.57406836e-03
    1.88372890e-03 -5.65190800e-04 1.44517026e-03 -1.47637003e-03
    -4.32404922e-03 -7.98652694e-03 1.44538598e-03 9.72416904e-03
    4.55410453e-03 3.05383606e-03 -2.78442586e-03 6.94784103e-05
    -3.83180100e-03 -8.18093866e-03 -9.26998816e-03 -3.20812949e-04
    1.15009947e-02 7.53865950e-03 3.18072992e-03 -9.43561317e-04
    3.79291549e-03 1.53055822e-03 -7.42512243e-03 -1.33476174e-02
    1.44996867e-03 1.24450605e-02 4.32053022e-03 2.31000734e-03
    -3.62926652e-03 2.98310746e-03 1.74425630e-04 -1.21972440e-02
    -6.31938037e-03 3.81785654e-03 1.00096306e-02 4.95937420e-03
    -1.49821921e-03 -4.72339988e-03 -8.78260238e-04 -2.92361435e-03
    -7.68501218e-03 -4.74539679e-03 5.89715410e-03 1.11805554e-02
    1.54400512e-03 -4.02550213e-03 -5.06688654e-03 -4.76176152e-03
    -6.79267384e-03 -8.48686695e-03 -1.15206726e-02 -1.50343252e-03
    1.29181109e-02 5.69731928e-03 -1.89419207e-03 -3.92015185e-03
    2.44612317e-03 1.82367640e-03 -7.40219839e-03 -6.34332979e-03
    6.32383104e-04 1.59952343e-02 6.57415809e-03 -2.90851225e-03
    -5.69883175e-03 -2.10601790e-03 -3.00436071e-03 -7.38102058e-03
    5.68242744e-03 3.18762171e-03 -2.16230634e-03 -1.82311400e-04
    -3.26250936e-03 -2.16264324e-03 -7.15628639e-03 -7.98243657e-03
    -3.65075725e-03 4.53924760e-03 9.36391018e-03 -3.31994751e-03
    -2.90650642e-03 -7.04212161e-03 -4.48463904e-03 -7.71286292e-03
    -9.14539862e-03 -9.27282032e-03 1.06388601e-02 9.21318494e-03
    5.43040573e-04 -4.07596398e-03 -7.84155168e-03 -3.04269162e-03
    -1.02726659e-02 -8.17921292e-03 -6.86092942e-04 4.08342853e-03
    9.63382516e-03 -2.44841049e-03 -5.01381746e-03 -9.83001012e-03
    -3.96864675e-03 -8.63677077e-03 -9.28496104e-03 -2.87736906e-03
    1.00072508e-03 1.30604440e-02 -9.26187902e-04 -2.62895646e-03
    -4.45863511e-03 -1.58384081e-03 -4.38213348e-03 -8.33720062e-03
    -1.42890010e-02 8.13538209e-04 1.00588836e-02 -3.77087039e-03
    -5.27477730e-03 -4.46838886e-03 1.77232549e-03 -1.44016708e-03
    -4.51890985e-03 -1.44048305e-02 2.93569383e-03 1.03808632e-02
    -4.76893457e-03 -4.01292136e-03 -5.61219314e-03 -1.27820321e-03
    -4.91818693e-03 -7.76146958e-03 -7.11456919e-03 -2.75839702e-03
    6.78017316e-03 -5.30905090e-03 -1.14902121e-03 3.78361600e-03
    2.62857066e-03 -1.25424075e-03 -3.68992100e-03 -7.80734885e-03
    3.40461475e-03 5.25458995e-03 -4.55151033e-03 -3.52021144e-03
    -7.90078752e-03 6.48577174e-04 -1.82829646e-03 -1.99175533e-03
    -6.93233218e-03 3.22389812e-03 7.10724620e-03 -5.35439607e-03
    6.77579839e-04 -3.11427191e-03 -3.15167429e-03 -6.66210148e-03
    -5.93293412e-03 -3.79000395e-03 2.35456834e-03 7.31125008e-03
    -3.28031578e-03 1.70528679e-03 -4.41024359e-03 1.08294643e-03
    -2.23035784e-03 -3.61852837e-03 -6.40918687e-03 6.67063193e-03
    3.93801648e-03 -2.75967782e-03 3.45033826e-04 -6.80520386e-03
    -2.37267138e-03 -1.75968686e-03 -5.07812388e-03 -6.23762840e-04
    8.48776568e-03 9.20788851e-03 -4.10506967e-03 7.07477971e-04
    -1.86105422e-03 -2.09356472e-03 -5.89294219e-03 -5.90347731e-03
    -3.26747284e-03 1.13305189e-02 1.09472247e-02 -3.77914379e-03
    -2.74756528e-03 -6.93875086e-03 -8.42810550e-05 -3.43565969e-03
    -6.60021277e-03 -3.47018195e-03 9.75796767e-03 7.75785511e-03
    -9.39346151e-04 -3.43631604e-04 -8.07040185e-03 -6.51867536e-04
    -6.95260183e-04 -4.41435212e-03 -3.04334378e-03 8.53386242e-03
    8.58321134e-03 -4.64506121e-03 -4.13799053e-03 -1.08849434e-02
    -9.08754999e-04 -2.94061052e-03 -4.22974909e-03 -1.67636783e-03
    1.40648223e-02 9.36624408e-03 1.96484756e-03 -2.10641115e-03
    -3.59976571e-03 5.35244180e-05 -6.04446803e-04 -4.12089005e-03
    -3.33605660e-03 8.64212960e-03 9.77578573e-03 -5.28280344e-03
    -3.04261525e-03 -2.94219982e-03 -1.69579720e-03 -4.79953503e-03
    -5.35429129e-03 -4.59151994e-03 1.05021205e-02 1.03895525e-02
    -2.44085956e-03 -4.89457510e-03 -4.79040993e-03 -5.83317233e-05
    1.15345849e-03 -1.70180271e-03 -3.52854864e-03 6.63496461e-03
    1.18715269e-02 -4.06312756e-03 -4.86581866e-03 -4.17148834e-03
    -1.96873979e-03 -5.56393107e-03 -3.78215848e-03 -6.27229782e-03
    5.10959374e-03 1.46997999e-02 1.05025026e-03 2.61941762e-03
    1.67191809e-03 -4.33193927e-04 -3.54373432e-03 -7.57578947e-03
    -8.15524627e-03 2.22524232e-03 1.24204606e-02 -1.58694841e-03
    -2.37100618e-03 2.81638955e-03 1.34443271e-03 -1.20225619e-03
    -5.52040664e-03 -9.61966999e-03 3.88365355e-03 1.42533826e-02
    8.81248910e-04 1.89596391e-03 1.94231485e-04 -4.51049418e-04
    -6.43132534e-03 -5.56480000e-03 -7.64054339e-03 -1.10117893e-03
    7.70172756e-03 -5.15307183e-04 -3.25996731e-03 -1.46738463e-03
    -3.21453816e-04 -5.33150090e-03 -1.64929626e-03 -8.91163107e-03
    1.25876686e-03 1.09486105e-02 1.04444465e-04 -4.14357334e-03
    1.91317243e-03 1.04093633e-03 -4.56638634e-04 -1.17383210e-03
    -4.87547508e-03 6.39087113e-04 9.40895919e-03 8.15918203e-04
    -7.33718835e-03 -6.28629653e-03 -3.15644569e-03 -2.80695898e-03
    -2.73420068e-04 -3.38823348e-03 1.15073239e-03 5.61004691e-03
    -2.07099394e-04 -4.32851119e-03 -9.04109213e-04 -5.78112144e-04
    -3.87078500e-03 1.10123376e-03 -2.51656701e-03 -1.00115256e-03
    1.39924930e-03 -4.22634091e-03 -7.89418444e-03 -6.23069098e-03
    -4.12668055e-03 -4.39749379e-03 1.77914088e-04 -9.02172178e-04
    4.10342356e-03 1.32670468e-02 5.49760507e-03 -3.02679930e-03
    -7.25533860e-03 -4.57122253e-04 -1.01949798e-03 1.76218117e-03
    -7.69814069e-04 -2.29525100e-03 6.67444337e-03 3.91159905e-03
    -1.25415914e-03 -7.64453458e-03 -5.76251536e-04 -3.24718491e-03
    -2.15483992e-03 -7.92815443e-03 5.16147062e-04 9.42081772e-03
    4.83288476e-03 -1.98657741e-03 -4.38664248e-03 -3.17607448e-03
    -2.30763317e-03 -7.33546694e-05 -6.06759393e-04 -3.40540748e-04
    1.02206618e-02 1.03133395e-02 -3.07039823e-03 -7.86667410e-03
    -5.48661733e-03 -2.91016605e-03 -3.93463532e-03 -7.78631121e-03
    -2.10303441e-03 5.90195297e-04 2.63575325e-03 5.90596756e-06
    -4.17928211e-03 1.44154229e-03 -9.53521812e-04 -1.06958777e-03
    -2.70627206e-03 2.35612690e-03 4.00048401e-03 2.21447391e-03
    2.21721944e-03 -6.14099030e-04 3.67289584e-04 9.38595796e-04
    2.16472312e-03 8.42171372e-04 -1.17840560e-03 1.13798417e-02
    8.22767150e-03 -2.18437309e-03 -1.14759998e-02 -4.54568351e-03
    -1.62262330e-03 -2.10367492e-03 -6.81711966e-03 -1.73324405e-03
    3.17881582e-03 4.60497057e-03 2.81074294e-03 -1.09505560e-03
    -2.21969211e-03 -4.13619069e-04 -1.86754717e-03 -5.75683545e-03
    5.57874469e-03 9.63529572e-03 6.77693496e-03 2.24382081e-03
    -4.93223779e-03 -2.90390360e-03 -3.74377734e-04 3.26910941e-03
    9.75641364e-04 9.37490666e-04 7.93657359e-03 1.06697744e-02
    -4.47593722e-03 -1.20661538e-02 -6.28792262e-03 -4.78296308e-03
    -9.16688179e-04 -3.01995571e-03 -3.83110368e-03 4.32462955e-04
    9.16396547e-03 5.98631194e-03 -5.03022457e-03 -2.22351728e-03
    1.85498397e-03 1.79942625e-04 -1.29467051e-03 -6.28081802e-03
    2.67743017e-03 7.83516653e-03 -3.07347480e-04 -5.63881965e-03
    -3.54868616e-03 -8.74059158e-04 2.32674793e-05 -3.09038651e-03
    -4.58514923e-03 6.87063299e-03 9.64621175e-03 -1.50213309e-03
    -1.04907369e-02 -4.72709117e-03 -1.19538256e-03 3.62867315e-04
    -4.01733629e-03 -6.57011103e-03 4.02473006e-03 1.64961873e-03
    -2.04568077e-03 -2.48323823e-03 2.94521404e-03 4.02489118e-03
    3.21267569e-03 -4.86020185e-03 -2.61456892e-03 5.60299819e-03
    6.17490849e-03 -2.72054714e-03 -4.51799529e-03 -2.60417443e-03
    -4.70725936e-04 2.94840802e-03 -1.56964117e-04 -7.30568077e-03
    4.68756584e-03 1.29672885e-02 7.63718085e-03 5.60081331e-03
    3.80146480e-03 6.10273518e-03 3.20278388e-03 -5.85049065e-03
    -9.40264296e-03 4.62531258e-04 2.96202884e-03 1.44700066e-03
    6.41524559e-03 6.46541361e-03 5.58391633e-03 3.39528848e-03
    -5.83673269e-03 -1.44799845e-02 -9.28984373e-05 1.01804556e-02
    6.41766936e-03 -4.23227623e-03 1.25635171e-03 7.85623153e-04
    -8.04060779e-04 -9.26426798e-03 -1.06555931e-02 1.43954728e-03
    7.35222781e-03 5.72154205e-03 1.04305334e-02 4.12476948e-03
    5.09661296e-03 2.82792165e-03 -5.65544982e-03 -1.35520203e-02
    -3.95915983e-03 9.53242369e-03 8.43663234e-03 -2.41224494e-04
    7.41360127e-04 2.59370590e-03 1.96690019e-03 -6.28313795e-03
    -1.13483239e-02 9.78692085e-04 9.89777409e-03 7.75742019e-03
    9.95491748e-04 7.23876699e-04 1.28474727e-03 -2.29856596e-04
    -5.88196097e-03 -1.26567986e-02 -1.82859506e-03 8.11881199e-03
    4.70649777e-03 -1.57508405e-03 -1.37095270e-03 -3.44199449e-04
    -1.92101847e-03 -8.03969894e-03 -8.63477960e-03 -6.02934626e-04
    1.18475575e-02 5.38807362e-03 -1.94343471e-03 8.78427934e-04
    4.83388128e-03 6.36544218e-03 2.43990566e-03 -1.09325051e-02
    -3.48597392e-03 1.08859427e-02 -2.44855857e-03 -5.55898761e-03
    -1.25475600e-03 2.11939891e-03 2.77035590e-03 -2.12257891e-03
    -6.69486169e-03 -9.91181587e-05 1.29486835e-02 4.70304769e-03
    -9.46543936e-04 -2.62134173e-03 2.39860057e-03 3.64738866e-04
    -2.16124672e-03 -9.32552852e-03 -4.11941996e-03 1.24563882e-02
    5.75204892e-03 -4.43322025e-03 -7.10603595e-03 1.49621465e-03
    -1.00618356e-03 -4.96298075e-03 -4.55220416e-03 -6.73663476e-03
    1.05324201e-02 4.27915389e-03 1.57989492e-03 -2.70502805e-03
    1.32221309e-03 2.36799754e-03 4.10225359e-04 -7.21152173e-03
    -3.25700175e-03 6.40463782e-03 5.38736023e-03 -2.26315716e-03
    -1.06400428e-02 -1.75135571e-03 -2.10480136e-03 -3.81796062e-03
    -8.66122171e-03 2.69886950e-04 1.13092130e-02 5.29474020e-03
    -3.98971001e-03 -5.85047714e-03 2.64921994e-03 1.46935589e-03
    -4.19866201e-03 -4.78115818e-03 4.50317888e-03 1.08777517e-02
    1.03352231e-03 -5.56861795e-03 -4.02819924e-03 -8.57231382e-04
    3.63776606e-04 -1.99246197e-03 -6.10430399e-03 3.23283183e-03
    9.93821397e-03 3.06877657e-03 -4.83623287e-03 -7.51356082e-03
    1.15795573e-03 4.11582441e-04 -2.64895195e-03 -4.13016137e-03
    3.88147542e-03 1.14214281e-02 -3.31210019e-03 -2.12468323e-03
    -3.10936593e-03 5.81504835e-04 1.29278086e-03 -2.75135250e-03
    8.41946900e-03 9.71012376e-03 2.05383007e-03 -4.83999029e-03
    -4.26664110e-03 -1.83367170e-03 -5.88065153e-03 -3.68061475e-03
    1.29680429e-03 3.92719405e-03 6.63518393e-03 -3.74175329e-03
    -3.84483323e-03 -3.94456508e-03 -2.24208087e-03 -5.86723769e-03
    -6.78665005e-03 -4.06413339e-03 -1.75999838e-03 -4.96581160e-05
    -5.97174140e-03 -4.53873631e-03 -6.62413053e-03 -1.23853236e-03
    -1.92793016e-03 -5.77958592e-04 -1.99436652e-03 -1.14285399e-03
    1.02230220e-03 -8.94892309e-03 -2.33182032e-03 -5.24718873e-03
    -1.45610434e-03 -4.86214319e-03 -3.05142929e-03 -6.60515577e-03
    1.12522894e-03 2.75294157e-03 -2.48264568e-03 9.26560548e-04
    7.44755100e-03 3.19409373e-05 -4.73102788e-03 -5.98410191e-03
    -6.76883990e-03 -6.28843810e-03 5.54765109e-03 6.75179879e-04
    6.36822823e-03 4.97531705e-03 2.82738544e-03 -3.52331507e-03
    -4.87680826e-03 -1.02489106e-02 -1.09491602e-03 3.55619239e-03
    -6.81985263e-03 2.75639445e-03 -5.87018394e-06 -1.62156054e-03
    -5.78949507e-03 -4.71283915e-03 -9.84530523e-03 -1.34244366e-02
    -2.22267467e-03 -3.84239713e-03 9.17921122e-03 3.20381927e-03
    1.59154087e-03 -3.78281064e-03 -4.04961035e-03 -1.25611890e-02
    -1.42613379e-03 7.42838532e-03 5.10617951e-03 6.36949437e-03
    3.61416652e-03 2.18827836e-03 -2.41638348e-03 -4.57643578e-03
    -6.01089699e-03 -1.16286996e-04 2.58716359e-03 2.84187729e-03
    2.57646479e-03 6.01204229e-04 2.29238952e-03 3.62663588e-04
    -2.21181381e-03 -2.34176894e-03 -9.40777548e-03 -2.11602775e-03
    -1.08576682e-03 6.88698143e-03 2.02792301e-03 -5.13481500e-04
    -3.30023398e-03 -3.11698765e-03 -6.33164821e-03 -3.78473010e-03
    -3.39757273e-04 -2.29773053e-04 4.77312645e-03 1.97468340e-04
    4.71201260e-04 -7.12667766e-04 -8.52453377e-05 -4.73950664e-03
    6.53775118e-04 8.07855185e-03 3.39182676e-03 3.10163759e-03
    -2.20347149e-03 2.33977381e-03 1.39148661e-03 -2.89754267e-03
    -6.00678334e-03 6.90433988e-03 1.02541689e-02 4.94849810e-04
    -5.34237712e-04 -6.08347822e-03 1.09463383e-03 -1.56239257e-03
    -2.21950840e-03 -5.45054907e-03 -5.38677617e-04 7.02508306e-03
    3.96603346e-03 6.68137940e-03 -5.45451604e-03 1.13573461e-03
    1.27323414e-03 -1.18473801e-03 -7.59161310e-03 2.84118694e-03
    8.41305684e-03 4.36822185e-03 2.08831672e-03 -1.19408509e-02
    -2.89036520e-03 -1.65516674e-03 -5.58631448e-03 -8.65359697e-03
    9.78738535e-03 8.23766366e-03 -2.74134160e-04 -2.32961075e-03
    -5.35207707e-03 1.00085873e-03 1.08410859e-04 -3.23580601e-03
    -6.40087295e-03 1.05396463e-02 1.62404962e-02 -3.27771553e-03
    -5.49230585e-03 -4.62233508e-03 1.81069568e-04 -4.88455640e-03
    -6.33246452e-03 -8.21083412e-03 5.23635047e-03 1.01548387e-02
    1.63103105e-03 -5.72770252e-04 -7.02482322e-03 -7.42287899e-04
    -2.35722796e-03 -8.96352064e-03 -9.09078680e-03 2.10305676e-03
    9.25016124e-03 -2.79111089e-03 -4.03513247e-03 -3.29842849e-04
    1.15224149e-03 -2.55128765e-03 -8.53800215e-03 -1.06771048e-02
    1.05047682e-02 1.68778654e-02 7.77139619e-04 -1.70872745e-03
    -1.83444179e-03 -1.01172028e-03 -6.16196869e-03 -6.07062597e-03
    -6.95197051e-03 1.57324120e-03 5.93604986e-03 -4.31417394e-03
    -5.46914013e-03 -8.21369758e-04 -8.44720944e-06 -7.29592517e-03
    -7.50926847e-04 -4.95314365e-03 5.16890502e-03 5.15639223e-03
    -5.90924779e-03 -3.22826160e-03 9.25852335e-04 4.95783286e-04
    3.86649568e-04 -4.26461361e-03 -6.96891220e-03 2.45434087e-04
    4.26448043e-03 -1.05528207e-02 -8.52271542e-03 -2.71558156e-03
    1.47681194e-03 -2.23842519e-03 -1.52662536e-03 -5.31882187e-03
    -2.88700871e-03 4.00904706e-03 -3.21780937e-03 -4.54269024e-03
    -1.14986608e-04 -1.27798109e-03 -5.24256006e-03 3.57268564e-03
    -1.24910730e-03 -3.10744043e-03 2.65278504e-03 -2.68036290e-03
    -4.22017416e-03 -4.00711410e-03 -3.60714924e-03 -3.02909222e-03
    -5.47506090e-04 -1.70676550e-03 3.56248510e-03 1.17869498e-02
    -4.91401274e-03 -5.42640919e-03 1.39017950e-03 7.41637254e-04
    -3.18192272e-03 1.11493445e-03 -3.06925410e-03 1.43991399e-03
    5.46569191e-03 -2.81564216e-03 -6.08358067e-03 -3.79535672e-03
    -4.15701000e-03 -5.57051133e-03 -4.61298553e-03 -5.93287451e-03
    1.25825673e-03 9.40356404e-03 6.08509639e-03 -1.61751686e-03
    -6.75230939e-03 -3.16742063e-03 -1.35317328e-03 -2.29382468e-03
    -2.28621881e-03 1.42584462e-03 1.08883809e-02 6.58626575e-03
    -8.60860012e-03 -1.19258603e-02 -4.90366761e-03 5.47930307e-04
    -6.53277501e-04 -4.27937508e-03 3.24633135e-03 6.87744189e-03
    3.40738241e-03 -4.81700851e-03 -4.82456572e-03 -1.89341570e-03
    -3.61263240e-03 -5.30316588e-03 -3.00707971e-03 -9.87219682e-05
    3.03818844e-03 7.39618787e-04 -7.83022307e-03 -8.58811289e-03
    -4.98918444e-03 -6.81309102e-05 3.05109512e-04 -2.38860073e-03
    3.15919315e-04 1.37555255e-02 4.66606114e-03 -6.59032026e-03
    -1.21001434e-02 -2.69342330e-03 8.37645348e-05 8.15240666e-04
    -6.68678200e-03 -5.09962998e-03 4.75499174e-03 2.50093313e-03
    6.51123642e-04 1.02116447e-03 -1.52939220e-03 8.16686952e-04
    3.02077155e-04 -9.56518948e-03 1.25263422e-03 9.36255977e-03
    3.92882898e-03 -5.14256442e-03 -1.08382665e-02 -3.71702225e-03
    2.78810679e-04 4.30667493e-03 -3.03952349e-03 -6.20661909e-03
    3.56728374e-03 4.62671882e-03 2.83837435e-03 -8.49847158e-04
    -7.40666583e-05 1.39582192e-03 2.75605475e-03 -2.49175751e-03
    -5.91831841e-03 2.23103212e-03 4.74236207e-03 3.36157344e-03
    -6.21062145e-03 -2.30842526e-03 -4.73967724e-04 -8.42688896e-04
    -3.30723496e-03 -6.98854076e-03 1.07765186e-03 3.99136264e-03
    2.00870418e-04 -1.00415032e-02 -2.63917982e-03 -6.22151420e-04
    1.23456318e-03 -1.88075274e-03 -7.35781202e-03 5.03469864e-03
    5.62411780e-03 -1.68289640e-03 -6.59581553e-03 2.88916199e-04
    1.50571309e-03 5.81256696e-04 -1.53429876e-03 -4.55004536e-03
    6.96990639e-03 9.32718348e-03 -1.05179346e-03 -8.00380949e-03
    -5.14632731e-04 -9.43869876e-04 9.66796477e-04 -4.27601277e-04
    -8.28363560e-03 -2.56400625e-03 1.49775879e-03 -2.37163273e-03
    -7.18017155e-03 -1.51524798e-03 3.90725327e-04 1.25877932e-03
    -4.03676368e-03 -1.23023503e-02 -3.73480702e-03 6.49547903e-03
    5.36476681e-03 2.31805188e-03 1.85264891e-03 4.19747870e-04
    6.03292545e-04 -8.54909793e-03 -6.73276605e-03 6.49262511e-04
    6.64706901e-03 -1.31505413e-03 -8.40272754e-03 8.40890920e-04
    1.31102523e-03 5.88872470e-04 -1.32879650e-03 -8.51292070e-03
    -9.53558600e-04 6.84087770e-03 8.91464483e-03 -1.58678694e-03
    1.41519739e-03 -1.90070350e-04 -7.14984781e-04 -6.65014144e-03
    -1.35012884e-02 -2.11420655e-03 5.84520074e-03 5.70972683e-03
    6.31063804e-03 6.42079569e-04 -1.15431880e-03 9.11895128e-04
    -8.75919778e-03 -1.48825925e-02 -6.71557244e-03 5.95155312e-03
    5.15973568e-03 -7.61303073e-03 -5.93964243e-04 1.09686749e-03
    1.27832638e-03 -7.40507944e-03 -8.00873060e-03 -2.73560337e-03
    8.87327082e-03 7.29925558e-03 -1.16547698e-03 -2.01195758e-03
    -1.84845226e-03 2.94374506e-04 -3.07468814e-03 -9.95864812e-03
    -5.51444013e-03 7.32044503e-03 5.60437841e-03 -1.00461543e-02
    -1.78563839e-03 -1.62299431e-04 1.64720067e-03 -3.45417531e-03
    -8.44559632e-03 -4.55862144e-03 6.72315201e-03 2.07597436e-03
    -8.34891200e-03 7.60824187e-04 5.49491588e-03 6.00727554e-03
    1.20788312e-03 -1.03433207e-02 -8.99268873e-03 7.05777993e-03
    -3.89441219e-03 -8.83912854e-03 5.32266102e-04 3.81033076e-03
    3.93493846e-03 -9.95823357e-05 -3.88607290e-03 -3.99863813e-03
    1.19873639e-02 6.47524605e-03 -4.87067038e-03 -5.88212395e-04
    4.80775395e-03 5.23449760e-03 5.68844099e-03 -1.01951826e-02
    -8.97066854e-03 3.94824520e-03 -3.40958987e-03 -6.93480438e-03
    -1.48016575e-03 6.33439701e-03 3.72322835e-03 1.56976609e-03
    -8.39593634e-03 -8.59595463e-03 6.28522551e-03 -1.16987946e-03
    8.17696506e-04 -1.01918611e-03 3.40211694e-03 3.64628970e-03
    5.89932431e-04 -9.38049052e-03 -5.38540073e-03 5.51090995e-03
    -3.52687412e-03 -8.03085510e-03 -8.68180487e-03 6.21737738e-04
    -6.14974182e-04 -3.82182188e-03 -6.77018007e-03 -8.05644691e-03
    9.02434532e-03 -3.41638620e-03 -2.52332981e-03 1.90106034e-03
    1.20094083e-02 7.70204421e-03 4.00728919e-03 -1.07934652e-02
    -2.01741466e-03 9.46991704e-03 -3.78054613e-03 -9.71787795e-03
    -5.43963443e-03 6.94434391e-03 5.16910572e-03 -1.48524018e-03
    -9.30430461e-03 -2.13212962e-03 6.04307326e-03 -9.43886861e-03
    -1.06268991e-02 -5.88952145e-03 1.29857461e-03 -8.53908947e-04
    -4.27208748e-03 -6.80833077e-03 2.21200008e-03 9.94331203e-03
    -1.23571372e-02 -1.11290319e-02 -3.99736129e-03 1.03354454e-03
    7.03512458e-04 -3.31393164e-03 -9.35610570e-03 -2.30957463e-04
    1.50822122e-02 -4.79567330e-03 -1.12737762e-02 -4.31573205e-03
    5.89253707e-03 4.69449256e-03 -7.10818858e-04 -8.84591695e-03
    4.17059893e-03 2.20829025e-02 -2.35614320e-03 -7.85400160e-03
    -1.99696561e-03 3.21324775e-03 1.07609294e-03 -2.17228336e-03
    1.99203705e-03 -3.93934129e-03 -3.09281051e-03 8.77989864e-04
    1.74501108e-03 6.81115198e-04 -4.41316166e-04 -1.81246418e-04
    3.90318176e-03 -9.28684254e-04 3.09769064e-04 -5.89150889e-03
    2.24244990e-03 -1.91368489e-03 -1.03675306e-03 -3.27777141e-03
    -2.79488461e-03 -4.74127010e-03 -2.27488950e-03 -2.10787961e-03
    -3.36569943e-03 2.11973806e-04 9.60559526e-04 -1.95246062e-03
    -3.31602292e-03 -4.22998425e-03 -6.76578889e-03 -5.44280838e-03
    1.07212836e-04 -7.37039745e-03 -1.45464542e-03 -1.61962991e-03
    -1.55092566e-03 -5.19692572e-03 -5.92464814e-03 -5.32643078e-03
    -2.87387427e-03 8.10767815e-04 -8.99707247e-03 3.30816559e-03
    2.65671709e-03 -9.51442868e-04 -1.68329373e-03 -1.46284746e-03
    -5.74315898e-03 -8.80855322e-03 -2.47260119e-04 -8.23321287e-03
    7.80274253e-03 2.78356555e-03 1.56854012e-03 1.17768731e-03
    -2.17184634e-03 -8.57385527e-03 -5.27279219e-03 4.73025721e-03
    -6.15289528e-03 1.43567886e-04 -2.32662656e-03 -1.00401160e-03
    -5.20954793e-03 -3.40941385e-03 -8.40491895e-03 -7.95154925e-03
    6.22573821e-03 -3.62316729e-03 7.31372507e-03 1.10890635e-03
